Language model created by QuickLM on Thu Nov  1 15:07:47 EDT 2018
Copyright (c) 1996-2010 Carnegie Mellon University and Alexander I. Rudnicky

The model is in standard ARPA format, designed by Doug Paul while he was at MITRE.

The code that was used to produce this language model is available in Open Source.
Please visit http://www.speech.cs.cmu.edu/tools/ for more information

The (fixed) discount mass is 0.5. The backoffs are computed using the ratio method.
This model based on a corpus of 230 sentences and 497 words

\data\
ngram 1=497
ngram 2=782
ngram 3=600

\1-grams:
-0.9687 </s> -0.3010
-0.9687 <s> -0.2436
-3.3304 ACCIDENT -0.2516
-3.3304 ADORE -0.3008
-3.3304 ADORES -0.2516
-3.3304 ADVANCEMENTS -0.2516
-3.3304 ADVENTURE -0.3008
-3.3304 ADVENTURING -0.2516
-3.3304 AGNOSTICISM -0.3008
-3.3304 ALGERNON -0.2516
-3.3304 AM -0.3002
-3.3304 ANCIENT -0.3008
-3.3304 ANGRY -0.2516
-3.3304 ANXIETY -0.3006
-3.0294 ANXIOUS -0.2516
-3.3304 APOLOGIZE -0.3008
-3.3304 APOLOGIZED -0.2516
-3.3304 APPRECIATING -0.3008
-3.3304 ARCHETYPES -0.3008
-3.0294 ARE -0.2514
-3.3304 ARGUE -0.2516
-3.3304 ARGUING -0.3008
-3.3304 ATHLETIC -0.2516
-3.3304 AWARE -0.3008
-3.3304 AWESOME -0.2516
-3.3304 BAKE -0.3008
-3.3304 BAKING -0.2516
-3.3304 BANK -0.3006
-3.3304 BE -0.3006
-3.3304 BEACH -0.2516
-3.3304 BEAUTIFUL -0.2516
-3.3304 BECOMING -0.3008
-3.0294 BEING -0.2507
-3.3304 BELIEVE -0.3008
-3.3304 BEST -0.3008
-3.0294 BIRTHDAY -0.2516
-2.6314 BOOK -0.2510
-3.0294 BOOKS -0.2514
-3.3304 BORED -0.2516
-3.3304 BREAKING -0.2516
-3.3304 BREAKUP -0.3008
-2.7284 BYE -0.3002
-3.3304 CAREFUL -0.3006
-3.3304 CAT -0.3008
-3.3304 CATCHPHRASE -0.3008
-3.3304 CATS -0.3008
-3.3304 CHALLENGE -0.3008
-3.3304 CHALLENGES -0.2516
-3.0294 CHANGE -0.3006
-3.0294 CHARACTER -0.3006
-3.3304 CHESS -0.2516
-3.3304 CHLOROFORM -0.2516
-3.3304 CITIES -0.3008
-3.3304 CITIZENSHIP -0.3008
-3.3304 CITY -0.2516
-3.3304 CLASS -0.2516
-3.3304 CLASSICAL -0.3004
-3.3304 CLASSROOM -0.2516
-3.3304 CLONE -0.3008
-3.3304 CLONED -0.3008
-3.3304 CLONES -0.2516
-3.3304 CLOSE -0.3006
-3.3304 CLOSEST -0.3006
-3.3304 CLOSET -0.3008
-3.3304 CLOTHES -0.2516
-3.0294 CLUB -0.2514
-3.0294 CODE -0.2512
-3.0294 CODING -0.2512
-3.3304 COFFEE -0.3008
-3.3304 COLD -0.3008
-3.3304 COLLAGE -0.2516
-3.3304 COLOR -0.3008
-3.3304 COMPLETIONISM -0.3008
-3.3304 COMPLETIST -0.2516
-3.3304 CONCERN -0.2516
-3.3304 CONCERT -0.2516
-3.3304 CONCERTS -0.3008
-3.0294 CONFIDENCE -0.3004
-3.3304 CONFIDENT -0.2516
-3.3304 CONTACT -0.2516
-3.3304 CONTENT -0.3008
-3.3304 CONTRIBUTE -0.3008
-3.3304 CONTRIBUTIONS -0.2516
-3.3304 CONVERSATION -0.2516
-3.3304 CREAM -0.2516
-3.3304 CREATE -0.2516
-3.3304 CREATIVE -0.3008
-3.3304 CREDIT -0.3008
-3.3304 CREDITS -0.3008
-3.3304 CROSSING -0.2516
-3.3304 CROSSOVER -0.3008
-3.3304 CUDDLE -0.2516
-3.3304 CUDDLING -0.3008
-3.3304 CUPCAKE -0.3008
-3.3304 CUPCAKES -0.3008
-3.3304 DAN -0.3008
-3.3304 DATE -0.2516
-3.3304 DATING -0.3008
-3.3304 DAYDREAM -0.3006
-3.3304 DDLC -0.3008
-3.3304 DEAD -0.3008
-3.0294 DEATH -0.2514
-3.3304 DEBATE -0.3006
-3.3304 DEDICATION -0.3008
-3.3304 DID -0.3006
-3.3304 DIFFICULT -0.3008
-3.3304 DILEMMA -0.2516
-3.3304 DISBELIEF -0.2516
-3.0294 DO -0.3000
-3.3304 DOG -0.3008
-3.3304 DOGS -0.2516
-3.3304 DOKI -0.3008
-3.3304 DOWNLOAD -0.2516
-3.3304 DOWNLOADS -0.3008
-3.3304 DRAW -0.3008
-3.3304 DRAWING -0.2516
-3.0294 DREAM -0.2512
-3.0294 DREAMING -0.2512
-3.0294 DRINK -0.2516
-3.0294 DRINKING -0.3004
-3.3304 DUNBAR -0.3008
-3.3304 DYING -0.2516
-3.3304 EARTH -0.2516
-3.3304 EASY -0.2516
-3.3304 EDUCATION -0.3008
-3.3304 EIGHTY -0.3006
-3.3304 ELSE -0.3006
-3.3304 EMBARRASSING -0.2516
-3.3304 EMERALD -0.2516
-3.3304 ENGAGEMENT -0.3008
-3.3304 ETERNITY -0.3008
-3.3304 EVENING -0.2516
-3.3304 EVERYONE -0.2516
-3.3304 EXPERIMENTS -0.3008
-3.3304 EXPLAIN -0.3008
-3.3304 EYE -0.3006
-3.0294 EYES -0.2514
-3.3304 FACE -0.3006
-3.3304 FACTS -0.2516
-3.3304 FAKE -0.3008
-3.3304 FAKING -0.3006
-2.8533 FAMILY -0.2516
-3.3304 FANART -0.3008
-3.3304 FANFICTION -0.2516
-3.3304 FANTASIES -0.2516
-3.3304 FAP -0.3008
-3.3304 FAPPING -0.3008
-3.3304 FASTFOOD -0.3008
-2.7284 FAVORITE -0.2990
-2.2512 FEEL -0.2978
-3.3304 FEELING -0.2516
-3.3304 FELINE -0.2516
-3.0294 FESTIVAL -0.2516
-3.3304 FICTION -0.2516
-3.3304 FIFTH -0.3008
-3.3304 FIRST -0.3006
-3.0294 FIT -0.2514
-3.3304 FITNESS -0.3006
-3.3304 FIVE -0.2516
-3.3304 FLOWERS -0.3008
-3.3304 FOOD -0.3008
-3.3304 FOODS -0.2516
-3.3304 FOR -0.3006
-3.3304 FORM -0.3008
-3.3304 FORMING -0.3008
-3.0294 FOUR -0.2516
-3.3304 FOURCHAN -0.3006
-3.3304 FOURTH -0.3006
-3.3304 FREE -0.3008
-3.0294 FRIEND -0.3004
-3.0294 FRIENDS -0.3004
-3.3304 FRUIT -0.3008
-3.3304 FRUITS -0.2516
-3.3304 FUN -0.3008
-3.3304 FUNCTIONALISM -0.2516
-3.3304 FUNERAL -0.3008
-2.6314 GAME -0.2512
-3.0294 GAMES -0.3000
-3.3304 GATHERING -0.3004
-3.3304 GENRE -0.3008
-3.3304 GHOST -0.3008
-3.3304 GIRL -0.2516
-3.3304 GIRLFRIEND -0.2516
-3.0294 GIRLS -0.3004
-3.3304 GOD -0.3008
-3.3304 GOOD -0.3008
-2.7284 GOODBYE -0.2996
-3.3304 GOODNIGHT -0.2516
-3.3304 HABIT -0.3008
-3.3304 HABITS -0.2516
-3.3304 HACK -0.3008
-3.3304 HACKER -0.3008
-3.3304 HACKING -0.2516
-3.0294 HAD -0.2512
-2.8533 HAIR -0.2512
-3.3304 HAMLET -0.2516
-3.3304 HAPPINESS -0.2516
-3.0294 HAPPY -0.3004
-3.3304 HAREM -0.3008
-3.3304 HARM -0.3008
-3.3304 HARMING -0.3008
-3.0294 HAS -0.3004
-3.3304 HATE -0.3008
-3.3304 HATER -0.3008
-3.3304 HATERS -0.2516
-3.3304 HATSUNE -0.3008
-3.0294 HAVE -0.3002
-3.3304 HE -0.3008
-3.3304 HEARD -0.3008
-3.3304 HEDGEHOG -0.3008
-3.3304 HENTAI -0.2516
-3.3304 HERO -0.2516
-3.3304 HEROISM -0.3008
-3.3304 HIGH -0.3006
-3.3304 HIGHER -0.3008
-3.3304 HOME -0.2516
-3.3304 HORROR -0.3008
-3.3304 HOUSEWIFE -0.2516
-3.3304 HUNDRED -0.3008
-3.3304 HUNGRY -0.2516
-3.3304 HURT -0.2516
-3.3304 HYDRATION -0.3008
-3.3304 HYGIENE -0.3008
-3.3304 HYPNOSIS -0.2516
-3.3304 HYPNOTIZED -0.3008
-3.3304 HYPOTHESIS -0.3008
-3.3304 I -0.3008
-3.3304 ICE -0.3008
-3.3304 ICECREAM -0.3008
-3.3304 IGNORANCE -0.2516
-3.3304 IMAGES -0.2516
-3.3304 IMMORTAL -0.3008
-3.3304 IMMORTALITY -0.2516
-3.3304 IMPRESSION -0.2516
-3.3304 IMPRISONED -0.3008
-3.3304 INADEQUATE -0.2516
-3.3304 INNOVATION -0.2516
-3.3304 INTAKE -0.2516
-3.3304 INTELLIGENT -0.2516
-3.0294 INTERNET -0.2514
-3.3304 INTRODUCING -0.2516
-3.3304 IS -0.3008
-3.3304 IT -0.3008
-3.3304 JAPAN -0.3008
-3.3304 JAPANESE -0.3008
-3.3304 JAZZ -0.2516
-3.3304 JUSTIFICATION -0.3008
-3.3304 KISS -0.3006
-3.0294 LACK -0.2514
-3.3304 LANGUAGE -0.2516
-3.3304 LAST -0.3006
-3.3304 LAZINESS -0.2516
-3.3304 LAZY -0.3008
-3.3304 LIBITINA -0.2516
-3.0294 LIFE -0.2516
-3.3304 LILMONIXTHREE -0.2516
-3.3304 LINGER -0.3002
-3.3304 LINGERING -0.3008
-3.3304 LISTENER -0.3008
-3.3304 LITERATURE -0.3006
-3.3304 LITTLE -0.3006
-3.3304 LIVING -0.3008
-3.3304 LONELY -0.2516
-3.3304 LOTTERY -0.3008
-2.7284 LOVE -0.2994
-3.3304 LOVING -0.3008
-3.3304 LUCK -0.3008
-3.3304 LUCKY -0.2516
-3.3304 MAIN -0.3006
-3.3304 MAKING -0.3006
-3.3304 MANGA -0.3006
-3.3304 MARKOV -0.2516
-3.3304 MARRIAGE -0.3008
-3.3304 MARRY -0.2516
-3.3304 MASTURBATE -0.2516
-3.3304 MATURE -0.3008
-3.3304 MC -0.2516
-3.0294 ME -0.2514
-3.3304 MEAT -0.3008
-3.3304 MEDIA -0.3008
-3.3304 MEDITATING -0.2516
-3.3304 MEDITATION -0.3008
-3.3304 MEMORIES -0.3008
-3.3304 MEMORY -0.3008
-3.3304 MENTAL -0.3006
-3.3304 MESSAGE -0.2516
-3.3304 METAFICTIONAL -0.3008
-3.3304 MIDDLE -0.3006
-3.3304 MIKU -0.2516
-3.3304 MISS -0.3006
-3.0294 MISSING -0.3000
-3.3304 MONEY -0.2516
-3.3304 MONIKA -0.2516
-3.3304 MORNING -0.2516
-3.3304 MORTALITY -0.2516
-3.3304 MOTIVATION -0.2516
-3.3304 MURDER -0.3008
-3.3304 MURDERER -0.2516
-2.8533 MUSIC -0.2514
-3.3304 MYTHOLOGY -0.2516
-3.0294 NAME -0.2516
-3.3304 NATSUKI -0.3006
-3.3304 NATURE -0.2516
-3.0294 NATUSKI -0.2505
-3.3304 NEAR -0.2516
-3.3304 NIHILISM -0.3008
-3.3304 NINETY -0.3008
-3.3304 NOT -0.3006
-3.0294 NOVEL -0.2514
-3.3304 NOVELS -0.3006
-3.3304 NSFW -0.3008
-3.3304 NUCLEAR -0.3008
-3.3304 NUMBER -0.2516
-3.3304 OBSESSE -0.2516
-3.3304 OBSESSED -0.3008
-3.3304 OKAY -0.3008
-3.0294 OLDER -0.2512
-3.3304 OMAMORI -0.2516
-3.0294 ONE -0.2514
-3.3304 ORCHESTRA -0.3008
-3.3304 OTAKU -0.2516
-2.7284 OTHER -0.3000
-3.3304 OUR -0.3004
-3.3304 PANTIES -0.3008
-3.3304 PARENT -0.3008
-3.3304 PARENTS -0.2516
-3.3304 PEN -0.3006
-3.3304 PEOPLE -0.2516
-3.3304 PERSONAL -0.2516
-3.3304 PET -0.3008
-3.3304 PETS -0.2516
-3.3304 PIANO -0.2516
-3.3304 PIGGY -0.3008
-3.3304 PLACEMENT -0.2516
-3.3304 PLAY -0.3000
-3.3304 PLEASURE -0.3008
-3.3304 PLURALISTIC -0.3008
-3.0294 POEM -0.2516
-3.3304 POETRY -0.2516
-3.3304 PONG -0.3008
-3.3304 PONYTAIL -0.2516
-3.3304 PORN -0.3008
-3.3304 PORTRAIT -0.3008
-3.3304 PRISON -0.2516
-3.3304 PRISONER -0.2516
-3.3304 PROBLEM -0.2516
-3.3304 PROCESSION -0.2516
-3.3304 PROGRAMMING -0.3006
-3.3304 PROM -0.3006
-3.3304 PROUD -0.2516
-3.3304 RAIN -0.3008
-3.3304 RAINING -0.2516
-3.3304 RAP -0.3004
-3.0294 READ -0.2505
-3.3304 READER -0.3006
-3.0294 REAL -0.3006
-2.8533 REALITY -0.2514
-3.3304 REALIZE -0.2516
-3.3304 RECOMMENDATION -0.3008
-3.3304 RECOMMENDATIONS -0.2516
-3.3304 REGRET -0.2516
-3.3304 REGRETS -0.3008
-3.3304 RELATIONSHIP -0.2516
-3.3304 RELAXING -0.3006
-3.3304 RELIGION -0.2516
-3.3304 RESOURCE -0.3008
-3.3304 RESOURCES -0.3008
-3.3304 RIBBON -0.2516
-3.3304 RING -0.3008
-3.3304 ROAD -0.3008
-3.3304 ROCK -0.3008
-3.3304 ROLL -0.2516
-3.3304 ROMANCE -0.2516
-3.3304 ROMANTIC -0.3008
-3.3304 ROUTE -0.2516
-3.3304 SAD -0.2516
-3.0294 SAFE -0.3006
-3.3304 SALVATO -0.2516
-3.0294 SAVE -0.3004
-3.0294 SAVING -0.3002
-3.0294 SAYORI -0.3004
-3.3304 SCARY -0.3008
-3.0294 SCHOOL -0.2512
-3.3304 SCIENCE -0.3008
-3.3304 SECOND -0.2516
-3.3304 SELFHARM -0.3008
-3.3304 SET -0.2516
-3.3304 SETTING -0.3008
-3.3304 SHE -0.3008
-3.3304 SHIPPING -0.3008
-3.3304 SHIPS -0.2516
-3.0294 SICK -0.2514
-3.3304 SICKNESS -0.2516
-3.3304 SIMULATED -0.3004
-3.0294 SISTER -0.2516
-2.8533 SLEEP -0.3004
-3.3304 SLEEPING -0.3004
-3.3304 SMASH -0.3000
-3.3304 SMILE -0.2516
-3.3304 SMOKE -0.3008
-3.3304 SMOKING -0.2516
-3.3304 SOCIAL -0.3008
-3.3304 SODA -0.3006
-3.3304 SOMEONE -0.3008
-3.3304 SOMEWHERE -0.2516
-3.3304 SONG -0.3006
-3.3304 SORRY -0.3008
-3.3304 SOUND -0.3008
-3.3304 SOUNDS -0.3008
-3.3304 SPEAKING -0.3008
-3.3304 SPICY -0.3008
-3.3304 SPIDER -0.2516
-3.3304 SPIDERS -0.3008
-3.3304 SPOOKY -0.2516
-3.3304 SPORT -0.3008
-3.3304 SPORTS -0.3008
-3.3304 STRAIGHT -0.2516
-3.0294 STYLE -0.3006
-3.3304 SUDDEN -0.3008
-3.3304 SUPER -0.3008
-3.3304 SUPERNATURAL -0.2516
-3.3304 SURPRISE -0.3008
-3.3304 SURPRISES -0.2516
-3.3304 SWORD -0.2516
-3.3304 SWORDSMANSHIP -0.3008
-3.3304 TAKE -0.3008
-3.3304 TEA -0.3008
-3.3304 TECHNIQUE -0.3006
-3.3304 THEY -0.3002
-3.3304 THINK -0.2516
-3.3304 THIRD -0.2516
-3.3304 THOUGHTS -0.3008
-3.3304 THOUSAND -0.3008
-3.3304 THREE -0.3008
-2.6314 TIP -0.3000
-3.3304 TIRE -0.2516
-2.8533 TIRED -0.2514
-3.3304 TOGETHER -0.3008
-3.3304 TORMENT -0.3008
-3.3304 TOTONO -0.2516
-3.3304 TRIP -0.2516
-3.3304 TROLLEY -0.3008
-3.3304 TROPES -0.3008
-3.3304 TRUE -0.2516
-3.3304 TSUNDERE -0.3006
-3.3304 TWITTER -0.3008
-3.3304 TWO -0.3008
-3.3304 TYPE -0.3008
-3.3304 TYPES -0.3008
-3.3304 UNDEAD -0.2516
-3.3304 UNDERGARMENT -0.2516
-3.3304 UNDERGARMENTS -0.3008
-3.3304 UNHEALTHY -0.2516
-3.3304 UNREALISTIC -0.2516
-3.3304 URGENT -0.3008
-3.3304 VALUABLE -0.2516
-3.3304 VEGAN -0.3008
-3.3304 VEGETARIAN -0.3008
-3.0294 VIDEO -0.2996
-3.3304 VIDYA -0.2516
-3.3304 VIRTUAL -0.3006
-3.3304 VISUAL -0.3008
-3.3304 VN -0.2516
-3.3304 VOCALOID -0.3008
-3.3304 WAIFU -0.3008
-3.3304 WAIFUS -0.2516
-3.3304 WAITING -0.2516
-3.3304 WALLPAPER -0.2516
-3.3304 WAR -0.3008
-3.3304 WARFARE -0.2516
-3.3304 WAS -0.3008
-3.3304 WATER -0.2516
-3.3304 WE -0.3006
-3.3304 WEARING -0.3002
-3.3304 WEARY -0.3004
-3.3304 WEATHER -0.3008
-3.3304 WEDDING -0.2516
-3.3304 WERE -0.3006
-3.3304 WHEN -0.2516
-3.3304 WHILE -0.2516
-3.3304 WHY -0.3006
-3.3304 WILL -0.2516
-3.3304 WINE -0.3008
-3.3304 WINNINGS -0.2516
-3.3304 WOLF -0.3008
-3.3304 WOLVES -0.2516
-3.0294 WORK -0.2514
-2.5523 WRITING -0.2505
-3.3304 WRITINGS -0.2998
-3.3304 YANDERE -0.3000
-3.3304 YEAR -0.3006
-3.3304 YELLOW -0.3008
-2.7284 YOU -0.2994
-3.0294 YOUR -0.2510
-3.3304 YOURSELF -0.3008
-2.6314 YURI -0.2498
-3.3304 ZOMBIES -0.3008

\2-grams:
-2.6628 <s> ADORE 0.0000
-2.6628 <s> ADVENTURE 0.0000
-2.6628 <s> ANCIENT 0.0000
-2.6628 <s> APPRECIATING 0.0000
-2.6628 <s> AWARE 0.0000
-2.6628 <s> AWESOME 0.0000
-2.6628 <s> BEACH 0.0000
-2.6628 <s> BEAUTIFUL 0.0000
-2.6628 <s> BECOMING 0.0000
-2.6628 <s> BEST 0.0000
-2.6628 <s> BIRTHDAY 0.0000
-2.3617 <s> BOOK -0.2041
-2.6628 <s> BREAKUP 0.0000
-2.0607 <s> BYE 0.0000
-2.6628 <s> CAREFUL 0.0000
-2.6628 <s> CAT 0.0000
-2.6628 <s> CATCHPHRASE 0.0000
-2.6628 <s> CHALLENGE 0.0000
-2.6628 <s> CHARACTER -0.1761
-2.6628 <s> CHESS 0.0000
-2.6628 <s> CHLOROFORM 0.0000
-2.6628 <s> CITIES 0.0000
-2.6628 <s> CITIZENSHIP 0.0000
-2.6628 <s> CLONE 0.0000
-2.6628 <s> CLOSE 0.0000
-2.6628 <s> CLOSET 0.0000
-2.6628 <s> COFFEE 0.0000
-2.6628 <s> COLD 0.0000
-2.6628 <s> COMPLETIONISM 0.0000
-2.6628 <s> CONFIDENCE -0.1761
-2.6628 <s> CONTRIBUTE 0.0000
-2.6628 <s> CREATIVE 0.0000
-2.6628 <s> CREDIT 0.0000
-2.6628 <s> CUPCAKE 0.0000
-2.6628 <s> DAN 0.0000
-2.6628 <s> DATING 0.0000
-2.6628 <s> DAYDREAM 0.0000
-2.6628 <s> DEATH -0.1761
-2.6628 <s> DEBATE 0.0000
-2.6628 <s> DEDICATION 0.0000
-2.6628 <s> DIFFICULT 0.0000
-2.6628 <s> DO -0.1761
-2.6628 <s> DOG 0.0000
-2.6628 <s> DOKI 0.0000
-2.6628 <s> DRAW 0.0000
-2.6628 <s> DREAM -0.1761
-2.6628 <s> DRINKING -0.1761
-2.6628 <s> DUNBAR 0.0000
-2.6628 <s> ENGAGEMENT 0.0000
-2.6628 <s> ETERNITY 0.0000
-2.6628 <s> EVENING 0.0000
-2.6628 <s> EXPLAIN 0.0000
-2.6628 <s> EYE 0.0000
-2.6628 <s> FACE 0.0000
-2.6628 <s> FAKE 0.0000
-2.6628 <s> FAMILY 0.0000
-2.6628 <s> FANART 0.0000
-2.6628 <s> FANFICTION 0.0000
-2.6628 <s> FASTFOOD 0.0000
-2.0607 <s> FAVORITE 0.0000
-1.5836 <s> FEEL 0.0000
-2.6628 <s> FIT -0.1761
-2.6628 <s> FLOWERS 0.0000
-2.6628 <s> FORMING 0.0000
-2.6628 <s> FOURCHAN 0.0000
-2.6628 <s> FREE 0.0000
-2.6628 <s> FRIENDS -0.1761
-2.6628 <s> FRUIT 0.0000
-2.6628 <s> FUN 0.0000
-2.6628 <s> FUNCTIONALISM 0.0000
-2.6628 <s> FUNERAL 0.0000
-2.6628 <s> GATHERING 0.0000
-2.6628 <s> GHOST 0.0000
-2.6628 <s> GIRLFRIEND 0.0000
-2.6628 <s> GOD 0.0000
-2.6628 <s> GOOD 0.0000
-2.6628 <s> HACK 0.0000
-2.3617 <s> HAIR -0.1249
-2.6628 <s> HAMLET 0.0000
-2.6628 <s> HAPPY -0.1761
-2.6628 <s> HAREM 0.0000
-2.6628 <s> HATE 0.0000
-2.6628 <s> HEARD 0.0000
-2.6628 <s> HEDGEHOG 0.0000
-2.6628 <s> HEROISM 0.0000
-2.6628 <s> HIGH 0.0000
-2.6628 <s> HIGHER 0.0000
-2.6628 <s> HORROR 0.0000
-2.6628 <s> HOUSEWIFE 0.0000
-2.6628 <s> HYDRATION 0.0000
-2.6628 <s> HYGIENE 0.0000
-2.6628 <s> HYPNOTIZED 0.0000
-2.6628 <s> HYPOTHESIS 0.0000
-2.6628 <s> I 0.0000
-2.6628 <s> ICECREAM 0.0000
-2.6628 <s> IMMORTAL 0.0000
-2.6628 <s> IMPRESSION 0.0000
-2.6628 <s> IMPRISONED 0.0000
-2.6628 <s> INNOVATION 0.0000
-2.6628 <s> INTELLIGENT 0.0000
-2.6628 <s> INTERNET -0.1761
-2.6628 <s> JAPANESE 0.0000
-2.6628 <s> JAZZ 0.0000
-2.6628 <s> JUSTIFICATION 0.0000
-2.6628 <s> KISS 0.0000
-2.6628 <s> LACK -0.1761
-2.6628 <s> LAST 0.0000
-2.6628 <s> LAZY 0.0000
-2.6628 <s> LINGERING 0.0000
-2.6628 <s> LITTLE 0.0000
-2.6628 <s> LOTTERY 0.0000
-2.1856 <s> LOVE -0.0969
-2.6628 <s> MAIN 0.0000
-2.6628 <s> MAKING 0.0000
-2.6628 <s> MANGA 0.0000
-2.6628 <s> MARRIAGE 0.0000
-2.6628 <s> MEDITATION 0.0000
-2.6628 <s> MEMORIES 0.0000
-2.6628 <s> MENTAL 0.0000
-2.6628 <s> METAFICTIONAL 0.0000
-2.6628 <s> MIDDLE 0.0000
-2.6628 <s> MISS 0.0000
-2.6628 <s> MISSING -0.1761
-2.6628 <s> MORNING 0.0000
-2.6628 <s> MUSIC -0.2218
-2.6628 <s> NAME 0.0000
-2.6628 <s> NATSUKI 0.0000
-2.6628 <s> NIHILISM 0.0000
-2.6628 <s> NINETY 0.0000
-2.6628 <s> NSFW 0.0000
-2.6628 <s> NUCLEAR 0.0000
-2.6628 <s> OLDER -0.1761
-2.6628 <s> OMAMORI 0.0000
-2.6628 <s> ONE -0.1761
-2.6628 <s> ORCHESTRA 0.0000
-2.6628 <s> OTAKU 0.0000
-2.3617 <s> OTHER -0.0969
-2.6628 <s> PARENT 0.0000
-2.6628 <s> PEN 0.0000
-2.6628 <s> PET 0.0000
-2.6628 <s> PIGGY 0.0000
-2.6628 <s> PLAY 0.0000
-2.6628 <s> PLEASURE 0.0000
-2.6628 <s> POETRY 0.0000
-2.6628 <s> PONG 0.0000
-2.6628 <s> PROGRAMMING 0.0000
-2.6628 <s> PROM 0.0000
-2.6628 <s> RAP 0.0000
-2.6628 <s> REAL -0.1761
-2.6628 <s> RESOURCES 0.0000
-2.6628 <s> RIBBON 0.0000
-2.6628 <s> ROAD 0.0000
-2.6628 <s> ROCK 0.0000
-2.6628 <s> ROMANTIC 0.0000
-2.6628 <s> ROUTE 0.0000
-2.6628 <s> SAVE -0.1761
-2.6628 <s> SAYORI -0.1761
-2.6628 <s> SCIENCE 0.0000
-2.6628 <s> SELFHARM 0.0000
-2.6628 <s> SETTING 0.0000
-2.6628 <s> SHIPPING 0.0000
-2.3617 <s> SLEEP -0.1249
-2.6628 <s> SMILE 0.0000
-2.6628 <s> SMOKE 0.0000
-2.6628 <s> SOMEONE 0.0000
-2.6628 <s> SORRY 0.0000
-2.6628 <s> SOUND 0.0000
-2.6628 <s> SPICY 0.0000
-2.6628 <s> SPIDERS 0.0000
-2.6628 <s> SPORTS 0.0000
-2.6628 <s> SUDDEN 0.0000
-2.6628 <s> SUPER 0.0000
-2.6628 <s> SURPRISE 0.0000
-2.6628 <s> SWORDSMANSHIP 0.0000
-2.6628 <s> TAKE 0.0000
-2.6628 <s> TECHNIQUE 0.0000
-2.6628 <s> TOGETHER 0.0000
-2.6628 <s> TORMENT 0.0000
-2.6628 <s> TOTONO 0.0000
-2.6628 <s> TROLLEY 0.0000
-2.6628 <s> TSUNDERE 0.0000
-2.6628 <s> TWITTER 0.0000
-2.6628 <s> UNDERGARMENTS 0.0000
-2.6628 <s> URGENT 0.0000
-2.6628 <s> VEGETARIAN 0.0000
-2.6628 <s> VIDEO -0.1761
-2.6628 <s> VIRTUAL 0.0000
-2.6628 <s> VOCALOID 0.0000
-2.6628 <s> WAIFU 0.0000
-2.6628 <s> WAS 0.0000
-2.6628 <s> WEARING 0.0000
-2.6628 <s> WEARY 0.0000
-2.6628 <s> WHY 0.0000
-2.6628 <s> WOLF 0.0000
-1.9638 <s> WRITING -0.0669
-2.6628 <s> WRITINGS 0.0000
-2.6628 <s> YANDERE 0.0000
-2.6628 <s> YELLOW 0.0000
-2.6628 <s> YOURSELF 0.0000
-2.1856 <s> YURI -0.1461
-2.6628 <s> ZOMBIES 0.0000
-0.3010 ACCIDENT </s> -0.3010
-0.3010 ADORE ADORES 0.0000
-0.3010 ADORES </s> -0.3010
-0.3010 ADVANCEMENTS </s> -0.3010
-0.3010 ADVENTURE ADVENTURING 0.0000
-0.3010 ADVENTURING </s> -0.3010
-0.3010 AGNOSTICISM DISBELIEF 0.0000
-0.3010 ALGERNON </s> -0.3010
-0.3010 AM YOU -0.2430
-0.3010 ANCIENT MYTHOLOGY 0.0000
-0.3010 ANGRY </s> -0.3010
-0.3010 ANXIETY ANXIOUS 0.0000
-0.3010 ANXIOUS </s> -0.3010
-0.3010 APOLOGIZE APOLOGIZED 0.0000
-0.3010 APOLOGIZED </s> -0.3010
-0.3010 APPRECIATING VISUAL 0.0000
-0.3010 ARCHETYPES UNREALISTIC 0.0000
-0.6021 ARE </s> -0.3010
-0.6021 ARE HE 0.0000
-0.3010 ARGUE </s> -0.3010
-0.3010 ARGUING ARGUE 0.0000
-0.3010 ATHLETIC </s> -0.3010
-0.3010 AWARE REALIZE 0.0000
-0.3010 AWESOME </s> -0.3010
-0.3010 BAKE BAKING 0.0000
-0.3010 BAKING </s> -0.3010
-0.3010 BANK SAVING -0.1761
-0.3010 BE BEING -0.1761
-0.3010 BEACH </s> -0.3010
-0.3010 BEAUTIFUL </s> -0.3010
-0.3010 BECOMING READER 0.0000
-0.6021 BEING </s> -0.3010
-0.6021 BEING YOU -0.2430
-0.3010 BELIEVE RELIGION 0.0000
-0.3010 BEST GIRL 0.0000
-0.3010 BIRTHDAY </s> -0.3010
-0.6990 BOOK </s> -0.3010
-0.6990 BOOK BOOKS 0.0000
-1.0000 BOOK PORTRAIT 0.0000
-0.6021 BOOKS </s> -0.3010
-0.6021 BOOKS RECOMMENDATION 0.0000
-0.3010 BORED </s> -0.3010
-0.3010 BREAKING </s> -0.3010
-0.3010 BREAKUP BREAKING 0.0000
-0.3010 BYE GOODBYE 0.0000
-0.3010 CAREFUL SAFE -0.1761
-0.3010 CAT CATS 0.0000
-0.3010 CATCHPHRASE OKAY 0.0000
-0.3010 CATS FELINE 0.0000
-0.3010 CHALLENGE CHALLENGES 0.0000
-0.3010 CHALLENGES </s> -0.3010
-0.3010 CHANGE STYLE 0.0000
-0.6021 CHARACTER MC 0.0000
-0.6021 CHARACTER TROPES 0.0000
-0.3010 CHESS </s> -0.3010
-0.3010 CHLOROFORM </s> -0.3010
-0.3010 CITIES CITY 0.0000
-0.3010 CITIZENSHIP CROSSOVER 0.0000
-0.3010 CITY </s> -0.3010
-0.3010 CLASS </s> -0.3010
-0.3010 CLASSICAL MUSIC -0.1249
-0.3010 CLASSROOM </s> -0.3010
-0.3010 CLONE CLONED 0.0000
-0.3010 CLONED CLONES 0.0000
-0.3010 CLONES </s> -0.3010
-0.3010 CLOSE BEING -0.1761
-0.3010 CLOSEST REAL -0.1761
-0.3010 CLOSET CLASSROOM 0.0000
-0.3010 CLOTHES </s> -0.3010
-0.6021 CLUB </s> -0.3010
-0.6021 CLUB ARGUING 0.0000
-0.6021 CODE </s> -0.3010
-0.6021 CODE CODING -0.1761
-0.6021 CODING </s> -0.3010
-0.6021 CODING CODE -0.1761
-0.3010 COFFEE INTAKE 0.0000
-0.3010 COLD WEATHER 0.0000
-0.3010 COLLAGE </s> -0.3010
-0.3010 COLOR EMERALD 0.0000
-0.3010 COMPLETIONISM COMPLETIST 0.0000
-0.3010 COMPLETIST </s> -0.3010
-0.3010 CONCERN </s> -0.3010
-0.3010 CONCERT </s> -0.3010
-0.3010 CONCERTS CONCERT 0.0000
-0.6021 CONFIDENCE CONFIDENT 0.0000
-0.6021 CONFIDENCE LACK -0.1761
-0.3010 CONFIDENT </s> -0.3010
-0.3010 CONTACT </s> -0.3010
-0.3010 CONTENT MATURE 0.0000
-0.3010 CONTRIBUTE CONTRIBUTIONS 0.0000
-0.3010 CONTRIBUTIONS </s> -0.3010
-0.3010 CONVERSATION </s> -0.3010
-0.3010 CREAM </s> -0.3010
-0.3010 CREATE </s> -0.3010
-0.3010 CREATIVE TYPE 0.0000
-0.3010 CREDIT CREDITS 0.0000
-0.3010 CREDITS SONG 0.0000
-0.3010 CROSSING </s> -0.3010
-0.3010 CROSSOVER CROSSING 0.0000
-0.3010 CUDDLE </s> -0.3010
-0.3010 CUDDLING CUDDLE 0.0000
-0.3010 CUPCAKE CUPCAKES 0.0000
-0.3010 CUPCAKES BAKE 0.0000
-0.3010 DAN SALVATO 0.0000
-0.3010 DATE </s> -0.3010
-0.3010 DATING WHEN 0.0000
-0.3010 DAYDREAM DREAMING -0.1761
-0.3010 DDLC JAPAN 0.0000
-0.3010 DEAD DYING 0.0000
-0.6021 DEATH </s> -0.3010
-0.6021 DEATH DEAD 0.0000
-0.3010 DEBATE CLUB -0.1761
-0.3010 DEDICATION FITNESS 0.0000
-0.3010 DID HAVE -0.1761
-0.3010 DIFFICULT EASY 0.0000
-0.3010 DILEMMA </s> -0.3010
-0.3010 DISBELIEF </s> -0.3010
-0.6021 DO DID 0.0000
-0.6021 DO YOU -0.2430
-0.3010 DOG DOGS 0.0000
-0.3010 DOGS </s> -0.3010
-0.3010 DOKI LITERATURE 0.0000
-0.3010 DOWNLOAD </s> -0.3010
-0.3010 DOWNLOADS DOWNLOAD 0.0000
-0.3010 DRAW DRAWING 0.0000
-0.3010 DRAWING </s> -0.3010
-0.6021 DREAM </s> -0.3010
-0.6021 DREAM DREAMING -0.1761
-0.6021 DREAMING </s> -0.3010
-0.6021 DREAMING DREAM -0.1761
-0.3010 DRINK </s> -0.3010
-0.6021 DRINKING DRINK 0.0000
-0.6021 DRINKING SODA 0.0000
-0.3010 DUNBAR NUMBER 0.0000
-0.3010 DYING </s> -0.3010
-0.3010 EARTH </s> -0.3010
-0.3010 EASY </s> -0.3010
-0.3010 EDUCATION COLLAGE 0.0000
-0.3010 EIGHTY FOUR 0.0000
-0.3010 ELSE HAPPY -0.1761
-0.3010 EMBARRASSING </s> -0.3010
-0.3010 EMERALD </s> -0.3010
-0.3010 ENGAGEMENT RING 0.0000
-0.3010 ETERNITY MORTALITY 0.0000
-0.3010 EVENING </s> -0.3010
-0.3010 EVERYONE </s> -0.3010
-0.3010 EXPERIMENTS PROBLEM 0.0000
-0.3010 EXPLAIN RELATIONSHIP 0.0000
-0.3010 EYE EYES -0.1761
-0.6021 EYES </s> -0.3010
-0.6021 EYES CONTACT 0.0000
-0.3010 FACE YOUR -0.1761
-0.3010 FACTS </s> -0.3010
-0.3010 FAKE FAKING 0.0000
-0.3010 FAKING CONFIDENCE -0.1761
-0.3010 FAMILY </s> -0.3010
-0.3010 FANART IMAGES 0.0000
-0.3010 FANFICTION </s> -0.3010
-0.3010 FANTASIES </s> -0.3010
-0.3010 FAP FAPPING 0.0000
-0.3010 FAPPING MASTURBATE 0.0000
-0.3010 FASTFOOD UNHEALTHY 0.0000
-0.9031 FAVORITE BOOK -0.2041
-0.9031 FAVORITE COLOR 0.0000
-0.9031 FAVORITE POEM 0.0000
-0.9031 FAVORITE VIDEO -0.1761
-1.3802 FEEL ANGRY 0.0000
-1.3802 FEEL ANXIOUS 0.0000
-1.3802 FEEL BORED 0.0000
-1.3802 FEEL HUNGRY 0.0000
-1.3802 FEEL INADEQUATE 0.0000
-1.3802 FEEL LONELY 0.0000
-1.3802 FEEL LUCKY 0.0000
-1.3802 FEEL PROUD 0.0000
-1.3802 FEEL SAD 0.0000
-1.3802 FEEL SICK -0.1761
-1.3802 FEEL TIRED -0.1249
-1.3802 FEEL YEAR 0.0000
-0.3010 FEELING </s> -0.3010
-0.3010 FELINE </s> -0.3010
-0.3010 FESTIVAL </s> -0.3010
-0.3010 FICTION </s> -0.3010
-0.3010 FIFTH FIVE 0.0000
-0.3010 FIRST ONE -0.1761
-0.6021 FIT </s> -0.3010
-0.6021 FIT PLURALISTIC 0.0000
-0.3010 FITNESS FIT -0.1761
-0.3010 FIVE </s> -0.3010
-0.3010 FLOWERS ALGERNON 0.0000
-0.3010 FOOD FOODS 0.0000
-0.3010 FOODS </s> -0.3010
-0.3010 FOR WORK -0.1761
-0.3010 FORM HABIT 0.0000
-0.3010 FORMING FORM 0.0000
-0.3010 FOUR </s> -0.3010
-0.3010 FOURCHAN INTERNET -0.1761
-0.3010 FOURTH FOUR 0.0000
-0.3010 FREE WILL 0.0000
-0.6021 FRIEND FRIENDS -0.1761
-0.6021 FRIEND INTRODUCING 0.0000
-0.6021 FRIENDS FRIEND -0.1761
-0.6021 FRIENDS PEOPLE 0.0000
-0.3010 FRUIT FRUITS 0.0000
-0.3010 FRUITS </s> -0.3010
-0.3010 FUN FACTS 0.0000
-0.3010 FUNCTIONALISM </s> -0.3010
-0.3010 FUNERAL PROCESSION 0.0000
-0.5229 GAME </s> -0.3010
-1.0000 GAME ROMANCE 0.0000
-1.0000 GAME VIDYA 0.0000
-0.3010 GAMES GAME -0.0792
-0.3010 GATHERING FAMILY 0.0000
-0.3010 GENRE SCARY 0.0000
-0.3010 GHOST SUPERNATURAL 0.0000
-0.3010 GIRL </s> -0.3010
-0.3010 GIRLFRIEND </s> -0.3010
-0.6021 GIRLS SAYORI -0.1761
-0.6021 GIRLS THINK 0.0000
-0.3010 GOD THOUGHTS 0.0000
-0.3010 GOOD LISTENER 0.0000
-0.9031 GOODBYE CLASS 0.0000
-0.9031 GOODBYE SLEEP -0.2218
-0.9031 GOODBYE WHILE 0.0000
-0.9031 GOODBYE WORK -0.1761
-0.3010 GOODNIGHT </s> -0.3010
-0.3010 HABIT HABITS 0.0000
-0.3010 HABITS </s> -0.3010
-0.3010 HACK HACKER 0.0000
-0.3010 HACKER HACKING 0.0000
-0.3010 HACKING </s> -0.3010
-0.6021 HAD </s> -0.3010
-0.6021 HAD HAS -0.1761
-0.7782 HAIR </s> -0.3010
-0.4771 HAIR CHANGE 0.0000
-0.3010 HAMLET </s> -0.3010
-0.3010 HAPPINESS </s> -0.3010
-0.6021 HAPPY BIRTHDAY 0.0000
-0.6021 HAPPY HAPPINESS 0.0000
-0.3010 HAREM FANTASIES 0.0000
-0.3010 HARM HARMING 0.0000
-0.3010 HARMING HURT 0.0000
-0.6021 HAS BE 0.0000
-0.6021 HAS HAD -0.1761
-0.3010 HATE HATER 0.0000
-0.3010 HATER HATERS 0.0000
-0.3010 HATERS </s> -0.3010
-0.3010 HATSUNE MIKU 0.0000
-0.6021 HAVE HAD -0.1761
-0.6021 HAVE HAS -0.1761
-0.3010 HE SHE 0.0000
-0.3010 HEARD LIBITINA 0.0000
-0.3010 HEDGEHOG DILEMMA 0.0000
-0.3010 HENTAI </s> -0.3010
-0.3010 HERO </s> -0.3010
-0.3010 HEROISM HERO 0.0000
-0.3010 HIGH SCHOOL -0.1761
-0.3010 HIGHER EDUCATION 0.0000
-0.3010 HOME </s> -0.3010
-0.3010 HORROR GENRE 0.0000
-0.3010 HOUSEWIFE </s> -0.3010
-0.3010 HUNDRED THOUSAND 0.0000
-0.3010 HUNGRY </s> -0.3010
-0.3010 HURT </s> -0.3010
-0.3010 HYDRATION WATER 0.0000
-0.3010 HYGIENE PERSONAL 0.0000
-0.3010 HYPNOSIS </s> -0.3010
-0.3010 HYPNOTIZED HYPNOSIS 0.0000
-0.3010 HYPOTHESIS SIMULATED 0.0000
-0.3010 I AM 0.0000
-0.3010 ICE CREAM 0.0000
-0.3010 ICECREAM ICE 0.0000
-0.3010 IGNORANCE </s> -0.3010
-0.3010 IMAGES </s> -0.3010
-0.3010 IMMORTAL IMMORTALITY 0.0000
-0.3010 IMMORTALITY </s> -0.3010
-0.3010 IMPRESSION </s> -0.3010
-0.3010 IMPRISONED PRISONER 0.0000
-0.3010 INADEQUATE </s> -0.3010
-0.3010 INNOVATION </s> -0.3010
-0.3010 INTAKE </s> -0.3010
-0.3010 INTELLIGENT </s> -0.3010
-0.6021 INTERNET </s> -0.3010
-0.6021 INTERNET SOCIAL 0.0000
-0.3010 INTRODUCING </s> -0.3010
-0.3010 IS THEY 0.0000
-0.3010 IT IS 0.0000
-0.3010 JAPAN PLACEMENT 0.0000
-0.3010 JAPANESE SPEAKING 0.0000
-0.3010 JAZZ </s> -0.3010
-0.3010 JUSTIFICATION MURDER 0.0000
-0.3010 KISS ME -0.1761
-0.6021 LACK </s> -0.3010
-0.6021 LACK MOTIVATION 0.0000
-0.3010 LANGUAGE </s> -0.3010
-0.3010 LAST POEM 0.0000
-0.3010 LAZINESS </s> -0.3010
-0.3010 LAZY LAZINESS 0.0000
-0.3010 LIBITINA </s> -0.3010
-0.3010 LIFE </s> -0.3010
-0.3010 LILMONIXTHREE </s> -0.3010
-0.3010 LINGER OTHER -0.1761
-0.3010 LINGERING LINGER 0.0000
-0.3010 LISTENER CONVERSATION 0.0000
-0.3010 LITERATURE CLUB -0.1761
-0.3010 LITTLE SISTER 0.0000
-0.3010 LIVING WAITING 0.0000
-0.3010 LONELY </s> -0.3010
-0.3010 LOTTERY LUCK 0.0000
-0.9031 LOVE EYES -0.1761
-0.9031 LOVE HAIR -0.2218
-0.9031 LOVE LOVING 0.0000
-0.9031 LOVE ME -0.1761
-0.3010 LOVING TRUE 0.0000
-0.3010 LUCK WINNINGS 0.0000
-0.3010 LUCKY </s> -0.3010
-0.3010 MAIN CHARACTER -0.1761
-0.3010 MAKING FRIEND -0.1761
-0.3010 MANGA READ -0.1761
-0.3010 MARKOV </s> -0.3010
-0.3010 MARRIAGE MARRY 0.0000
-0.3010 MARRY </s> -0.3010
-0.3010 MASTURBATE </s> -0.3010
-0.3010 MATURE PORN 0.0000
-0.3010 MC </s> -0.3010
-0.6021 ME </s> -0.3010
-0.6021 ME EMBARRASSING 0.0000
-0.3010 MEAT VEGAN 0.0000
-0.3010 MEDIA PRISON 0.0000
-0.3010 MEDITATING </s> -0.3010
-0.3010 MEDITATION MEDITATING 0.0000
-0.3010 MEMORIES MEMORY 0.0000
-0.3010 MEMORY HOME 0.0000
-0.3010 MENTAL SICK -0.1761
-0.3010 MESSAGE </s> -0.3010
-0.3010 METAFICTIONAL FICTION 0.0000
-0.3010 MIDDLE SCHOOL -0.1761
-0.3010 MIKU </s> -0.3010
-0.3010 MISS MISSING -0.1761
-0.6021 MISSING FAMILY 0.0000
-0.6021 MISSING FESTIVAL 0.0000
-0.3010 MONEY </s> -0.3010
-0.3010 MONIKA </s> -0.3010
-0.3010 MORNING </s> -0.3010
-0.3010 MORTALITY </s> -0.3010
-0.3010 MOTIVATION </s> -0.3010
-0.3010 MURDER MURDERER 0.0000
-0.3010 MURDERER </s> -0.3010
-0.4771 MUSIC </s> -0.3010
-0.7782 MUSIC CONCERTS 0.0000
-0.3010 MYTHOLOGY </s> -0.3010
-0.3010 NAME </s> -0.3010
-0.3010 NATSUKI DEATH -0.1761
-0.3010 NATURE </s> -0.3010
-0.6021 NATUSKI </s> -0.3010
-0.6021 NATUSKI YURI -0.2553
-0.3010 NEAR </s> -0.3010
-0.3010 NIHILISM AGNOSTICISM 0.0000
-0.3010 NINETY EIGHTY 0.0000
-0.3010 NOT SAFE -0.1761
-0.6021 NOVEL </s> -0.3010
-0.6021 NOVEL VN 0.0000
-0.3010 NOVELS NOVEL -0.1761
-0.3010 NSFW NOT 0.0000
-0.3010 NUCLEAR WAR 0.0000
-0.3010 NUMBER </s> -0.3010
-0.3010 OBSESSE </s> -0.3010
-0.3010 OBSESSED OBSESSE 0.0000
-0.3010 OKAY EVERYONE 0.0000
-0.6021 OLDER </s> -0.3010
-0.6021 OLDER SISTER 0.0000
-0.3010 OMAMORI </s> -0.3010
-0.6021 ONE </s> -0.3010
-0.6021 ONE HUNDRED 0.0000
-0.3010 ORCHESTRA CLASSICAL 0.0000
-0.3010 OTAKU </s> -0.3010
-0.9031 OTHER CLOTHES 0.0000
-0.9031 OTHER GAMES 0.0000
-0.6021 OTHER GIRLS 0.0000
-0.3010 OUR REALITY -0.1249
-0.3010 PANTIES UNDERGARMENT 0.0000
-0.3010 PARENT PARENTS 0.0000
-0.3010 PARENTS </s> -0.3010
-0.3010 PEN NAME 0.0000
-0.3010 PEOPLE </s> -0.3010
-0.3010 PERSONAL </s> -0.3010
-0.3010 PET PETS 0.0000
-0.3010 PETS </s> -0.3010
-0.3010 PIANO </s> -0.3010
-0.3010 PIGGY BANK 0.0000
-0.3010 PLACEMENT </s> -0.3010
-0.3010 PLAY GAME -0.2553
-0.3010 PLEASURE FAP 0.0000
-0.3010 PLURALISTIC IGNORANCE 0.0000
-0.3010 POEM </s> -0.3010
-0.3010 POETRY </s> -0.3010
-0.3010 PONG FEELING 0.0000
-0.3010 PONYTAIL </s> -0.3010
-0.3010 PORN HENTAI 0.0000
-0.3010 PORTRAIT MARKOV 0.0000
-0.3010 PRISON </s> -0.3010
-0.3010 PRISONER </s> -0.3010
-0.3010 PROBLEM </s> -0.3010
-0.3010 PROCESSION </s> -0.3010
-0.3010 PROGRAMMING CODING -0.1761
-0.3010 PROM FESTIVAL 0.0000
-0.3010 PROUD </s> -0.3010
-0.3010 RAIN RAINING 0.0000
-0.3010 RAINING </s> -0.3010
-0.3010 RAP MUSIC -0.1249
-0.6021 READ </s> -0.3010
-0.6021 READ BOOK -0.2041
-0.3010 READER READ -0.1761
-0.6021 REAL NEAR 0.0000
-0.6021 REAL OUR 0.0000
-0.4771 REALITY </s> -0.3010
-0.7782 REALITY PIANO 0.0000
-0.3010 REALIZE </s> -0.3010
-0.3010 RECOMMENDATION RECOMMENDATIONS 0.0000
-0.3010 RECOMMENDATIONS </s> -0.3010
-0.3010 REGRET </s> -0.3010
-0.3010 REGRETS REGRET 0.0000
-0.3010 RELATIONSHIP </s> -0.3010
-0.3010 RELAXING DRINKING -0.1761
-0.3010 RELIGION </s> -0.3010
-0.3010 RESOURCE VALUABLE 0.0000
-0.3010 RESOURCES RESOURCE 0.0000
-0.3010 RIBBON </s> -0.3010
-0.3010 RING WEDDING 0.0000
-0.3010 ROAD TRIP 0.0000
-0.3010 ROCK ROLL 0.0000
-0.3010 ROLL </s> -0.3010
-0.3010 ROMANCE </s> -0.3010
-0.3010 ROMANTIC DATE 0.0000
-0.3010 ROUTE </s> -0.3010
-0.3010 SAD </s> -0.3010
-0.6021 SAFE ACCIDENT 0.0000
-0.6021 SAFE FOR 0.0000
-0.3010 SALVATO </s> -0.3010
-0.6021 SAVE MONEY 0.0000
-0.6021 SAVE SAVING -0.1761
-0.6021 SAVING LIFE 0.0000
-0.6021 SAVING SAVE -0.1761
-0.6021 SAYORI NATUSKI -0.1761
-0.6021 SAYORI REGRETS 0.0000
-0.3010 SCARY SPOOKY 0.0000
-0.6021 SCHOOL </s> -0.3010
-0.6021 SCHOOL LIFE 0.0000
-0.3010 SCIENCE ADVANCEMENTS 0.0000
-0.3010 SECOND </s> -0.3010
-0.3010 SELFHARM HARM 0.0000
-0.3010 SET </s> -0.3010
-0.3010 SETTING DDLC 0.0000
-0.3010 SHE IT 0.0000
-0.3010 SHIPPING SHIPS 0.0000
-0.3010 SHIPS </s> -0.3010
-0.6021 SICK </s> -0.3010
-0.6021 SICK SICKNESS 0.0000
-0.3010 SICKNESS </s> -0.3010
-0.3010 SIMULATED REALITY -0.1249
-0.3010 SISTER </s> -0.3010
-0.7782 SLEEP CONCERN 0.0000
-0.7782 SLEEP GOODNIGHT 0.0000
-0.7782 SLEEP SLEEPING 0.0000
-0.3010 SLEEPING TIRED -0.2218
-0.3010 SMASH GAME -0.1461
-0.3010 SMILE </s> -0.3010
-0.3010 SMOKE SMOKING 0.0000
-0.3010 SMOKING </s> -0.3010
-0.3010 SOCIAL MEDIA 0.0000
-0.3010 SODA DRINK 0.0000
-0.3010 SOMEONE ELSE 0.0000
-0.3010 SOMEWHERE </s> -0.3010
-0.3010 SONG YOUR -0.1761
-0.3010 SORRY APOLOGIZE 0.0000
-0.3010 SOUND SOUNDS 0.0000
-0.3010 SOUNDS RAIN 0.0000
-0.3010 SPEAKING LANGUAGE 0.0000
-0.3010 SPICY FOOD 0.0000
-0.3010 SPIDER </s> -0.3010
-0.3010 SPIDERS SPIDER 0.0000
-0.3010 SPOOKY </s> -0.3010
-0.3010 SPORT ATHLETIC 0.0000
-0.3010 SPORTS SPORT 0.0000
-0.3010 STRAIGHT </s> -0.3010
-0.6021 STYLE PONYTAIL 0.0000
-0.6021 STYLE STRAIGHT 0.0000
-0.3010 SUDDEN ANXIETY 0.0000
-0.3010 SUPER SMASH 0.0000
-0.3010 SUPERNATURAL </s> -0.3010
-0.3010 SURPRISE SURPRISES 0.0000
-0.3010 SURPRISES </s> -0.3010
-0.3010 SWORD </s> -0.3010
-0.3010 SWORDSMANSHIP SWORD 0.0000
-0.3010 TAKE SOMEWHERE 0.0000
-0.3010 TEA SET 0.0000
-0.3010 TECHNIQUE CODE -0.1761
-0.3010 THEY YOU -0.2430
-0.3010 THINK </s> -0.3010
-0.3010 THIRD </s> -0.3010
-0.3010 THOUGHTS BELIEVE 0.0000
-0.3010 THOUSAND DOWNLOADS 0.0000
-0.3010 THREE THIRD 0.0000
-1.0000 TIP FIFTH 0.0000
-1.0000 TIP FIRST 0.0000
-1.0000 TIP FOURTH 0.0000
-1.0000 TIP THREE 0.0000
-1.0000 TIP TWO 0.0000
-0.3010 TIRE </s> -0.3010
-0.4771 TIRED </s> -0.3010
-0.7782 TIRED TIRE 0.0000
-0.3010 TOGETHER LIVING 0.0000
-0.3010 TORMENT NATURE 0.0000
-0.3010 TOTONO </s> -0.3010
-0.3010 TRIP </s> -0.3010
-0.3010 TROLLEY EXPERIMENTS 0.0000
-0.3010 TROPES ARCHETYPES 0.0000
-0.3010 TRUE </s> -0.3010
-0.3010 TSUNDERE NATUSKI -0.1761
-0.3010 TWITTER LILMONIXTHREE 0.0000
-0.3010 TWO SECOND 0.0000
-0.3010 TYPE TYPES 0.0000
-0.3010 TYPES CREATE 0.0000
-0.3010 UNDEAD </s> -0.3010
-0.3010 UNDERGARMENT </s> -0.3010
-0.3010 UNDERGARMENTS PANTIES 0.0000
-0.3010 UNHEALTHY </s> -0.3010
-0.3010 UNREALISTIC </s> -0.3010
-0.3010 URGENT MESSAGE 0.0000
-0.3010 VALUABLE </s> -0.3010
-0.3010 VEGAN EARTH 0.0000
-0.3010 VEGETARIAN MEAT 0.0000
-0.6021 VIDEO GAME -0.1461
-0.6021 VIDEO GAMES 0.0000
-0.3010 VIDYA </s> -0.3010
-0.3010 VIRTUAL NOVEL -0.1761
-0.3010 VISUAL NOVELS 0.0000
-0.3010 VN </s> -0.3010
-0.3010 VOCALOID HATSUNE 0.0000
-0.3010 WAIFU WAIFUS 0.0000
-0.3010 WAIFUS </s> -0.3010
-0.3010 WAITING </s> -0.3010
-0.3010 WALLPAPER </s> -0.3010
-0.3010 WAR WARFARE 0.0000
-0.3010 WARFARE </s> -0.3010
-0.3010 WAS WERE 0.0000
-0.3010 WATER </s> -0.3010
-0.3010 WE ARE -0.1761
-0.3010 WEARING OTHER -0.2430
-0.3010 WEARY TIRED -0.1249
-0.3010 WEATHER CUDDLING 0.0000
-0.3010 WEDDING </s> -0.3010
-0.3010 WERE HAVE -0.1761
-0.3010 WHEN </s> -0.3010
-0.3010 WHILE </s> -0.3010
-0.3010 WHY DO -0.1761
-0.3010 WILL </s> -0.3010
-0.3010 WINE RELAXING 0.0000
-0.3010 WINNINGS </s> -0.3010
-0.3010 WOLF WOLVES 0.0000
-0.3010 WOLVES </s> -0.3010
-0.6021 WORK </s> -0.3010
-0.6021 WORK CONTENT 0.0000
-1.0792 WRITING </s> -0.3010
-0.3802 WRITING TIP 0.0000
-0.3010 WRITINGS WRITING -0.2632
-0.3010 YANDERE YURI -0.2553
-0.3010 YEAR OLDER -0.1761
-0.3010 YELLOW WALLPAPER 0.0000
-0.9031 YOU ARE -0.1761
-0.9031 YOU CLOSEST 0.0000
-0.9031 YOU LOVE -0.2430
-0.9031 YOU WE 0.0000
-0.6021 YOUR </s> -0.3010
-0.6021 YOUR REALITY -0.2218
-0.3010 YOURSELF MONIKA 0.0000
-1.0000 YURI </s> -0.3010
-1.0000 YURI BOOK -0.2553
-1.0000 YURI OBSESSED 0.0000
-1.0000 YURI TEA 0.0000
-1.0000 YURI WINE 0.0000
-0.3010 ZOMBIES UNDEAD 0.0000

\3-grams:
-0.3010 <s> ADORE ADORES
-0.3010 <s> ADVENTURE ADVENTURING
-0.3010 <s> ANCIENT MYTHOLOGY
-0.3010 <s> APPRECIATING VISUAL
-0.3010 <s> AWARE REALIZE
-0.3010 <s> AWESOME </s>
-0.3010 <s> BEACH </s>
-0.3010 <s> BEAUTIFUL </s>
-0.3010 <s> BECOMING READER
-0.3010 <s> BEST GIRL
-0.3010 <s> BIRTHDAY </s>
-0.3010 <s> BOOK BOOKS
-0.3010 <s> BREAKUP BREAKING
-0.3010 <s> BYE GOODBYE
-0.3010 <s> CAREFUL SAFE
-0.3010 <s> CAT CATS
-0.3010 <s> CATCHPHRASE OKAY
-0.3010 <s> CHALLENGE CHALLENGES
-0.3010 <s> CHARACTER TROPES
-0.3010 <s> CHESS </s>
-0.3010 <s> CHLOROFORM </s>
-0.3010 <s> CITIES CITY
-0.3010 <s> CITIZENSHIP CROSSOVER
-0.3010 <s> CLONE CLONED
-0.3010 <s> CLOSE BEING
-0.3010 <s> CLOSET CLASSROOM
-0.3010 <s> COFFEE INTAKE
-0.3010 <s> COLD WEATHER
-0.3010 <s> COMPLETIONISM COMPLETIST
-0.3010 <s> CONFIDENCE LACK
-0.3010 <s> CONTRIBUTE CONTRIBUTIONS
-0.3010 <s> CREATIVE TYPE
-0.3010 <s> CREDIT CREDITS
-0.3010 <s> CUPCAKE CUPCAKES
-0.3010 <s> DAN SALVATO
-0.3010 <s> DATING WHEN
-0.3010 <s> DAYDREAM DREAMING
-0.3010 <s> DEATH DEAD
-0.3010 <s> DEBATE CLUB
-0.3010 <s> DEDICATION FITNESS
-0.3010 <s> DIFFICULT EASY
-0.3010 <s> DO DID
-0.3010 <s> DOG DOGS
-0.3010 <s> DOKI LITERATURE
-0.3010 <s> DRAW DRAWING
-0.3010 <s> DREAM DREAMING
-0.3010 <s> DRINKING SODA
-0.3010 <s> DUNBAR NUMBER
-0.3010 <s> ENGAGEMENT RING
-0.3010 <s> ETERNITY MORTALITY
-0.3010 <s> EVENING </s>
-0.3010 <s> EXPLAIN RELATIONSHIP
-0.3010 <s> EYE EYES
-0.3010 <s> FACE YOUR
-0.3010 <s> FAKE FAKING
-0.3010 <s> FAMILY </s>
-0.3010 <s> FANART IMAGES
-0.3010 <s> FANFICTION </s>
-0.3010 <s> FASTFOOD UNHEALTHY
-0.9031 <s> FAVORITE BOOK
-0.9031 <s> FAVORITE COLOR
-0.9031 <s> FAVORITE POEM
-0.9031 <s> FAVORITE VIDEO
-1.3802 <s> FEEL ANGRY
-1.3802 <s> FEEL ANXIOUS
-1.3802 <s> FEEL BORED
-1.3802 <s> FEEL HUNGRY
-1.3802 <s> FEEL INADEQUATE
-1.3802 <s> FEEL LONELY
-1.3802 <s> FEEL LUCKY
-1.3802 <s> FEEL PROUD
-1.3802 <s> FEEL SAD
-1.3802 <s> FEEL SICK
-1.3802 <s> FEEL TIRED
-1.3802 <s> FEEL YEAR
-0.3010 <s> FIT PLURALISTIC
-0.3010 <s> FLOWERS ALGERNON
-0.3010 <s> FORMING FORM
-0.3010 <s> FOURCHAN INTERNET
-0.3010 <s> FREE WILL
-0.3010 <s> FRIENDS FRIEND
-0.3010 <s> FRUIT FRUITS
-0.3010 <s> FUN FACTS
-0.3010 <s> FUNCTIONALISM </s>
-0.3010 <s> FUNERAL PROCESSION
-0.3010 <s> GATHERING FAMILY
-0.3010 <s> GHOST SUPERNATURAL
-0.3010 <s> GIRLFRIEND </s>
-0.3010 <s> GOD THOUGHTS
-0.3010 <s> GOOD LISTENER
-0.3010 <s> HACK HACKER
-0.3010 <s> HAIR CHANGE
-0.3010 <s> HAMLET </s>
-0.3010 <s> HAPPY HAPPINESS
-0.3010 <s> HAREM FANTASIES
-0.3010 <s> HATE HATER
-0.3010 <s> HEARD LIBITINA
-0.3010 <s> HEDGEHOG DILEMMA
-0.3010 <s> HEROISM HERO
-0.3010 <s> HIGH SCHOOL
-0.3010 <s> HIGHER EDUCATION
-0.3010 <s> HORROR GENRE
-0.3010 <s> HOUSEWIFE </s>
-0.3010 <s> HYDRATION WATER
-0.3010 <s> HYGIENE PERSONAL
-0.3010 <s> HYPNOTIZED HYPNOSIS
-0.3010 <s> HYPOTHESIS SIMULATED
-0.3010 <s> I AM
-0.3010 <s> ICECREAM ICE
-0.3010 <s> IMMORTAL IMMORTALITY
-0.3010 <s> IMPRESSION </s>
-0.3010 <s> IMPRISONED PRISONER
-0.3010 <s> INNOVATION </s>
-0.3010 <s> INTELLIGENT </s>
-0.3010 <s> INTERNET SOCIAL
-0.3010 <s> JAPANESE SPEAKING
-0.3010 <s> JAZZ </s>
-0.3010 <s> JUSTIFICATION MURDER
-0.3010 <s> KISS ME
-0.3010 <s> LACK MOTIVATION
-0.3010 <s> LAST POEM
-0.3010 <s> LAZY LAZINESS
-0.3010 <s> LINGERING LINGER
-0.3010 <s> LITTLE SISTER
-0.3010 <s> LOTTERY LUCK
-0.7782 <s> LOVE EYES
-0.7782 <s> LOVE HAIR
-0.7782 <s> LOVE LOVING
-0.3010 <s> MAIN CHARACTER
-0.3010 <s> MAKING FRIEND
-0.3010 <s> MANGA READ
-0.3010 <s> MARRIAGE MARRY
-0.3010 <s> MEDITATION MEDITATING
-0.3010 <s> MEMORIES MEMORY
-0.3010 <s> MENTAL SICK
-0.3010 <s> METAFICTIONAL FICTION
-0.3010 <s> MIDDLE SCHOOL
-0.3010 <s> MISS MISSING
-0.3010 <s> MISSING FESTIVAL
-0.3010 <s> MORNING </s>
-0.3010 <s> MUSIC CONCERTS
-0.3010 <s> NAME </s>
-0.3010 <s> NATSUKI DEATH
-0.3010 <s> NIHILISM AGNOSTICISM
-0.3010 <s> NINETY EIGHTY
-0.3010 <s> NSFW NOT
-0.3010 <s> NUCLEAR WAR
-0.3010 <s> OLDER SISTER
-0.3010 <s> OMAMORI </s>
-0.3010 <s> ONE HUNDRED
-0.3010 <s> ORCHESTRA CLASSICAL
-0.3010 <s> OTAKU </s>
-0.6021 <s> OTHER GAMES
-0.6021 <s> OTHER GIRLS
-0.3010 <s> PARENT PARENTS
-0.3010 <s> PEN NAME
-0.3010 <s> PET PETS
-0.3010 <s> PIGGY BANK
-0.3010 <s> PLAY GAME
-0.3010 <s> PLEASURE FAP
-0.3010 <s> POETRY </s>
-0.3010 <s> PONG FEELING
-0.3010 <s> PROGRAMMING CODING
-0.3010 <s> PROM FESTIVAL
-0.3010 <s> RAP MUSIC
-0.3010 <s> REAL OUR
-0.3010 <s> RESOURCES RESOURCE
-0.3010 <s> RIBBON </s>
-0.3010 <s> ROAD TRIP
-0.3010 <s> ROCK ROLL
-0.3010 <s> ROMANTIC DATE
-0.3010 <s> ROUTE </s>
-0.3010 <s> SAVE SAVING
-0.3010 <s> SAYORI REGRETS
-0.3010 <s> SCIENCE ADVANCEMENTS
-0.3010 <s> SELFHARM HARM
-0.3010 <s> SETTING DDLC
-0.3010 <s> SHIPPING SHIPS
-0.6021 <s> SLEEP CONCERN
-0.6021 <s> SLEEP SLEEPING
-0.3010 <s> SMILE </s>
-0.3010 <s> SMOKE SMOKING
-0.3010 <s> SOMEONE ELSE
-0.3010 <s> SORRY APOLOGIZE
-0.3010 <s> SOUND SOUNDS
-0.3010 <s> SPICY FOOD
-0.3010 <s> SPIDERS SPIDER
-0.3010 <s> SPORTS SPORT
-0.3010 <s> SUDDEN ANXIETY
-0.3010 <s> SUPER SMASH
-0.3010 <s> SURPRISE SURPRISES
-0.3010 <s> SWORDSMANSHIP SWORD
-0.3010 <s> TAKE SOMEWHERE
-0.3010 <s> TECHNIQUE CODE
-0.3010 <s> TOGETHER LIVING
-0.3010 <s> TORMENT NATURE
-0.3010 <s> TOTONO </s>
-0.3010 <s> TROLLEY EXPERIMENTS
-0.3010 <s> TSUNDERE NATUSKI
-0.3010 <s> TWITTER LILMONIXTHREE
-0.3010 <s> UNDERGARMENTS PANTIES
-0.3010 <s> URGENT MESSAGE
-0.3010 <s> VEGETARIAN MEAT
-0.3010 <s> VIDEO GAMES
-0.3010 <s> VIRTUAL NOVEL
-0.3010 <s> VOCALOID HATSUNE
-0.3010 <s> WAIFU WAIFUS
-0.3010 <s> WAS WERE
-0.3010 <s> WEARING OTHER
-0.3010 <s> WEARY TIRED
-0.3010 <s> WHY DO
-0.3010 <s> WOLF WOLVES
-0.3010 <s> WRITING TIP
-0.3010 <s> WRITINGS WRITING
-0.3010 <s> YANDERE YURI
-0.3010 <s> YELLOW WALLPAPER
-0.3010 <s> YOURSELF MONIKA
-0.7782 <s> YURI BOOK
-0.7782 <s> YURI TEA
-0.7782 <s> YURI WINE
-0.3010 <s> ZOMBIES UNDEAD
-0.3010 ADORE ADORES </s>
-0.3010 ADVENTURE ADVENTURING </s>
-0.3010 AGNOSTICISM DISBELIEF </s>
-0.3010 AM YOU ARE
-0.3010 ANCIENT MYTHOLOGY </s>
-0.3010 ANXIETY ANXIOUS </s>
-0.3010 APOLOGIZE APOLOGIZED </s>
-0.3010 APPRECIATING VISUAL NOVELS
-0.3010 ARCHETYPES UNREALISTIC </s>
-0.3010 ARE HE SHE
-0.3010 ARGUING ARGUE </s>
-0.3010 AWARE REALIZE </s>
-0.3010 BAKE BAKING </s>
-0.3010 BANK SAVING SAVE
-0.3010 BE BEING </s>
-0.3010 BECOMING READER READ
-0.3010 BEING YOU CLOSEST
-0.3010 BELIEVE RELIGION </s>
-0.3010 BEST GIRL </s>
-0.6021 BOOK BOOKS </s>
-0.6021 BOOK BOOKS RECOMMENDATION
-0.3010 BOOK PORTRAIT MARKOV
-0.3010 BOOKS RECOMMENDATION RECOMMENDATIONS
-0.3010 BREAKUP BREAKING </s>
-0.9031 BYE GOODBYE CLASS
-0.9031 BYE GOODBYE SLEEP
-0.9031 BYE GOODBYE WHILE
-0.9031 BYE GOODBYE WORK
-0.3010 CAREFUL SAFE ACCIDENT
-0.3010 CAT CATS FELINE
-0.3010 CATCHPHRASE OKAY EVERYONE
-0.3010 CATS FELINE </s>
-0.3010 CHALLENGE CHALLENGES </s>
-0.6021 CHANGE STYLE PONYTAIL
-0.6021 CHANGE STYLE STRAIGHT
-0.3010 CHARACTER MC </s>
-0.3010 CHARACTER TROPES ARCHETYPES
-0.3010 CITIES CITY </s>
-0.3010 CITIZENSHIP CROSSOVER CROSSING
-0.3010 CLASSICAL MUSIC </s>
-0.3010 CLONE CLONED CLONES
-0.3010 CLONED CLONES </s>
-0.3010 CLOSE BEING YOU
-0.3010 CLOSEST REAL NEAR
-0.3010 CLOSET CLASSROOM </s>
-0.3010 CLUB ARGUING ARGUE
-0.3010 CODE CODING </s>
-0.3010 CODING CODE </s>
-0.3010 COFFEE INTAKE </s>
-0.3010 COLD WEATHER CUDDLING
-0.3010 COLOR EMERALD </s>
-0.3010 COMPLETIONISM COMPLETIST </s>
-0.3010 CONCERTS CONCERT </s>
-0.3010 CONFIDENCE CONFIDENT </s>
-0.3010 CONFIDENCE LACK </s>
-0.3010 CONTENT MATURE PORN
-0.3010 CONTRIBUTE CONTRIBUTIONS </s>
-0.3010 CREATIVE TYPE TYPES
-0.3010 CREDIT CREDITS SONG
-0.3010 CREDITS SONG YOUR
-0.3010 CROSSOVER CROSSING </s>
-0.3010 CUDDLING CUDDLE </s>
-0.3010 CUPCAKE CUPCAKES BAKE
-0.3010 CUPCAKES BAKE BAKING
-0.3010 DAN SALVATO </s>
-0.3010 DATING WHEN </s>
-0.3010 DAYDREAM DREAMING DREAM
-0.3010 DDLC JAPAN PLACEMENT
-0.3010 DEAD DYING </s>
-0.3010 DEATH DEAD DYING
-0.3010 DEBATE CLUB ARGUING
-0.3010 DEDICATION FITNESS FIT
-0.3010 DID HAVE HAS
-0.3010 DIFFICULT EASY </s>
-0.3010 DO DID HAVE
-0.3010 DO YOU LOVE
-0.3010 DOG DOGS </s>
-0.3010 DOKI LITERATURE CLUB
-0.3010 DOWNLOADS DOWNLOAD </s>
-0.3010 DRAW DRAWING </s>
-0.3010 DREAM DREAMING </s>
-0.3010 DREAMING DREAM </s>
-0.3010 DRINKING DRINK </s>
-0.3010 DRINKING SODA DRINK
-0.3010 DUNBAR NUMBER </s>
-0.3010 EDUCATION COLLAGE </s>
-0.3010 EIGHTY FOUR </s>
-0.3010 ELSE HAPPY BIRTHDAY
-0.3010 ENGAGEMENT RING WEDDING
-0.3010 ETERNITY MORTALITY </s>
-0.3010 EXPERIMENTS PROBLEM </s>
-0.3010 EXPLAIN RELATIONSHIP </s>
-0.3010 EYE EYES CONTACT
-0.3010 EYES CONTACT </s>
-0.3010 FACE YOUR </s>
-0.3010 FAKE FAKING CONFIDENCE
-0.3010 FAKING CONFIDENCE CONFIDENT
-0.3010 FANART IMAGES </s>
-0.3010 FAP FAPPING MASTURBATE
-0.3010 FAPPING MASTURBATE </s>
-0.3010 FASTFOOD UNHEALTHY </s>
-0.3010 FAVORITE BOOK </s>
-0.3010 FAVORITE COLOR EMERALD
-0.3010 FAVORITE POEM </s>
-0.3010 FAVORITE VIDEO GAME
-0.3010 FEEL ANGRY </s>
-0.3010 FEEL ANXIOUS </s>
-0.3010 FEEL BORED </s>
-0.3010 FEEL HUNGRY </s>
-0.3010 FEEL INADEQUATE </s>
-0.3010 FEEL LONELY </s>
-0.3010 FEEL LUCKY </s>
-0.3010 FEEL PROUD </s>
-0.3010 FEEL SAD </s>
-0.3010 FEEL SICK </s>
-0.3010 FEEL TIRED </s>
-0.3010 FEEL YEAR OLDER
-0.3010 FIFTH FIVE </s>
-0.3010 FIRST ONE </s>
-0.3010 FIT PLURALISTIC IGNORANCE
-0.3010 FITNESS FIT </s>
-0.3010 FLOWERS ALGERNON </s>
-0.3010 FOOD FOODS </s>
-0.3010 FOR WORK CONTENT
-0.3010 FORM HABIT HABITS
-0.3010 FORMING FORM HABIT
-0.3010 FOURCHAN INTERNET </s>
-0.3010 FOURTH FOUR </s>
-0.3010 FREE WILL </s>
-0.3010 FRIEND FRIENDS PEOPLE
-0.3010 FRIEND INTRODUCING </s>
-0.3010 FRIENDS FRIEND INTRODUCING
-0.3010 FRIENDS PEOPLE </s>
-0.3010 FRUIT FRUITS </s>
-0.3010 FUN FACTS </s>
-0.3010 FUNERAL PROCESSION </s>
-0.3010 GAME ROMANCE </s>
-0.3010 GAME VIDYA </s>
-0.6021 GAMES GAME </s>
-0.6021 GAMES GAME VIDYA
-0.3010 GATHERING FAMILY </s>
-0.3010 GENRE SCARY SPOOKY
-0.3010 GHOST SUPERNATURAL </s>
-0.3010 GIRLS SAYORI NATUSKI
-0.3010 GIRLS THINK </s>
-0.3010 GOD THOUGHTS BELIEVE
-0.3010 GOOD LISTENER CONVERSATION
-0.3010 GOODBYE CLASS </s>
-0.3010 GOODBYE SLEEP GOODNIGHT
-0.3010 GOODBYE WHILE </s>
-0.3010 GOODBYE WORK </s>
-0.3010 HABIT HABITS </s>
-0.3010 HACK HACKER HACKING
-0.3010 HACKER HACKING </s>
-0.3010 HAD HAS BE
-0.3010 HAIR CHANGE STYLE
-0.3010 HAPPY BIRTHDAY </s>
-0.3010 HAPPY HAPPINESS </s>
-0.3010 HAREM FANTASIES </s>
-0.3010 HARM HARMING HURT
-0.3010 HARMING HURT </s>
-0.3010 HAS BE BEING
-0.3010 HAS HAD </s>
-0.3010 HATE HATER HATERS
-0.3010 HATER HATERS </s>
-0.3010 HATSUNE MIKU </s>
-0.3010 HAVE HAD HAS
-0.3010 HAVE HAS HAD
-0.3010 HE SHE IT
-0.3010 HEARD LIBITINA </s>
-0.3010 HEDGEHOG DILEMMA </s>
-0.3010 HEROISM HERO </s>
-0.3010 HIGH SCHOOL </s>
-0.3010 HIGHER EDUCATION COLLAGE
-0.3010 HORROR GENRE SCARY
-0.3010 HUNDRED THOUSAND DOWNLOADS
-0.3010 HYDRATION WATER </s>
-0.3010 HYGIENE PERSONAL </s>
-0.3010 HYPNOTIZED HYPNOSIS </s>
-0.3010 HYPOTHESIS SIMULATED REALITY
-0.3010 I AM YOU
-0.3010 ICE CREAM </s>
-0.3010 ICECREAM ICE CREAM
-0.3010 IMMORTAL IMMORTALITY </s>
-0.3010 IMPRISONED PRISONER </s>
-0.3010 INTERNET SOCIAL MEDIA
-0.3010 IS THEY YOU
-0.3010 IT IS THEY
-0.3010 JAPAN PLACEMENT </s>
-0.3010 JAPANESE SPEAKING LANGUAGE
-0.3010 JUSTIFICATION MURDER MURDERER
-0.3010 KISS ME EMBARRASSING
-0.3010 LACK MOTIVATION </s>
-0.3010 LAST POEM </s>
-0.3010 LAZY LAZINESS </s>
-0.3010 LINGER OTHER GIRLS
-0.3010 LINGERING LINGER OTHER
-0.3010 LISTENER CONVERSATION </s>
-0.3010 LITERATURE CLUB </s>
-0.3010 LITTLE SISTER </s>
-0.3010 LIVING WAITING </s>
-0.3010 LOTTERY LUCK WINNINGS
-0.3010 LOVE EYES </s>
-0.3010 LOVE HAIR </s>
-0.3010 LOVE LOVING TRUE
-0.3010 LOVE ME </s>
-0.3010 LOVING TRUE </s>
-0.3010 LUCK WINNINGS </s>
-0.3010 MAIN CHARACTER MC
-0.3010 MAKING FRIEND FRIENDS
-0.3010 MANGA READ </s>
-0.3010 MARRIAGE MARRY </s>
-0.3010 MATURE PORN HENTAI
-0.3010 ME EMBARRASSING </s>
-0.3010 MEAT VEGAN EARTH
-0.3010 MEDIA PRISON </s>
-0.3010 MEDITATION MEDITATING </s>
-0.3010 MEMORIES MEMORY HOME
-0.3010 MEMORY HOME </s>
-0.3010 MENTAL SICK SICKNESS
-0.3010 METAFICTIONAL FICTION </s>
-0.3010 MIDDLE SCHOOL LIFE
-0.3010 MISS MISSING FAMILY
-0.3010 MISSING FAMILY </s>
-0.3010 MISSING FESTIVAL </s>
-0.3010 MURDER MURDERER </s>
-0.3010 MUSIC CONCERTS CONCERT
-0.3010 NATSUKI DEATH </s>
-0.3010 NATUSKI YURI </s>
-0.3010 NIHILISM AGNOSTICISM DISBELIEF
-0.3010 NINETY EIGHTY FOUR
-0.3010 NOT SAFE FOR
-0.3010 NOVEL VN </s>
-0.3010 NOVELS NOVEL </s>
-0.3010 NSFW NOT SAFE
-0.3010 NUCLEAR WAR WARFARE
-0.3010 OBSESSED OBSESSE </s>
-0.3010 OKAY EVERYONE </s>
-0.3010 OLDER SISTER </s>
-0.3010 ONE HUNDRED THOUSAND
-0.3010 ORCHESTRA CLASSICAL MUSIC
-0.3010 OTHER CLOTHES </s>
-0.3010 OTHER GAMES GAME
-0.6021 OTHER GIRLS SAYORI
-0.6021 OTHER GIRLS THINK
-0.3010 OUR REALITY </s>
-0.3010 PANTIES UNDERGARMENT </s>
-0.3010 PARENT PARENTS </s>
-0.3010 PEN NAME </s>
-0.3010 PET PETS </s>
-0.3010 PIGGY BANK SAVING
-0.3010 PLAY GAME ROMANCE
-0.3010 PLEASURE FAP FAPPING
-0.3010 PLURALISTIC IGNORANCE </s>
-0.3010 PONG FEELING </s>
-0.3010 PORN HENTAI </s>
-0.3010 PORTRAIT MARKOV </s>
-0.3010 PROGRAMMING CODING CODE
-0.3010 PROM FESTIVAL </s>
-0.3010 RAIN RAINING </s>
-0.3010 RAP MUSIC </s>
-0.3010 READ BOOK </s>
-0.3010 READER READ BOOK
-0.3010 REAL NEAR </s>
-0.3010 REAL OUR REALITY
-0.3010 REALITY PIANO </s>
-0.3010 RECOMMENDATION RECOMMENDATIONS </s>
-0.3010 REGRETS REGRET </s>
-0.3010 RELAXING DRINKING DRINK
-0.3010 RESOURCE VALUABLE </s>
-0.3010 RESOURCES RESOURCE VALUABLE
-0.3010 RING WEDDING </s>
-0.3010 ROAD TRIP </s>
-0.3010 ROCK ROLL </s>
-0.3010 ROMANTIC DATE </s>
-0.3010 SAFE ACCIDENT </s>
-0.3010 SAFE FOR WORK
-0.3010 SAVE MONEY </s>
-0.3010 SAVE SAVING LIFE
-0.3010 SAVING LIFE </s>
-0.3010 SAVING SAVE MONEY
-0.3010 SAYORI NATUSKI YURI
-0.3010 SAYORI REGRETS REGRET
-0.3010 SCARY SPOOKY </s>
-0.3010 SCHOOL LIFE </s>
-0.3010 SCIENCE ADVANCEMENTS </s>
-0.3010 SELFHARM HARM HARMING
-0.3010 SETTING DDLC JAPAN
-0.3010 SHE IT IS
-0.3010 SHIPPING SHIPS </s>
-0.3010 SICK SICKNESS </s>
-0.3010 SIMULATED REALITY </s>
-0.3010 SLEEP CONCERN </s>
-0.3010 SLEEP GOODNIGHT </s>
-0.3010 SLEEP SLEEPING TIRED
-0.3010 SLEEPING TIRED TIRE
-0.3010 SMASH GAME </s>
-0.3010 SMOKE SMOKING </s>
-0.3010 SOCIAL MEDIA PRISON
-0.3010 SODA DRINK </s>
-0.3010 SOMEONE ELSE HAPPY
-0.3010 SONG YOUR REALITY
-0.3010 SORRY APOLOGIZE APOLOGIZED
-0.3010 SOUND SOUNDS RAIN
-0.3010 SOUNDS RAIN RAINING
-0.3010 SPEAKING LANGUAGE </s>
-0.3010 SPICY FOOD FOODS
-0.3010 SPIDERS SPIDER </s>
-0.3010 SPORT ATHLETIC </s>
-0.3010 SPORTS SPORT ATHLETIC
-0.3010 STYLE PONYTAIL </s>
-0.3010 STYLE STRAIGHT </s>
-0.3010 SUDDEN ANXIETY ANXIOUS
-0.3010 SUPER SMASH GAME
-0.3010 SURPRISE SURPRISES </s>
-0.3010 SWORDSMANSHIP SWORD </s>
-0.3010 TAKE SOMEWHERE </s>
-0.3010 TEA SET </s>
-0.3010 TECHNIQUE CODE CODING
-0.3010 THEY YOU WE
-0.3010 THOUGHTS BELIEVE RELIGION
-0.3010 THOUSAND DOWNLOADS DOWNLOAD
-0.3010 THREE THIRD </s>
-0.3010 TIP FIFTH FIVE
-0.3010 TIP FIRST ONE
-0.3010 TIP FOURTH FOUR
-0.3010 TIP THREE THIRD
-0.3010 TIP TWO SECOND
-0.3010 TIRED TIRE </s>
-0.3010 TOGETHER LIVING WAITING
-0.3010 TORMENT NATURE </s>
-0.3010 TROLLEY EXPERIMENTS PROBLEM
-0.3010 TROPES ARCHETYPES UNREALISTIC
-0.3010 TSUNDERE NATUSKI </s>
-0.3010 TWITTER LILMONIXTHREE </s>
-0.3010 TWO SECOND </s>
-0.3010 TYPE TYPES CREATE
-0.3010 TYPES CREATE </s>
-0.3010 UNDERGARMENTS PANTIES UNDERGARMENT
-0.3010 URGENT MESSAGE </s>
-0.3010 VEGAN EARTH </s>
-0.3010 VEGETARIAN MEAT VEGAN
-0.3010 VIDEO GAME </s>
-0.3010 VIDEO GAMES GAME
-0.3010 VIRTUAL NOVEL VN
-0.3010 VISUAL NOVELS NOVEL
-0.3010 VOCALOID HATSUNE MIKU
-0.3010 WAIFU WAIFUS </s>
-0.3010 WAR WARFARE </s>
-0.3010 WAS WERE HAVE
-0.3010 WE ARE </s>
-0.3010 WEARING OTHER CLOTHES
-0.3010 WEARY TIRED </s>
-0.3010 WEATHER CUDDLING CUDDLE
-0.3010 WERE HAVE HAD
-0.3010 WHY DO YOU
-0.3010 WINE RELAXING DRINKING
-0.3010 WOLF WOLVES </s>
-0.3010 WORK CONTENT MATURE
-1.0000 WRITING TIP FIFTH
-1.0000 WRITING TIP FIRST
-1.0000 WRITING TIP FOURTH
-1.0000 WRITING TIP THREE
-1.0000 WRITING TIP TWO
-0.3010 WRITINGS WRITING </s>
-0.3010 YANDERE YURI OBSESSED
-0.3010 YEAR OLDER </s>
-0.3010 YELLOW WALLPAPER </s>
-0.3010 YOU ARE HE
-0.3010 YOU CLOSEST REAL
-0.3010 YOU LOVE ME
-0.3010 YOU WE ARE
-0.3010 YOUR REALITY PIANO
-0.3010 YOURSELF MONIKA </s>
-0.3010 YURI BOOK PORTRAIT
-0.3010 YURI OBSESSED OBSESSE
-0.3010 YURI TEA SET
-0.3010 YURI WINE RELAXING
-0.3010 ZOMBIES UNDEAD </s>

\end\
