Language model created by QuickLM on Sun Nov 18 15:57:17 EST 2018
Copyright (c) 1996-2010 Carnegie Mellon University and Alexander I. Rudnicky

The model is in standard ARPA format, designed by Doug Paul while he was at MITRE.

The code that was used to produce this language model is available in Open Source.
Please visit http://www.speech.cs.cmu.edu/tools/ for more information

The (fixed) discount mass is 0.5. The backoffs are computed using the ratio method.
This model based on a corpus of 450 sentences and 551 words

\data\
ngram 1=551
ngram 2=1351
ngram 3=1359

\1-grams:
-1.0516 </s> -0.2606
-1.0535 <s> -0.2066
-2.8036 A -0.2994
-2.5928 ABOUT -0.2982
-3.7067 ACCIDENT -0.2606
-3.4057 ADORE -0.2928
-3.7067 ADORES -0.2606
-3.7067 ADVANCEMENTS -0.2606
-3.7067 ADVENTURE -0.3009
-3.7067 ADVENTURING -0.2606
-3.4057 AGNOSTICISM -0.2605
-3.7067 ALGERNON -0.2606
-2.6275 AM -0.2843
-3.7067 ANCIENT -0.3009
-3.7067 AND -0.3007
-3.7067 ANGRY -0.2606
-3.2296 ANXIETY -0.2604
-3.2296 ANXIOUS -0.2606
-3.7067 APOLOGIZE -0.3009
-3.7067 APOLOGIZED -0.2606
-3.4057 APPRECIATING -0.3009
-3.4057 ARCHETYPES -0.3009
-2.4280 ARE -0.2441
-3.4057 ARGUE -0.2600
-3.4057 ARGUING -0.3003
-3.7067 ASK -0.3003
-3.7067 ATHLETIC -0.2606
-3.7067 AWARE -0.3009
-2.5606 AWESOME -0.2599
-3.7067 BAKE -0.3009
-3.7067 BAKING -0.2606
-3.7067 BANK -0.3008
-2.5928 BE -0.2958
-3.7067 BEACH -0.2606
-3.4057 BEAUTIFUL -0.2604
-3.4057 BECOMING -0.3008
-3.0077 BEING -0.2506
-3.4057 BELIEVE -0.3004
-3.7067 BEST -0.3009
-3.2296 BIRTHDAY -0.2579
-2.6275 BOOK -0.2600
-3.1047 BOOKS -0.2588
-3.7067 BORED -0.2606
-3.7067 BREAKING -0.2606
-3.7067 BREAKUP -0.3009
-3.2296 BY -0.2927
-3.1047 BYE -0.3007
-2.8616 CAN -0.2879
-3.4057 CANT -0.3000
-3.7067 CAREFUL -0.3009
-3.7067 CAT -0.3009
-3.2296 CATCHPHRASE -0.2605
-3.7067 CATS -0.3009
-3.4057 CHALLENGE -0.2928
-3.7067 CHALLENGES -0.2606
-3.4057 CHANGE -0.3009
-3.1047 CHARACTER -0.2601
-3.2296 CHESS -0.2553
-3.7067 CHLOROFORM -0.2606
-3.7067 CITIES -0.3009
-3.7067 CITIZENSHIP -0.3009
-3.7067 CITIZENSHIP</S> -0.2606
-3.7067 CITY -0.2606
-3.7067 CLASS -0.2606
-3.7067 CLASSICAL -0.3007
-3.7067 CLASSROOM -0.2606
-3.7067 CLONE -0.3009
-3.7067 CLONED -0.3009
-3.7067 CLONES -0.2606
-3.4057 CLOSE -0.2985
-3.4057 CLOSEST -0.2987
-3.7067 CLOSET -0.3009
-3.4057 CLOTHES -0.2606
-3.0077 CLUB -0.2551
-3.1047 CODE -0.2600
-3.1047 CODING -0.2546
-3.7067 COFFEE -0.3009
-3.4057 COLD -0.3009
-3.2296 COLLAGE -0.2606
-3.2296 COLOR -0.2605
-3.7067 COMPLETIONISM -0.3009
-3.7067 COMPLETIST -0.2606
-3.7067 CONCERN -0.2606
-3.7067 CONCERT -0.2606
-3.7067 CONCERTS -0.3009
-3.2296 CONFIDENCE -0.2603
-3.4057 CONFIDENT -0.2553
-3.7067 CONTACT -0.2606
-3.7067 CONTENT -0.3009
-3.4057 CONTRIBUTE -0.2988
-3.4057 CONTRIBUTIONS -0.2584
-3.4057 CONVERSATION -0.2606
-3.7067 CREAM -0.2606
-3.4057 CREATE -0.2604
-3.4057 CREATIVE -0.3009
-3.4057 CREDIT -0.3005
-3.4057 CREDITS -0.2990
-3.7067 CROSSING -0.2606
-3.7067 CROSSOVER -0.3009
-3.4057 CUDDLE -0.2518
-3.4057 CUDDLING -0.2605
-3.7067 CUPCAKE -0.3009
-3.7067 CUPCAKES -0.3009
-3.2296 DAN -0.3008
-3.4057 DATE -0.2606
-3.7067 DATING -0.3009
-3.7067 DAYDREAM -0.3009
-2.8616 DDLC -0.2545
-3.4057 DEAD -0.2605
-2.9286 DEATH -0.2601
-3.4057 DEBATE -0.3006
-3.7067 DEDICATION -0.3009
-2.8036 DID -0.2844
-2.9286 DIFFICULT -0.2604
-3.4057 DILEMMA -0.2606
-3.4057 DISBELIEF -0.2518
-2.0835 DO -0.2864
-3.7067 DOG -0.3009
-3.7067 DOGS -0.2606
-3.7067 DOING -0.3009
-3.2296 DOKI -0.3008
-3.7067 DOWNLOAD -0.2606
-3.7067 DOWNLOADS -0.3009
-3.4057 DRAW -0.2605
-3.4057 DRAWING -0.2606
-3.2296 DREAM -0.2592
-3.4057 DREAMING -0.2604
-3.2296 DRINK -0.2604
-3.2296 DRINKING -0.3004
-3.7067 DUNBAR -0.3009
-3.4057 DYING -0.2606
-3.4057 EARTH -0.2606
-3.2296 EASY -0.2606
-3.4057 EDUCATION -0.3008
-3.7067 EIGHTY -0.3009
-3.7067 ELSE -0.3008
-3.4057 EMBARRASSING -0.2584
-3.4057 EMERALD -0.2604
-3.7067 EMERLAD -0.2961
-3.7067 ENGAGEMENT -0.3009
-3.7067 ETERNAL -0.2606
-3.7067 ETERNITY -0.3009
-3.7067 EVENING -0.2606
-3.4057 EVERYONE -0.2585
-3.4057 EXPERIMENTS -0.3009
-3.7067 EXPLAIN -0.3009
-3.7067 EYE -0.3008
-3.2296 EYES -0.2605
-3.7067 FACE -0.2991
-3.7067 FACTS -0.2606
-3.4057 FAKE -0.3006
-3.4057 FAKING -0.2604
-3.0077 FAMILY -0.2605
-3.4057 FANART -0.3003
-3.7067 FANFICTION -0.2606
-3.7067 FANTASIES -0.2606
-3.7067 FAP -0.3009
-3.7067 FAPPING -0.3009
-3.7067 FASTFOOD -0.3009
-2.7067 FAVORITE -0.2980
-2.5928 FEEL -0.2992
-3.7067 FEELING -0.2606
-3.7067 FELINE -0.2606
-3.2296 FELL -0.3003
-3.2296 FESTIVAL -0.2606
-3.2296 FICTION -0.2553
-3.4057 FIFTH -0.3000
-3.7067 FIRST -0.3008
-3.4057 FIT -0.2605
-3.7067 FITNESS -0.3009
-3.7067 FIVE -0.2606
-3.7067 FLOWERS -0.3009
-3.4057 FOOD -0.2605
-3.4057 FOODS -0.2606
-2.8036 FOR -0.2880
-3.4057 FORM -0.3002
-3.4057 FORMING -0.3006
-3.4057 FOUR -0.2606
-3.1047 FOURCHAN -0.2538
-3.4057 FOURTH -0.2999
-3.1047 FREE -0.2973
-3.7067 FREINDS -0.2606
-3.1047 FRIEND -0.2601
-3.2296 FRIENDS -0.2600
-3.7067 FRIST -0.3001
-3.7067 FRUIT -0.3009
-3.7067 FRUITS -0.2606
-3.7067 FUN -0.3009
-3.2296 FUNCTIONALISM -0.2553
-3.2296 FUNERAL -0.2960
-2.6653 GAME -0.2583
-3.1047 GAMES -0.2995
-3.7067 GATHERING -0.3006
-3.7067 GATHERING</S> -0.2606
-3.4057 GENRE -0.2605
-3.7067 GET -0.2995
-3.7067 GHOST -0.3009
-3.7067 GIRL -0.2606
-3.1047 GIRLFRIEND -0.2605
-2.9286 GIRLS -0.2587
-3.7067 GO -0.2990
-3.1047 GOD -0.2604
-3.7067 GOING -0.2990
-3.0077 GOOD -0.2603
-3.1047 GOODBYE -0.3004
-3.4057 GOODNIGHT -0.2579
-3.4057 HABIT -0.2604
-3.2296 HABITS -0.2606
-3.7067 HACK -0.3009
-3.7067 HACKER -0.3009
-3.7067 HACKING -0.2606
-3.4057 HAD -0.2605
-3.2296 HAIR -0.2605
-3.7067 HAMLET -0.2606
-3.7067 HANGMAN -0.2606
-3.7067 HAPPINESS -0.2606
-3.2296 HAPPY -0.3007
-3.7067 HAREM -0.3009
-3.7067 HARM -0.3009
-3.7067 HARMING -0.3009
-3.4057 HAS -0.2997
-3.4057 HATE -0.3006
-3.7067 HATER -0.3009
-3.4057 HATERS -0.2606
-3.7067 HATSUNE -0.3009
-2.6653 HAVE -0.2985
-3.7067 HE -0.3009
-3.4057 HEARD -0.2997
-3.4057 HEDGEHOG -0.3009
-3.7067 HENTAI -0.2606
-3.7067 HER -0.3008
-3.2296 HERO -0.2599
-3.4057 HEROISM -0.2959
-3.2296 HIGH -0.3006
-3.2296 HIGHER -0.3006
-3.7067 HOME -0.2606
-3.4057 HORROR -0.3009
-3.4057 HOUSEWIFE -0.2606
-3.0077 HOW -0.2943
-3.7067 HUNDRED -0.3009
-3.7067 HUNGRY -0.2606
-3.7067 HURT -0.2606
-3.7067 HYDRATION -0.3009
-3.7067 HYDRATION</S> -0.2606
-3.7067 HYGIENE -0.3009
-3.7067 HYPNOSIS -0.2606
-3.7067 HYPNOTIZED -0.3009
-3.4057 HYPOTHESIS -0.3009
-2.0633 I -0.2880
-3.7067 ICE -0.3009
-3.7067 ICECREAM -0.3009
-3.7067 IGNORANCE -0.2606
-3.4057 IMAGES -0.2601
-3.7067 IMMORTAL -0.3009
-3.7067 IMMORTALITY -0.2606
-3.7067 IMPRESSION -0.2606
-3.4057 IMPRISONED -0.3006
-3.2296 IN -0.3003
-3.7067 INADEQUATE -0.2606
-3.7067 INNOVATION -0.2606
-3.7067 INTAKE -0.2606
-3.4057 INTELLIGENT -0.2604
-3.1047 INTERNET -0.2600
-3.2296 INTRODUCING -0.2495
-1.9508 IS -0.2884
-3.2296 IT -0.2960
-3.1047 JAPAN -0.2604
-3.7067 JAPANESE -0.3009
-3.7067 JAZZ -0.2606
-3.4057 JUSTIFICATION -0.3009
-3.7067 KILL -0.2929
-3.2296 KISS -0.2969
-3.1047 KNOW -0.2999
-3.4057 LACK -0.2605
-3.7067 LANGUAGE -0.2606
-3.4057 LAST -0.3007
-3.4057 LAZINESS -0.2600
-3.2296 LAZY -0.2605
-2.5928 LETS -0.2984
-3.2296 LIBITINA -0.2606
-3.1047 LIFE -0.2606
-2.9286 LIKE -0.2973
-3.4057 LILMONIX -0.2606
-3.1047 LINGER -0.2973
-3.4057 LINGERING -0.2999
-3.4057 LISTENER -0.2605
-3.7067 LITEN -0.2990
-3.2296 LITERATURE -0.3006
-3.2296 LITTLE -0.3005
-3.7067 LIVING -0.3009
-3.7067 LONE -0.2991
-3.7067 LONELY -0.2606
-3.7067 LOT -0.2606
-3.7067 LOTTERY -0.3009
-2.1752 LOVE -0.2390
-3.2296 LOVES -0.2924
-3.4057 LOVING -0.2927
-3.7067 LUCK -0.3009
-3.7067 LUCKY -0.2606
-3.7067 LUCKY. -0.3007
-3.7067 MADE -0.3009
-3.4057 MAIN -0.3007
-3.2296 MAKE -0.2991
-3.4057 MAKING -0.3007
-3.2296 MANGA -0.2574
-3.2296 MARKOV -0.2541
-3.7067 MARRIAGE -0.3009
-3.7067 MARRY -0.2606
-3.7067 MASTURBATE -0.2606
-3.7067 MATURE -0.3009
-3.4057 MC -0.2553
-2.4280 ME -0.2549
-3.4057 MEAT -0.2605
-3.4057 MEDIA -0.2959
-3.7067 MEDITATING -0.2606
-3.7067 MEDITATION -0.3009
-3.7067 MEMORIES -0.3009
-3.7067 MEMORY -0.3009
-3.4057 MENTAL -0.3007
-3.7067 MESSAGE -0.2606
-3.2296 METAFICTIONAL -0.2604
-3.4057 MIDDLE -0.3006
-3.7067 MIKU -0.2606
-3.4057 MISS -0.2987
-3.1047 MISSING -0.2922
-3.7067 MONEY -0.2606
-2.2443 MONIKA -0.2542
-3.7067 MONIKA</S> -0.2606
-3.7067 MORNING -0.2606
-3.7067 MORTALITY -0.2606
-3.7067 MOTIVATION -0.2606
-3.4057 MURDER -0.2605
-3.4057 MURDERER -0.2605
-3.1047 MUSIC -0.2605
-2.6653 MY -0.2957
-3.7067 MYTHOLOGY -0.2606
-3.4057 NAME -0.2606
-2.9286 NATSUKI -0.2599
-3.2296 NATURE -0.2606
-3.0077 NATUSKI -0.2581
-3.4057 NEAR -0.2604
-3.4057 NIHILISM -0.2960
-3.7067 NINETY -0.3009
-3.4057 NOT -0.3008
-2.9286 NOVEL -0.2551
-3.4057 NOVELS -0.2601
-3.7067 NSFW -0.3009
-3.7067 NUCLEAR -0.3009
-3.7067 NUMBER -0.2606
-3.4057 OBSESSE -0.2604
-3.4057 OBSESSED -0.3003
-2.9286 OF -0.2918
-3.4057 OKAY -0.3009
-3.1047 OLDER -0.2602
-3.7067 OMAMORI -0.2606
-3.2296 ONE -0.2603
-3.4057 OR -0.2993
-3.7067 ORCHESTRA -0.3009
-3.7067 OTAKU -0.2606
-2.7525 OTHER -0.3000
-3.7067 OUR -0.3003
-3.7067 PANTIES -0.3009
-3.7067 PARENT -0.3009
-3.7067 PARENTS -0.2606
-3.7067 PEN -0.3009
-3.2296 PEOPLE -0.2605
-3.7067 PERSONAL -0.2606
-3.7067 PET -0.3009
-3.7067 PETS -0.2606
-3.1047 PIANO -0.2548
-3.7067 PIGGY -0.3009
-3.2296 PLACEMENT -0.2550
-2.8036 PLAY -0.2987
-3.7067 PLEASE -0.3009
-3.7067 PLEASURE -0.3009
-3.7067 PLURALISTIC -0.3009
-3.1047 POEM -0.2606
-3.2296 POETRY -0.2553
-3.4057 PONG -0.2605
-3.7067 PONYTAIL -0.2606
-3.7067 PORN -0.3009
-3.2296 PORTRAIT -0.3008
-3.2296 PRISON -0.2599
-3.4057 PRISONER -0.2601
-3.4057 PROBLEM -0.2606
-3.4057 PROCESSION -0.2606
-3.2296 PROGRAMMING -0.2549
-3.7067 PROM -0.3008
-3.7067 PROUD -0.2606
-3.4057 RAIN -0.2605
-3.4057 RAINING -0.2606
-3.4057 RAP -0.3007
-3.0077 READ -0.2592
-3.2296 READER -0.2998
-3.2296 REAL -0.2991
-2.8036 REALITY -0.2544
-3.7067 REALIZE -0.2606
-3.7067 RECOMMENDATION -0.3009
-3.7067 RECOMMENDATIONS -0.2606
-3.4057 REGRET -0.2596
-3.4057 REGRETS -0.3008
-3.7067 RELATIONSHIP -0.2606
-3.4057 RELAXING -0.3008
-3.1047 RELIGION -0.2606
-3.7067 RESOURCE -0.3009
-3.7067 RESOURCES -0.3009
-3.7067 RIBBON -0.2606
-3.7067 RING -0.3009
-3.7067 ROAD -0.3009
-3.7067 ROCK -0.3009
-3.7067 ROLL -0.2606
-3.2296 ROMANCE -0.2596
-3.4057 ROMANTIC -0.3009
-3.2296 ROUTE -0.2553
-3.4057 SAD -0.2606
-3.4057 SAFE -0.3003
-3.2296 SALVATO -0.2553
-3.2296 SAVE -0.2987
-3.2296 SAVING -0.2923
-2.7067 SAYORI -0.2576
-3.4057 SCARY -0.2605
-3.0077 SCHOOL -0.2549
-3.7067 SCIENCE -0.3009
-3.4057 SECOND -0.2596
-3.7067 SEE -0.3009
-3.7067 SELFHARM -0.3009
-3.4057 SET -0.2606
-3.4057 SETTING -0.3002
-3.7067 SHE -0.3008
-3.2296 SHIP -0.2982
-3.7067 SHIPPING -0.3009
-3.7067 SHIPS -0.2606
-3.1047 SICK -0.2605
-3.4057 SICKNESS -0.2553
-3.4057 SIMULATED -0.3003
-3.0077 SISTER -0.2606
-3.2296 SLEEP -0.3007
-3.7067 SLEEPING -0.3008
-3.4057 SMASH -0.2981
-3.7067 SMILE -0.2606
-3.7067 SMOKE -0.3009
-3.7067 SMOKING -0.2606
-3.4057 SOCIAL -0.3009
-3.7067 SODA -0.3008
-3.7067 SOMEONE -0.3009
-3.7067 SOMEWHERE -0.2606
-3.0077 SONG -0.2585
-3.7067 SORRY -0.3009
-3.4057 SOUND -0.3003
-3.4057 SOUNDS -0.3003
-3.7067 SPEAKING -0.3009
-3.4057 SPICY -0.3009
-3.7067 SPIDER -0.2606
-3.7067 SPIDERS -0.3009
-3.4057 SPOOKY -0.2606
-3.7067 SPORT -0.3009
-3.7067 SPORTS -0.3009
-3.7067 STOP -0.3009
-3.7067 STRAIGHT -0.2606
-3.4057 STYLE -0.3009
-3.4057 SUDDEN -0.3008
-3.4057 SUPER -0.3009
-3.7067 SUPERNATURAL -0.2606
-3.7067 SURPRISE -0.3009
-3.7067 SURPRISES -0.2606
-3.7067 SWORD -0.2606
-3.7067 SWORDSMANSHIP -0.3009
-3.4057 TAKE -0.2928
-2.8616 TALK -0.2999
-3.4057 TEA -0.3009
-3.2296 TECHNIQUE -0.2585
-2.7525 TELL -0.2994
-3.7067 THAT -0.2990
-3.7067 THEY -0.2929
-3.7067 THINK -0.2606
-3.4057 THIRD -0.2596
-2.8036 THIS -0.2915
-3.2296 THOUGHTS -0.2997
-3.7067 THOUSAND -0.3009
-3.7067 THREE -0.3009
-2.7067 TIP -0.2600
-3.7067 TIRE -0.2606
-3.2296 TIRED -0.2605
-2.3265 TO -0.2867
-3.7067 TOGETHER -0.3009
-3.2296 TORMENT -0.2550
-3.4057 TOTONO -0.2553
-3.7067 TRIP -0.2606
-3.4057 TROLLEY -0.3009
-3.4057 TROPES -0.3003
-3.2296 TRUE -0.2574
-3.4057 TSUNDERE -0.2602
-3.4057 TWITTER -0.3009
-3.7067 TWO -0.3009
-3.4057 TYPE -0.2985
-3.7067 TYPES -0.3009
-3.7067 UNDEAD -0.2606
-3.7067 UNDERGARMENT -0.2606
-3.7067 UNDERGARMENTS -0.3009
-3.7067 UNHEALTHY -0.2606
-3.4057 UNREALISTIC -0.2606
-3.7067 URGENT -0.3009
-3.7067 VALUABLE -0.2606
-3.4057 VEGAN -0.2605
-3.4057 VEGETARIAN -0.3007
-3.0077 VIDEO -0.2997
-3.2296 VIDYA -0.2596
-3.1047 VIRTUAL -0.3005
-3.4057 VISUAL -0.3009
-3.4057 VN -0.2553
-3.7067 VOCALOID -0.3009
-3.7067 WAIFU -0.3009
-3.4057 WAIFUS -0.2606
-3.7067 WAITING -0.2606
-3.7067 WALLPAPER -0.2606
-2.8036 WANT -0.2985
-3.7067 WAR -0.3009
-3.7067 WARFARE -0.2606
-3.1047 WAS -0.3003
-3.7067 WATER -0.2606
-3.4057 WE -0.2991
-3.4057 WEARING -0.3003
-3.7067 WEARY -0.3008
-3.4057 WEATHER -0.2960
-3.7067 WEDDING -0.2606
-3.7067 WERE -0.3001
-2.6653 WHAT -0.2863
-3.4057 WHEN -0.2518
-3.7067 WHILE -0.2606
-3.7067 WHO -0.3006
-2.9286 WHY -0.2952
-3.4057 WIAFU -0.2606
-3.7067 WIAFUS -0.2994
-2.5306 WILL -0.2490
-3.2296 WINE -0.2598
-3.7067 WINNINGS -0.2606
-2.8616 WITH -0.2858
-3.7067 WOLF -0.3009
-3.7067 WOLVES -0.2606
-3.4057 WORK -0.2605
-3.7067 WOULD -0.2929
-2.6653 WRITING -0.2597
-3.7067 WRITINGS -0.3001
-3.4057 YANDERE -0.2590
-3.7067 YEAR -0.3007
-3.7067 YELLOW -0.3009
-1.7336 YOU -0.2282
-2.3450 YOUR -0.2554
-3.2296 YOURSELF -0.2579
-2.4514 YURI -0.2482
-3.7067 ZOMBIES -0.3009

\2-grams:
-2.6551 </s> </s> -0.3010
-2.9542 <s> ADORE -0.1761
-2.9542 <s> ADVENTURE 0.0000
-2.9542 <s> AM -0.2632
-2.9542 <s> ANCIENT 0.0000
-2.9542 <s> APPRECIATING 0.0000
-2.1761 <s> ARE -0.2264
-2.9542 <s> AWARE 0.0000
-2.9542 <s> AWESOME -0.0300
-2.9542 <s> BE -0.2840
-2.9542 <s> BEACH 0.0000
-2.9542 <s> BEAUTIFUL -0.1761
-2.6532 <s> BECOMING 0.0000
-2.9542 <s> BEST 0.0000
-2.9542 <s> BIRTHDAY -0.1249
-2.6532 <s> BOOK -0.2632
-2.9542 <s> BOOKS -0.2430
-2.9542 <s> BREAKUP 0.0000
-2.3522 <s> BYE 0.0000
-2.3522 <s> CAN -0.1549
-2.9542 <s> CAREFUL 0.0000
-2.9542 <s> CAT 0.0000
-2.9542 <s> CATCHPHRASE -0.2218
-2.9542 <s> CHALLENGE -0.1761
-2.9542 <s> CHARACTER -0.2430
-2.6532 <s> CHESS 0.0000
-2.9542 <s> CHLOROFORM 0.0000
-2.9542 <s> CITIES 0.0000
-2.9542 <s> CITIZENSHIP 0.0000
-2.9542 <s> CLONE 0.0000
-2.9542 <s> CLOSE -0.1761
-2.9542 <s> CLOSET 0.0000
-2.6532 <s> CODING -0.1761
-2.9542 <s> COFFEE 0.0000
-2.6532 <s> COLD 0.0000
-2.9542 <s> COMPLETIONISM 0.0000
-2.9542 <s> CONFIDENCE -0.2218
-2.9542 <s> CONFIDENT -0.1761
-2.9542 <s> CONTRIBUTE -0.1761
-2.9542 <s> CREATIVE 0.0000
-2.9542 <s> CREDIT -0.1761
-2.9542 <s> CREDITS -0.1761
-2.9542 <s> CUPCAKE 0.0000
-2.6532 <s> DAN 0.0000
-2.9542 <s> DATING 0.0000
-2.9542 <s> DAYDREAM 0.0000
-2.2553 <s> DDLC -0.1091
-2.9542 <s> DEATH -0.2632
-2.9542 <s> DEBATE 0.0000
-2.9542 <s> DEDICATION 0.0000
-2.2553 <s> DID -0.0969
-2.9542 <s> DIFFICULT -0.2632
-1.4228 <s> DO -0.0395
-2.9542 <s> DOG 0.0000
-2.6532 <s> DOKI 0.0000
-2.9542 <s> DRAW -0.1761
-2.9542 <s> DREAM -0.2218
-2.9542 <s> DRINKING -0.2218
-2.9542 <s> DUNBAR 0.0000
-2.9542 <s> EMERLAD 0.0000
-2.9542 <s> ENGAGEMENT 0.0000
-2.9542 <s> ETERNITY 0.0000
-2.9542 <s> EVENING 0.0000
-2.9542 <s> EXPLAIN 0.0000
-2.9542 <s> EYE 0.0000
-2.9542 <s> FACE 0.0000
-2.9542 <s> FAKE -0.1761
-2.9542 <s> FAMILY -0.0792
-2.9542 <s> FANART -0.1761
-2.9542 <s> FANFICTION 0.0000
-2.9542 <s> FASTFOOD 0.0000
-2.3522 <s> FAVORITE -0.0414
-1.8751 <s> FEEL -0.0322
-2.9542 <s> FIT -0.1761
-2.9542 <s> FLOWERS 0.0000
-2.9542 <s> FORMING -0.1761
-2.4771 <s> FOURCHAN -0.0969
-2.9542 <s> FREE -0.0969
-2.9542 <s> FRIENDS -0.2218
-2.9542 <s> FRUIT 0.0000
-2.9542 <s> FUN 0.0000
-2.6532 <s> FUNCTIONALISM 0.0000
-2.6532 <s> FUNERAL 0.0000
-2.9542 <s> GATHERING 0.0000
-2.9542 <s> GHOST 0.0000
-2.9542 <s> GIRLFRIEND -0.0969
-2.9542 <s> GOD -0.2430
-2.9542 <s> GOOD -0.2041
-2.9542 <s> HACK 0.0000
-2.6532 <s> HAIR -0.1249
-2.9542 <s> HAMLET 0.0000
-2.6532 <s> HAPPY 0.0000
-2.9542 <s> HAREM 0.0000
-2.9542 <s> HATE -0.1761
-2.9542 <s> HAVE -0.2374
-2.9542 <s> HEARD -0.1761
-2.9542 <s> HEDGEHOG 0.0000
-2.6532 <s> HEROISM 0.0000
-2.6532 <s> HIGH 0.0000
-2.9542 <s> HIGHER -0.1249
-2.9542 <s> HORROR 0.0000
-2.9542 <s> HOUSEWIFE 0.0000
-2.6532 <s> HOW -0.0792
-2.9542 <s> HYDRATION 0.0000
-2.9542 <s> HYGIENE 0.0000
-2.9542 <s> HYPNOTIZED 0.0000
-2.9542 <s> HYPOTHESIS 0.0000
-1.3522 <s> I -0.0378
-2.9542 <s> ICECREAM 0.0000
-2.9542 <s> IMMORTAL 0.0000
-2.9542 <s> IMPRESSION 0.0000
-2.9542 <s> IMPRISONED -0.1761
-2.9542 <s> INNOVATION 0.0000
-2.9542 <s> INTELLIGENT -0.1761
-2.6532 <s> INTERNET -0.1761
-1.8751 <s> IS -0.2126
-2.9542 <s> IT -0.1249
-2.9542 <s> JAPANESE 0.0000
-2.9542 <s> JAZZ 0.0000
-2.9542 <s> JUSTIFICATION 0.0000
-2.6532 <s> KISS -0.1249
-2.9542 <s> LACK -0.1761
-2.9542 <s> LAST 0.0000
-2.9542 <s> LAZINESS -0.1761
-2.9542 <s> LAZY -0.2218
-1.8403 <s> LETS 0.0000
-2.4771 <s> LINGER -0.0969
-2.6532 <s> LINGERING 0.0000
-2.9542 <s> LITTLE -0.1249
-2.9542 <s> LOTTERY 0.0000
-2.4771 <s> LOVE -0.2814
-2.9542 <s> MAIN 0.0000
-2.9542 <s> MAKING 0.0000
-2.9542 <s> MANGA -0.2218
-2.9542 <s> MARRIAGE 0.0000
-2.9542 <s> MC -0.1761
-2.9542 <s> MEDITATION 0.0000
-2.9542 <s> MEMORIES 0.0000
-2.9542 <s> MENTAL 0.0000
-2.9542 <s> METAFICTIONAL -0.2218
-2.9542 <s> MIDDLE 0.0000
-2.9542 <s> MISS -0.1761
-2.9542 <s> MISSING -0.1761
-2.1761 <s> MONIKA -0.2536
-2.9542 <s> MORNING 0.0000
-2.9542 <s> MUSIC -0.2430
-2.9542 <s> MY -0.2808
-2.9542 <s> NAME 0.0000
-2.6532 <s> NATSUKI -0.1761
-2.6532 <s> NIHILISM 0.0000
-2.9542 <s> NINETY 0.0000
-2.9542 <s> NSFW 0.0000
-2.9542 <s> NUCLEAR 0.0000
-2.9542 <s> OLDER -0.0969
-2.9542 <s> OMAMORI 0.0000
-2.9542 <s> ONE -0.2218
-2.9542 <s> ORCHESTRA 0.0000
-2.9542 <s> OTAKU 0.0000
-2.6532 <s> OTHER -0.0872
-2.9542 <s> PARENT 0.0000
-2.9542 <s> PEN 0.0000
-2.9542 <s> PEOPLE -0.2218
-2.9542 <s> PET 0.0000
-2.9542 <s> PIGGY 0.0000
-2.9542 <s> PLACEMENT -0.2218
-2.6532 <s> PLAY -0.2109
-2.9542 <s> PLEASE 0.0000
-2.9542 <s> PLEASURE 0.0000
-2.6532 <s> POETRY 0.0000
-2.9542 <s> PONG -0.1761
-2.9542 <s> PORTRAIT 0.0000
-2.6532 <s> PROGRAMMING -0.1249
-2.9542 <s> PROM 0.0000
-2.9542 <s> RAP 0.0000
-2.9542 <s> REAL -0.2218
-2.9542 <s> REGRETS -0.1761
-2.9542 <s> RESOURCES 0.0000
-2.9542 <s> RIBBON 0.0000
-2.9542 <s> ROAD 0.0000
-2.9542 <s> ROCK 0.0000
-2.9542 <s> ROMANTIC 0.0000
-2.9542 <s> ROUTE -0.1249
-2.9542 <s> SAVE -0.2218
-2.9542 <s> SAYORI -0.2788
-2.9542 <s> SCIENCE 0.0000
-2.9542 <s> SELFHARM 0.0000
-2.9542 <s> SETTING -0.1761
-2.9542 <s> SHIPPING 0.0000
-2.9542 <s> SICKNESS -0.1761
-2.6532 <s> SLEEP -0.1249
-2.9542 <s> SMILE 0.0000
-2.9542 <s> SMOKE 0.0000
-2.9542 <s> SOCIAL 0.0000
-2.9542 <s> SOMEONE 0.0000
-2.9542 <s> SORRY 0.0000
-2.9542 <s> SOUND -0.1761
-2.9542 <s> SPICY 0.0000
-2.9542 <s> SPIDERS 0.0000
-2.9542 <s> SPORTS 0.0000
-2.9542 <s> SUDDEN 0.0000
-2.9542 <s> SUPER 0.0000
-2.9542 <s> SURPRISE 0.0000
-2.9542 <s> SWORDSMANSHIP 0.0000
-2.9542 <s> TAKE -0.1761
-2.9542 <s> TECHNIQUE -0.2218
-2.1761 <s> TELL 0.0000
-2.4771 <s> THIS -0.2109
-2.9542 <s> TOGETHER 0.0000
-2.6532 <s> TORMENT -0.1249
-2.6532 <s> TOTONO 0.0000
-2.9542 <s> TROLLEY 0.0000
-2.9542 <s> TROPES -0.1761
-2.9542 <s> TSUNDERE -0.1761
-2.9542 <s> TWITTER 0.0000
-2.9542 <s> UNDERGARMENTS 0.0000
-2.9542 <s> URGENT 0.0000
-2.9542 <s> VEGETARIAN -0.1761
-2.4771 <s> VIDEO -0.1461
-2.9542 <s> VIDYA -0.1249
-2.6532 <s> VIRTUAL 0.0000
-2.9542 <s> VN -0.1761
-2.9542 <s> VOCALOID 0.0000
-2.9542 <s> WAIFU 0.0000
-2.9542 <s> WAS -0.2430
-2.9542 <s> WEARING 0.0000
-2.9542 <s> WEARY 0.0000
-1.9542 <s> WHAT -0.0378
-2.1761 <s> WHY 0.0000
-2.9542 <s> WIAFUS 0.0000
-1.9128 <s> WILL -0.0792
-2.9542 <s> WOLF 0.0000
-2.9542 <s> WOULD 0.0000
-2.2553 <s> WRITING -0.0378
-2.9542 <s> WRITINGS 0.0000
-2.9542 <s> YANDERE -0.1761
-2.9542 <s> YELLOW 0.0000
-2.3522 <s> YOU -0.2869
-2.9542 <s> YOUR -0.2615
-2.9542 <s> YOURSELF -0.1249
-2.2553 <s> YURI -0.1919
-2.9542 <s> ZOMBIES 0.0000
-1.2041 A FICTION -0.1249
-1.2041 A GOODNIGHT -0.1761
-1.2041 A HABIT -0.1761
-1.2041 A HERO -0.2218
-1.2041 A LITTLE -0.1249
-1.2041 A LOT 0.0000
-1.2041 A MURDERER -0.1761
-1.2041 A ROUTE -0.1249
-1.4150 ABOUT CITIZENSHIP</S> 0.0000
-1.1139 ABOUT DEATH -0.1249
-1.4150 ABOUT DEBATE 0.0000
-1.4150 ABOUT FUNERAL -0.1249
-1.1139 ABOUT GOD -0.0969
-1.4150 ABOUT HYPOTHESIS 0.0000
-1.4150 ABOUT LIBITINA 0.0000
-1.4150 ABOUT MIDDLE 0.0000
-1.4150 ABOUT NATSUKI -0.1761
-1.1139 ABOUT RELIGION 0.0000
-0.3010 ACCIDENT </s> -0.3010
-0.6021 ADORE ADORES 0.0000
-0.6021 ADORE YOU -0.2797
-0.3010 ADORES </s> -0.3010
-0.3010 ADVANCEMENTS </s> -0.3010
-0.3010 ADVENTURE ADVENTURING 0.0000
-0.3010 ADVENTURING </s> -0.3010
-0.6021 AGNOSTICISM </s> -0.3010
-0.6021 AGNOSTICISM DISBELIEF -0.1761
-0.3010 ALGERNON </s> -0.3010
-1.3802 AM DYING 0.0000
-1.0792 AM I -0.2910
-1.3802 AM IMPRISONED -0.1761
-1.3802 AM LAZY -0.1249
-1.3802 AM LOVE -0.2946
-1.3802 AM MENTAL 0.0000
-1.3802 AM MISSING -0.2430
-1.3802 AM NOT -0.1761
-1.3802 AM OBSESSE -0.1761
-1.3802 AM SAVING -0.2218
-1.3802 AM YOU -0.2893
-0.3010 ANCIENT MYTHOLOGY 0.0000
-0.3010 AND OLDER -0.0969
-0.3010 ANGRY </s> -0.3010
-0.4771 ANXIETY </s> -0.3010
-0.7782 ANXIETY ANXIOUS 0.0000
-0.3010 ANXIOUS </s> -0.3010
-0.3010 APOLOGIZE APOLOGIZED 0.0000
-0.3010 APOLOGIZED </s> -0.3010
-0.3010 APPRECIATING VISUAL 0.0000
-0.3010 ARCHETYPES UNREALISTIC 0.0000
-1.5798 ARE </s> -0.3010
-1.5798 ARE A -0.2730
-1.1027 ARE AWESOME -0.0300
-1.5798 ARE FOR -0.2730
-1.5798 ARE HE 0.0000
-1.2788 ARE MY -0.2596
-1.5798 ARE OTHER -0.1249
-1.5798 ARE WE -0.1761
-0.9777 ARE YOU -0.2917
-1.1027 ARE YOUR -0.2403
-1.5798 ARE YOURSELF -0.2218
-0.6021 ARGUE </s> -0.3010
-0.6021 ARGUE WITH -0.2341
-0.6021 ARGUING ARGUE -0.1761
-0.6021 ARGUING WITH -0.2688
-0.3010 ASK FOR -0.2730
-0.3010 ATHLETIC </s> -0.3010
-0.3010 AWARE REALIZE 0.0000
-0.3332 AWESOME </s> -0.3010
-1.4472 AWESOME FOR -0.2730
-0.3010 BAKE BAKING 0.0000
-0.3010 BAKING </s> -0.3010
-0.3010 BANK SAVING -0.2218
-1.4150 BE BEING -0.2553
-1.4150 BE CLOSE -0.1761
-1.4150 BE DEAD -0.1761
-1.4150 BE DIFFICULT -0.0669
-1.4150 BE EASY 0.0000
-1.4150 BE GIRLFRIEND -0.2430
-0.8129 BE MY -0.2139
-1.4150 BE SPOOKY 0.0000
-1.4150 BE YOUR -0.2915
-1.4150 BE YOURSELF -0.1249
-0.3010 BEACH </s> -0.3010
-0.6021 BEAUTIFUL </s> -0.3010
-0.6021 BEAUTIFUL EYES -0.1249
-0.3010 BECOMING READER -0.1249
-1.0000 BEING </s> -0.3010
-1.0000 BEING A -0.2730
-1.0000 BEING CLOSEST -0.1761
-1.0000 BEING SCARY -0.1761
-1.0000 BEING YOU -0.2987
-0.6021 BELIEVE IN -0.2218
-0.6021 BELIEVE RELIGION 0.0000
-0.3010 BEST GIRL 0.0000
-0.4771 BIRTHDAY </s> -0.3010
-0.7782 BIRTHDAY MONIKA -0.0817
-0.4260 BOOK </s> -0.3010
-1.0792 BOOK BOOKS -0.0969
-1.3802 BOOK PORTRAIT 0.0000
-0.6021 BOOKS </s> -0.3010
-0.9031 BOOKS ARE -0.2894
-0.9031 BOOKS RECOMMENDATION 0.0000
-0.3010 BORED </s> -0.3010
-0.3010 BREAKING </s> -0.3010
-0.3010 BREAKUP BREAKING 0.0000
-0.7782 BY DAN 0.0000
-0.4771 BY YOU -0.2748
-0.3010 BYE GOODBYE 0.0000
-0.8451 CAN BE -0.2663
-1.1461 CAN I -0.2961
-1.1461 CAN KILL 0.0000
-0.6690 CAN YOU -0.2917
-0.6021 CANT HAVE -0.2808
-0.6021 CANT STOP 0.0000
-0.3010 CAREFUL SAFE -0.1761
-0.3010 CAT CATS 0.0000
-0.4771 CATCHPHRASE </s> -0.3010
-0.7782 CATCHPHRASE OKAY 0.0000
-0.3010 CATS FELINE 0.0000
-0.6021 CHALLENGE CHALLENGES 0.0000
-0.6021 CHALLENGE YOU -0.2748
-0.3010 CHALLENGES </s> -0.3010
-0.3010 CHANGE STYLE 0.0000
-0.9031 CHARACTER </s> -0.3010
-0.9031 CHARACTER ARCHETYPES 0.0000
-0.9031 CHARACTER MC -0.1761
-0.9031 CHARACTER TROPES -0.1761
-0.4771 CHESS </s> -0.3010
-0.7782 CHESS IS -0.2855
-0.3010 CHLOROFORM </s> -0.3010
-0.3010 CITIES CITY 0.0000
-0.3010 CITIZENSHIP CROSSOVER 0.0000
-0.3010 CITIZENSHIP</S> </s> -0.3010
-0.3010 CITY </s> -0.3010
-0.3010 CLASS </s> -0.3010
-0.3010 CLASSICAL MUSIC -0.0969
-0.3010 CLASSROOM </s> -0.3010
-0.3010 CLONE CLONED 0.0000
-0.3010 CLONED CLONES 0.0000
-0.3010 CLONES </s> -0.3010
-0.6021 CLOSE BEING -0.2553
-0.6021 CLOSE TO -0.2919
-0.6021 CLOSEST REAL -0.2218
-0.6021 CLOSEST TO -0.2919
-0.3010 CLOSET CLASSROOM 0.0000
-0.3010 CLOTHES </s> -0.3010
-0.5229 CLUB </s> -0.3010
-1.0000 CLUB ARGUING -0.1761
-1.0000 CLUB IS -0.2612
-0.6021 CODE </s> -0.3010
-0.9031 CODE CODING -0.2430
-0.9031 CODE TECHNIQUE -0.2218
-0.9031 CODING </s> -0.3010
-0.9031 CODING CODE -0.1761
-0.9031 CODING IS -0.2972
-0.9031 CODING TECHNIQUE -0.2218
-0.3010 COFFEE INTAKE 0.0000
-0.3010 COLD WEATHER 0.0000
-0.3010 COLLAGE </s> -0.3010
-0.4771 COLOR </s> -0.3010
-0.7782 COLOR EMERALD -0.1761
-0.3010 COMPLETIONISM COMPLETIST 0.0000
-0.3010 COMPLETIST </s> -0.3010
-0.3010 CONCERN </s> -0.3010
-0.3010 CONCERT </s> -0.3010
-0.3010 CONCERTS CONCERT 0.0000
-0.7782 CONFIDENCE </s> -0.3010
-0.7782 CONFIDENCE CONFIDENT -0.1761
-0.7782 CONFIDENCE LACK -0.1761
-0.6021 CONFIDENT </s> -0.3010
-0.6021 CONFIDENT IS -0.2972
-0.3010 CONTACT </s> -0.3010
-0.3010 CONTENT MATURE 0.0000
-0.6021 CONTRIBUTE CONTRIBUTIONS -0.1761
-0.6021 CONTRIBUTE TO -0.2919
-0.6021 CONTRIBUTIONS </s> -0.3010
-0.6021 CONTRIBUTIONS TO -0.2730
-0.3010 CONVERSATION </s> -0.3010
-0.3010 CREAM </s> -0.3010
-0.6021 CREATE </s> -0.3010
-0.6021 CREATE HABITS 0.0000
-0.3010 CREATIVE TYPE 0.0000
-0.6021 CREDIT CREDITS -0.1761
-0.6021 CREDIT PIANO -0.2430
-0.6021 CREDITS ARE -0.2653
-0.6021 CREDITS SONG -0.2553
-0.3010 CROSSING </s> -0.3010
-0.3010 CROSSOVER CROSSING 0.0000
-0.6021 CUDDLE </s> -0.3010
-0.6021 CUDDLE YOU -0.2748
-0.6021 CUDDLING </s> -0.3010
-0.6021 CUDDLING CUDDLE -0.1761
-0.3010 CUPCAKE CUPCAKES 0.0000
-0.3010 CUPCAKES BAKE 0.0000
-0.3010 DAN SALVATO 0.0000
-0.3010 DATE </s> -0.3010
-0.3010 DATING WHEN -0.1761
-0.3010 DAYDREAM DREAMING -0.1761
-1.1461 DDLC </s> -0.3010
-0.6690 DDLC IS -0.2816
-1.1461 DDLC JAPAN -0.2430
-0.8451 DDLC WAS -0.1761
-0.6021 DEAD </s> -0.3010
-0.6021 DEAD DYING 0.0000
-0.4771 DEATH </s> -0.3010
-1.0792 DEATH DEAD -0.1761
-1.0792 DEATH WAS -0.2430
-0.3010 DEBATE CLUB -0.0792
-0.3010 DEDICATION FITNESS 0.0000
-1.2041 DID HAVE -0.2808
-1.2041 DID I -0.2961
-1.2041 DID TO -0.2730
-0.6021 DID YOU -0.2624
-1.2041 DID YURI -0.2888
-0.3802 DIFFICULT </s> -0.3010
-1.0792 DIFFICULT EASY 0.0000
-0.3010 DILEMMA </s> -0.3010
-0.6021 DISBELIEF </s> -0.3010
-0.6021 DISBELIEF YOU -0.2797
-1.9243 DO DID -0.2730
-1.6232 DO LOVE -0.2539
-1.9243 DO SAYORI -0.1761
-0.3561 DO YOU -0.1971
-1.9243 DO YOUR -0.2915
-0.3010 DOG DOGS 0.0000
-0.3010 DOGS </s> -0.3010
-0.3010 DOING THAT 0.0000
-0.3010 DOKI LITERATURE 0.0000
-0.3010 DOWNLOAD </s> -0.3010
-0.3010 DOWNLOADS DOWNLOAD 0.0000
-0.6021 DRAW </s> -0.3010
-0.6021 DRAW DRAWING 0.0000
-0.3010 DRAWING </s> -0.3010
-0.7782 DREAM </s> -0.3010
-0.7782 DREAM ABOUT -0.2840
-0.7782 DREAM DREAMING -0.1761
-0.6021 DREAMING </s> -0.3010
-0.6021 DREAMING DREAM -0.2218
-0.4771 DRINK </s> -0.3010
-0.7782 DRINK WINE -0.2218
-0.7782 DRINKING DRINK -0.1249
-0.7782 DRINKING SODA 0.0000
-0.7782 DRINKING WINE -0.2218
-0.3010 DUNBAR NUMBER 0.0000
-0.3010 DYING </s> -0.3010
-0.3010 EARTH </s> -0.3010
-0.3010 EASY </s> -0.3010
-0.3010 EDUCATION COLLAGE 0.0000
-0.3010 EIGHTY FOUR 0.0000
-0.3010 ELSE HAPPY -0.1249
-0.6021 EMBARRASSING </s> -0.3010
-0.6021 EMBARRASSING TO -0.2919
-0.6021 EMERALD </s> -0.3010
-0.6021 EMERALD COLOR -0.1249
-0.3010 EMERLAD IS -0.2933
-0.3010 ENGAGEMENT RING 0.0000
-0.3010 ETERNAL </s> -0.3010
-0.3010 ETERNITY MORTALITY 0.0000
-0.3010 EVENING </s> -0.3010
-0.6021 EVERYONE </s> -0.3010
-0.6021 EVERYONE YOUR -0.2817
-0.3010 EXPERIMENTS PROBLEM 0.0000
-0.3010 EXPLAIN RELATIONSHIP 0.0000
-0.3010 EYE EYES -0.2218
-0.4771 EYES </s> -0.3010
-0.7782 EYES CONTACT 0.0000
-0.3010 FACE YOUR -0.2915
-0.3010 FACTS </s> -0.3010
-0.6021 FAKE CONFIDENCE -0.2218
-0.6021 FAKE FAKING -0.1761
-0.6021 FAKING </s> -0.3010
-0.6021 FAKING CONFIDENCE -0.2218
-0.3979 FAMILY </s> -0.3010
-1.0000 FAMILY GATHERING</S> 0.0000
-0.6021 FANART IMAGES -0.1761
-0.6021 FANART OF -0.1761
-0.3010 FANFICTION </s> -0.3010
-0.3010 FANTASIES </s> -0.3010
-0.3010 FAP FAPPING 0.0000
-0.3010 FAPPING MASTURBATE 0.0000
-0.3010 FASTFOOD UNHEALTHY 0.0000
-0.8239 FAVORITE BOOK -0.0969
-1.0000 FAVORITE COLOR 0.0000
-1.3010 FAVORITE GAME -0.1047
-1.0000 FAVORITE POEM 0.0000
-1.0000 FAVORITE VIDEO -0.2041
-1.4150 FEEL ANGRY 0.0000
-1.4150 FEEL ANXIOUS 0.0000
-1.4150 FEEL BORED 0.0000
-1.4150 FEEL HUNGRY 0.0000
-1.4150 FEEL INADEQUATE 0.0000
-1.4150 FEEL LONELY 0.0000
-1.4150 FEEL LUCKY 0.0000
-1.4150 FEEL LUCKY. 0.0000
-1.4150 FEEL PROUD 0.0000
-1.4150 FEEL SAD 0.0000
-1.4150 FEEL SICK -0.0969
-1.4150 FEEL TIRED -0.1249
-1.4150 FEEL YEAR 0.0000
-0.3010 FEELING </s> -0.3010
-0.3010 FELINE </s> -0.3010
-0.7782 FELL ANXIETY -0.1249
-0.7782 FELL ANXIOUS 0.0000
-0.7782 FELL SUDDEN 0.0000
-0.3010 FESTIVAL </s> -0.3010
-0.4771 FICTION </s> -0.3010
-0.7782 FICTION IS -0.2933
-0.6021 FIFTH FIVE 0.0000
-0.6021 FIFTH WRITING -0.0378
-0.3010 FIRST ONE -0.2218
-0.6021 FIT </s> -0.3010
-0.6021 FIT PLURALISTIC 0.0000
-0.3010 FITNESS FIT -0.1761
-0.3010 FIVE </s> -0.3010
-0.3010 FLOWERS ALGERNON 0.0000
-0.6021 FOOD </s> -0.3010
-0.6021 FOOD FOODS 0.0000
-0.3010 FOODS </s> -0.3001
-1.2041 FOR CUDDLING -0.1761
-1.2041 FOR INTELLIGENT -0.1761
-1.2041 FOR KISS -0.2218
-1.2041 FOR ME -0.2126
-1.2041 FOR MONIKA -0.0817
-1.2041 FOR WORK -0.1761
-0.9031 FOR YOU -0.2724
-0.6021 FORM A -0.2730
-0.6021 FORM HABIT -0.1761
-0.6021 FORMING FORM -0.1761
-0.6021 FORMING HABITS 0.0000
-0.3010 FOUR </s> -0.3010
-0.9031 FOURCHAN </s> -0.3010
-0.9031 FOURCHAN HAVE -0.2808
-0.9031 FOURCHAN INTERNET -0.2430
-0.9031 FOURCHAN IS -0.2855
-0.6021 FOURTH FOUR 0.0000
-0.6021 FOURTH WRITING -0.0378
-0.9031 FREE MONIKA -0.0817
-0.4260 FREE WILL -0.2553
-0.3010 FREINDS </s> -0.3010
-0.6021 FRIEND </s> -0.3010
-0.9031 FRIEND FRIENDS -0.2218
-0.9031 FRIEND INTRODUCING -0.2218
-0.7782 FRIENDS </s> -0.3010
-0.7782 FRIENDS FRIEND -0.2430
-0.7782 FRIENDS PEOPLE -0.1249
-0.3010 FRIST WRITING -0.0378
-0.3010 FRUIT FRUITS 0.0000
-0.3010 FRUITS </s> -0.3010
-0.3010 FUN FACTS 0.0000
-0.4771 FUNCTIONALISM </s> -0.3010
-0.7782 FUNCTIONALISM IS -0.2933
-0.7782 FUNERAL IS -0.2972
-0.4771 FUNERAL PROCESSION 0.0000
-0.4393 GAME </s> -0.3010
-1.3424 GAME ARE -0.2653
-1.3424 GAME ROMANCE -0.2218
-1.3424 GAME VIDYA -0.2218
-0.6021 GAMES CAN -0.2341
-0.6021 GAMES GAME -0.0726
-0.3010 GATHERING FAMILY -0.0792
-0.3010 GATHERING</S> </s> -0.3010
-0.6021 GENRE </s> -0.3010
-0.6021 GENRE SCARY -0.1761
-0.3010 GET YURI -0.2632
-0.3010 GHOST SUPERNATURAL 0.0000
-0.3010 GIRL </s> -0.3010
-0.4260 GIRLFRIEND </s> -0.3010
-0.9031 GIRLFRIEND WIAFU 0.0000
-0.7782 GIRLS </s> -0.3010
-1.0792 GIRLS CHARACTER -0.2430
-1.0792 GIRLS LIKE -0.2632
-1.0792 GIRLS SAYORI -0.2553
-1.0792 GIRLS THINK 0.0000
-0.3010 GO TO -0.2919
-0.4260 GOD </s> -0.3010
-0.9031 GOD THOUGHTS -0.2218
-0.3010 GOING TO -0.2919
-0.6990 GOOD </s> -0.3010
-1.0000 GOOD CONVERSATION 0.0000
-0.6990 GOOD LISTENER 0.0000
-0.9031 GOODBYE CLASS 0.0000
-0.9031 GOODBYE SLEEP -0.2218
-0.9031 GOODBYE WHILE 0.0000
-0.9031 GOODBYE WORK -0.1761
-0.6021 GOODNIGHT </s> -0.3010
-0.6021 GOODNIGHT MONIKA -0.0817
-0.6021 HABIT </s> -0.3010
-0.6021 HABIT HABITS 0.0000
-0.3010 HABITS </s> -0.3010
-0.3010 HACK HACKER 0.0000
-0.3010 HACKER HACKING 0.0000
-0.3010 HACKING </s> -0.3010
-0.6021 HAD </s> -0.3010
-0.6021 HAD HAS -0.1761
-0.7782 HAIR </s> -0.3010
-0.4771 HAIR CHANGE 0.0000
-0.3010 HAMLET </s> -0.3010
-0.3010 HANGMAN </s> -0.3010
-0.3010 HAPPINESS </s> -0.3010
-0.4771 HAPPY BIRTHDAY 0.0000
-0.7782 HAPPY HAPPINESS 0.0000
-0.3010 HAREM FANTASIES 0.0000
-0.3010 HARM HARMING 0.0000
-0.3010 HARMING HURT 0.0000
-0.6021 HAS BE -0.2840
-0.6021 HAS HAD -0.1761
-0.6021 HATE FOURCHAN -0.2430
-0.6021 HATE HATER 0.0000
-0.3010 HATER HATERS 0.0000
-0.3010 HATERS </s> -0.3010
-0.3010 HATSUNE MIKU 0.0000
-0.8653 HAVE A -0.2109
-1.0414 HAVE FREE -0.0969
-1.3424 HAVE GOOD -0.2553
-1.3424 HAVE HAD -0.1761
-1.3424 HAVE HAS -0.1761
-1.3424 HAVE HATERS 0.0000
-1.3424 HAVE OLDER -0.0969
-1.3424 HAVE WAIFUS 0.0000
-0.3010 HE SHE 0.0000
-0.6021 HEARD ABOUT -0.2840
-0.6021 HEARD LIBITINA 0.0000
-0.3010 HEDGEHOG DILEMMA 0.0000
-0.3010 HENTAI </s> -0.3010
-0.3010 HER FRIENDS -0.2218
-0.4771 HERO </s> -0.3010
-0.7782 HERO FOR -0.2430
-0.6021 HEROISM HERO -0.1249
-0.6021 HEROISM IS -0.2612
-0.3010 HIGH SCHOOL -0.1461
-0.4771 HIGHER EDUCATION 0.0000
-0.7782 HIGHER PROGRAMMING -0.2218
-0.3010 HOME </s> -0.3010
-0.3010 HORROR GENRE 0.0000
-0.3010 HOUSEWIFE </s> -0.3010
-1.0000 HOW AM -0.2632
-1.0000 HOW DO -0.0488
-0.5229 HOW TO -0.2730
-0.3010 HUNDRED THOUSAND 0.0000
-0.3010 HUNGRY </s> -0.3010
-0.3010 HURT </s> -0.3010
-0.3010 HYDRATION WATER 0.0000
-0.3010 HYDRATION</S> </s> -0.3010
-0.3010 HYGIENE PERSONAL 0.0000
-0.3010 HYPNOSIS </s> -0.3010
-0.3010 HYPNOTIZED HYPNOSIS 0.0000
-0.3010 HYPOTHESIS SIMULATED 0.0000
-1.9445 I ADORE -0.1761
-0.9445 I AM -0.0669
-1.9445 I CANT -0.1761
-1.9445 I CHALLENGE -0.1761
-1.9445 I DISBELIEF -0.1761
-1.9445 I DO -0.2906
-1.9445 I FEEL -0.2840
-1.4674 I FELL 0.0000
-1.9445 I FORMING -0.1761
-1.9445 I GET 0.0000
-1.9445 I GOOD -0.2041
-1.9445 I HAVE -0.2596
-1.6435 I LIKE -0.1761
-1.9445 I LONE 0.0000
-0.9031 I LOVE -0.2167
-1.9445 I MADE 0.0000
-1.9445 I SAVE -0.2218
-1.2455 I WANT -0.0512
-0.3010 ICE CREAM 0.0000
-0.3010 ICECREAM ICE 0.0000
-0.3010 IGNORANCE </s> -0.3010
-0.6021 IMAGES </s> -0.3010
-0.6021 IMAGES OF -0.1761
-0.3010 IMMORTAL IMMORTALITY 0.0000
-0.3010 IMMORTALITY </s> -0.3010
-0.3010 IMPRESSION </s> -0.3010
-0.6021 IMPRISONED BY -0.1249
-0.6021 IMPRISONED PRISONER -0.1761
-0.7782 IN GOD -0.0969
-0.4771 IN JAPAN -0.0969
-0.3010 INADEQUATE </s> -0.3010
-0.3010 INNOVATION </s> -0.3010
-0.3010 INTAKE </s> -0.3010
-0.6021 INTELLIGENT </s> -0.3010
-0.6021 INTELLIGENT PEOPLE -0.1249
-0.9031 INTERNET </s> -0.3010
-0.9031 INTERNET HATE -0.1761
-0.9031 INTERNET PRISON -0.1249
-0.9031 INTERNET SOCIAL 0.0000
-0.7782 INTRODUCING </s> -0.3010
-0.7782 INTRODUCING TO -0.2919
-0.7782 INTRODUCING YOU -0.2964
-1.0569 IS AWESOME 0.0000
-1.4548 IS DIFFICULT -0.0669
-2.0569 IS ETERNAL 0.0000
-2.0569 IS FAKING -0.1761
-2.0569 IS FUNCTIONALISM -0.1249
-1.7559 IS GOOD -0.2041
-2.0569 IS HIGHER -0.2218
-2.0569 IS INTERNET -0.2430
-2.0569 IS IT -0.2218
-2.0569 IS JAPAN -0.0969
-2.0569 IS LIBITINA 0.0000
-2.0569 IS MAIN 0.0000
-1.7559 IS METAFICTIONAL -0.1249
-1.7559 IS MY -0.2596
-2.0569 IS NATSUKI -0.2632
-2.0569 IS NATURE 0.0000
-2.0569 IS OBSESSED -0.1761
-2.0569 IS OKAY 0.0000
-2.0569 IS PLACEMENT -0.2218
-2.0569 IS PRISON -0.2218
-2.0569 IS SICK -0.0969
-2.0569 IS SUPER 0.0000
-2.0569 IS THEY 0.0000
-1.3579 IS THIS -0.1383
-2.0569 IS TORMENT -0.2218
-1.7559 IS VIRTUAL 0.0000
-1.1538 IS YOUR -0.1946
-1.5798 IS YURI -0.2218
-0.7782 IT EMBARRASSING -0.1761
-0.4771 IT IS -0.2855
-0.4260 JAPAN </s> -0.3001
-0.9031 JAPAN PLACEMENT -0.2218
-0.3010 JAPANESE SPEAKING 0.0000
-0.3010 JAZZ </s> -0.3010
-0.3010 JUSTIFICATION MURDER 0.0000
-0.3010 KILL YOU -0.2797
-0.4771 KISS ME -0.2775
-0.7782 KISS MONIKA -0.0817
-0.9031 KNOW CODE -0.2430
-0.9031 KNOW HEDGEHOG 0.0000
-0.9031 KNOW HOW -0.1461
-0.9031 KNOW TROLLEY 0.0000
-0.6021 LACK </s> -0.3010
-0.6021 LACK MOTIVATION 0.0000
-0.3010 LANGUAGE </s> -0.3010
-0.3010 LAST POEM 0.0000
-0.6021 LAZINESS </s> -0.3010
-0.6021 LAZINESS CAN -0.2688
-0.4771 LAZY </s> -0.3010
-0.7782 LAZY LAZINESS -0.1761
-1.4150 LETS HAVE -0.2808
-0.7160 LETS PLAY -0.0969
-1.4150 LETS READ -0.2041
-0.6368 LETS TALK 0.0000
-0.3010 LIBITINA </s> -0.3010
-0.3010 LIFE </s> -0.3010
-0.7782 LIKE BEING -0.2041
-1.0792 LIKE HIGH 0.0000
-1.0792 LIKE SAYORI -0.2553
-1.0792 LIKE SOUNDS -0.1761
-1.0792 LIKE TO -0.2730
-0.3010 LILMONIX </s> -0.3010
-0.9031 LINGER NATSUKI -0.2218
-0.9031 LINGER OTHER -0.1249
-0.9031 LINGER SAYORI -0.1761
-0.9031 LINGER YURI -0.2499
-0.6021 LINGERING LINGER -0.2430
-0.6021 LINGERING OTHER -0.1249
-0.6021 LISTENER </s> -0.3010
-0.6021 LISTENER CONVERSATION 0.0000
-0.3010 LITEN TO -0.2919
-0.3010 LITERATURE CLUB -0.0792
-0.7782 LITTLE AND 0.0000
-0.4771 LITTLE SISTER 0.0000
-0.3010 LIVING WAITING 0.0000
-0.3010 LONE YOUR -0.2915
-0.3010 LONELY </s> -0.3010
-0.3010 LOT </s> -0.3010
-0.3010 LOTTERY LUCK 0.0000
-1.5315 LOVE </s> -0.3010
-1.8325 LOVE BOOK -0.0969
-1.8325 LOVE DOKI 0.0000
-1.8325 LOVE EARTH 0.0000
-1.8325 LOVE EMERALD -0.1761
-1.8325 LOVE EYES -0.1249
-1.8325 LOVE FAMILY -0.2553
-1.8325 LOVE FOODS 0.0000
-1.8325 LOVE FOR -0.2430
-1.8325 LOVE HAIR -0.2218
-1.8325 LOVE HIGHER -0.1249
-1.8325 LOVE INTRODUCING -0.2218
-1.8325 LOVE LOVING -0.1761
-1.3554 LOVE ME -0.2126
-1.8325 LOVE MEAT -0.1761
-1.5315 LOVE MY -0.2596
-1.8325 LOVE NATURE 0.0000
-1.8325 LOVE OTHER -0.1249
-1.8325 LOVE POETRY -0.1249
-1.8325 LOVE PORTRAIT 0.0000
-1.8325 LOVE PRISONER -0.1761
-1.8325 LOVE RELAXING 0.0000
-1.8325 LOVE SOUND -0.1761
-1.8325 LOVE SPICY 0.0000
-1.8325 LOVE WHEN -0.1761
-1.2304 LOVE YOU -0.2496
-1.8325 LOVE YOUR -0.2615
-0.7782 LOVES BOOKS -0.1761
-0.7782 LOVES HORROR 0.0000
-0.7782 LOVES YOU -0.2797
-0.6021 LOVING TRUE -0.2218
-0.6021 LOVING YOU -0.2797
-0.3010 LUCK WINNINGS 0.0000
-0.3010 LUCKY </s> -0.3010
-0.3010 LUCKY. FREE -0.2430
-0.3010 MADE FANART -0.1761
-0.3010 MAIN CHARACTER -0.1761
-0.7782 MAKE BY -0.2218
-0.7782 MAKE FREINDS 0.0000
-0.7782 MAKE ME -0.2894
-0.3010 MAKING FRIEND -0.0969
-0.7782 MANGA </s> -0.3010
-0.7782 MANGA MONIKA -0.0817
-0.7782 MANGA READ -0.2553
-0.7782 MARKOV </s> -0.3010
-0.7782 MARKOV BOOK -0.0969
-0.7782 MARKOV IS -0.2894
-0.3010 MARRIAGE MARRY 0.0000
-0.3010 MARRY </s> -0.3010
-0.3010 MASTURBATE </s> -0.3010
-0.3010 MATURE PORN 0.0000
-0.6021 MC </s> -0.3010
-0.6021 MC IS -0.2972
-0.7347 ME </s> -0.3010
-1.2788 ME ABOUT -0.2663
-1.5798 ME EMBARRASSING -0.1761
-1.5798 ME FIFTH -0.1761
-1.5798 ME FOURTH -0.1761
-1.5798 ME FRIST 0.0000
-1.2788 ME HOW -0.0792
-1.5798 ME MONIKA -0.0817
-1.5798 ME READER -0.2218
-1.5798 ME SECOND -0.1761
-1.5798 ME THIRD -0.1761
-0.6021 MEAT </s> -0.3010
-0.6021 MEAT VEGAN -0.1761
-0.6021 MEDIA IS -0.2972
-0.6021 MEDIA PRISON -0.1249
-0.3010 MEDITATING </s> -0.3010
-0.3010 MEDITATION MEDITATING 0.0000
-0.3010 MEMORIES MEMORY 0.0000
-0.3010 MEMORY HOME 0.0000
-0.3010 MENTAL SICK 0.0000
-0.3010 MESSAGE </s> -0.3010
-0.4771 METAFICTIONAL </s> -0.3010
-0.7782 METAFICTIONAL FICTION -0.1249
-0.3010 MIDDLE SCHOOL -0.2041
-0.3010 MIKU </s> -0.3010
-0.6021 MISS MISSING -0.2430
-0.6021 MISS YOUR -0.2915
-0.9031 MISSING FAMILY -0.0792
-0.6021 MISSING FESTIVAL 0.0000
-0.9031 MISSING YOU -0.2748
-0.3010 MONEY </s> -0.3010
-0.4017 MONIKA </s> -0.3010
-1.7634 MONIKA BE -0.2285
-1.7634 MONIKA LOVE -0.2946
-1.4624 MONIKA LOVES -0.1249
-1.7634 MONIKA ROUTE -0.2218
-1.7634 MONIKA WILL -0.0792
-0.3010 MONIKA</S> </s> -0.3010
-0.3010 MORNING </s> -0.3010
-0.3010 MORTALITY </s> -0.3010
-0.3010 MOTIVATION </s> -0.3010
-0.6021 MURDER </s> -0.3010
-0.6021 MURDER MURDERER -0.1761
-0.6021 MURDERER </s> -0.3010
-0.6021 MURDERER MONIKA</S> 0.0000
-0.4260 MUSIC </s> -0.3010
-0.9031 MUSIC CONCERTS 0.0000
-1.3424 MY CREDIT -0.1761
-1.3424 MY DRAWING 0.0000
-1.0414 MY FAVORITE -0.1761
-1.0414 MY GIRLFRIEND -0.0969
-1.3424 MY HOUSEWIFE 0.0000
-1.3424 MY LOVE -0.2946
-1.3424 MY ONE -0.2218
-1.3424 MY TRUE -0.1249
-1.3424 MY WIAFU 0.0000
-0.3010 MYTHOLOGY </s> -0.3010
-0.3010 NAME </s> -0.3010
-0.7782 NATSUKI </s> -0.3010
-0.6021 NATSUKI DEATH -0.0669
-1.0792 NATSUKI TSUNDERE -0.1761
-0.3010 NATURE </s> -0.3010
-0.6990 NATUSKI </s> -0.3010
-1.0000 NATUSKI OR -0.1761
-1.0000 NATUSKI WITH -0.2688
-1.0000 NATUSKI YURI -0.2499
-0.6021 NEAR </s> -0.3010
-0.6021 NEAR REAL -0.2218
-0.6021 NIHILISM AGNOSTICISM -0.1761
-0.6021 NIHILISM IS -0.2933
-0.3010 NINETY EIGHTY 0.0000
-0.6021 NOT GOING 0.0000
-0.6021 NOT SAFE -0.1761
-0.6021 NOVEL </s> -0.3010
-0.7782 NOVEL IS -0.2612
-1.0792 NOVEL VN -0.1761
-0.6021 NOVELS </s> -0.3010
-0.6021 NOVELS NOVEL -0.1761
-0.3010 NSFW NOT -0.1761
-0.3010 NUCLEAR WAR 0.0000
-0.3010 NUMBER </s> -0.3010
-0.6021 OBSESSE </s> -0.3010
-0.6021 OBSESSE BY -0.1249
-0.6021 OBSESSED OBSESSE -0.1761
-0.6021 OBSESSED WITH -0.2341
-1.0792 OF OTHER -0.1249
-1.0792 OF RAIN -0.1761
-1.0792 OF RAINING 0.0000
-0.6021 OF YOU -0.2748
-0.3010 OKAY EVERYONE 0.0000
-0.9031 OLDER </s> -0.3010
-0.4260 OLDER SISTER 0.0000
-0.3010 OMAMORI </s> -0.3010
-0.7782 ONE </s> -0.3010
-0.7782 ONE HUNDRED 0.0000
-0.7782 ONE TRUE -0.1249
-0.6021 OR VEGAN -0.1761
-0.6021 OR YURI -0.2499
-0.3010 ORCHESTRA CLASSICAL 0.0000
-0.3010 OTAKU </s> -0.3010
-0.9542 OTHER CLOTHES 0.0000
-1.2553 OTHER GAMES -0.1761
-0.4771 OTHER GIRLS 0.0000
-0.3010 OUR REALITY -0.1761
-0.3010 PANTIES UNDERGARMENT 0.0000
-0.3010 PARENT PARENTS 0.0000
-0.3010 PARENTS </s> -0.3010
-0.3010 PEN NAME 0.0000
-0.4771 PEOPLE </s> -0.3010
-0.7782 PEOPLE MAKING 0.0000
-0.3010 PERSONAL </s> -0.3010
-0.3010 PET PETS 0.0000
-0.3010 PETS </s> -0.3010
-0.6021 PIANO </s> -0.3010
-0.9031 PIANO IS -0.2855
-0.9031 PIANO SONG -0.0792
-0.3010 PIGGY BANK 0.0000
-0.7782 PLACEMENT </s> -0.3010
-0.7782 PLACEMENT IN -0.1249
-0.7782 PLACEMENT IS -0.2972
-1.2041 PLAY CHESS -0.1249
-1.2041 PLAY GAME -0.2808
-1.2041 PLAY HANGMAN 0.0000
-0.9031 PLAY PIANO -0.0969
-1.2041 PLAY PONG -0.1761
-1.2041 PLAY ROMANCE -0.1249
-1.2041 PLAY VIDYA -0.1249
-0.3010 PLEASE APPRECIATING 0.0000
-0.3010 PLEASURE FAP 0.0000
-0.3010 PLURALISTIC IGNORANCE 0.0000
-0.3010 POEM </s> -0.3010
-0.4771 POETRY </s> -0.3010
-0.7782 POETRY IS -0.2855
-0.6021 PONG </s> -0.3010
-0.6021 PONG FEELING 0.0000
-0.3010 PONYTAIL </s> -0.3010
-0.3010 PORN HENTAI 0.0000
-0.3010 PORTRAIT MARKOV 0.0000
-0.4771 PRISON </s> -0.3010
-0.7782 PRISON FOR -0.2730
-0.6021 PRISONER </s> -0.3010
-0.6021 PRISONER OF -0.1761
-0.3010 PROBLEM </s> -0.3010
-0.3010 PROCESSION </s> -0.3010
-0.7782 PROGRAMMING </s> -0.3010
-0.7782 PROGRAMMING CODING -0.2430
-0.7782 PROGRAMMING IS -0.2612
-0.3010 PROM FESTIVAL 0.0000
-0.3010 PROUD </s> -0.3010
-0.6021 RAIN </s> -0.3010
-0.6021 RAIN RAINING 0.0000
-0.3010 RAINING </s> -0.3010
-0.3010 RAP MUSIC -0.0969
-1.0000 READ </s> -0.3010
-0.6990 READ BOOK -0.0969
-0.6990 READ MANGA -0.1249
-0.7782 READER FOR -0.2730
-0.7782 READER READ -0.2041
-0.7782 READER WHO 0.0000
-0.7782 REAL ME -0.2126
-0.7782 REAL NEAR -0.1761
-0.7782 REAL OUR 0.0000
-0.6021 REALITY </s> -0.3010
-1.2041 REALITY IS -0.2694
-1.2041 REALITY PIANO -0.1761
-0.9031 REALITY SONG -0.0792
-0.3010 REALIZE </s> -0.3010
-0.3010 RECOMMENDATION RECOMMENDATIONS 0.0000
-0.3010 RECOMMENDATIONS </s> -0.3010
-0.6021 REGRET </s> -0.3010
-0.6021 REGRET WHAT -0.2808
-0.6021 REGRETS DOING 0.0000
-0.6021 REGRETS REGRET -0.1761
-0.3010 RELATIONSHIP </s> -0.3010
-0.3010 RELAXING DRINKING -0.1249
-0.3010 RELIGION </s> -0.3010
-0.3010 RESOURCE VALUABLE 0.0000
-0.3010 RESOURCES RESOURCE 0.0000
-0.3010 RIBBON </s> -0.3010
-0.3010 RING WEDDING 0.0000
-0.3010 ROAD TRIP 0.0000
-0.3010 ROCK ROLL 0.0000
-0.3010 ROLL </s> -0.3010
-0.7782 ROMANCE </s> -0.3010
-0.4771 ROMANCE GAME -0.1047
-0.3010 ROMANTIC DATE 0.0000
-0.4771 ROUTE </s> -0.3010
-0.7782 ROUTE IS -0.2612
-0.3010 SAD </s> -0.3010
-0.6021 SAFE ACCIDENT 0.0000
-0.6021 SAFE FOR -0.2730
-0.4771 SALVATO </s> -0.3010
-0.7782 SALVATO IS -0.2612
-0.7782 SAVE MONEY 0.0000
-0.7782 SAVE SAVING -0.2218
-0.7782 SAVE YOUR -0.2915
-0.7782 SAVING LIFE 0.0000
-0.7782 SAVING SAVE -0.2218
-0.7782 SAVING YOU -0.2797
-0.6021 SAYORI </s> -0.3010
-1.0000 SAYORI NATUSKI -0.2041
-1.3010 SAYORI REGRETS -0.1761
-1.3010 SAYORI WITH -0.2688
-1.3010 SAYORI YURI -0.2888
-0.6021 SCARY </s> -0.3010
-0.6021 SCARY SPOOKY 0.0000
-0.6990 SCHOOL </s> -0.3010
-1.0000 SCHOOL IS -0.2612
-0.6990 SCHOOL LIFE 0.0000
-0.3010 SCIENCE ADVANCEMENTS 0.0000
-0.6021 SECOND </s> -0.3010
-0.6021 SECOND WRITING -0.0378
-0.3010 SEE IMAGES -0.1761
-0.3010 SELFHARM HARM 0.0000
-0.3010 SET </s> -0.3010
-0.6021 SETTING DDLC -0.2688
-0.6021 SETTING IN -0.1249
-0.3010 SHE IT -0.1249
-0.7782 SHIP NATUSKI -0.2553
-0.7782 SHIP SAYORI -0.2788
-0.7782 SHIP YURI -0.2888
-0.3010 SHIPPING SHIPS 0.0000
-0.3010 SHIPS </s> -0.3010
-0.4260 SICK </s> -0.3010
-0.9031 SICK SICKNESS -0.1761
-0.6021 SICKNESS </s> -0.3010
-0.6021 SICKNESS IS -0.2972
-0.3010 SIMULATED REALITY -0.1761
-0.3010 SISTER </s> -0.3010
-0.7782 SLEEP CONCERN 0.0000
-0.7782 SLEEP GOODNIGHT -0.1761
-0.7782 SLEEP SLEEPING 0.0000
-0.3010 SLEEPING TIRED -0.2218
-0.6021 SMASH GAME -0.1047
-0.6021 SMASH YOUR -0.2615
-0.3010 SMILE </s> -0.3010
-0.3010 SMOKE SMOKING 0.0000
-0.3010 SMOKING </s> -0.3010
-0.3010 SOCIAL MEDIA 0.0000
-0.3010 SODA DRINK -0.1249
-0.3010 SOMEONE ELSE 0.0000
-0.3010 SOMEWHERE </s> -0.3010
-0.3979 SONG </s> -0.3010
-1.0000 SONG YOUR -0.2615
-0.3010 SORRY APOLOGIZE 0.0000
-0.6021 SOUND OF -0.2632
-0.6021 SOUND SOUNDS -0.1761
-0.6021 SOUNDS OF -0.2632
-0.6021 SOUNDS RAIN -0.1761
-0.3010 SPEAKING LANGUAGE 0.0000
-0.3010 SPICY FOOD 0.0000
-0.3010 SPIDER </s> -0.3010
-0.3010 SPIDERS SPIDER 0.0000
-0.3010 SPOOKY </s> -0.3010
-0.3010 SPORT ATHLETIC 0.0000
-0.3010 SPORTS SPORT 0.0000
-0.3010 STOP LOVING -0.1761
-0.3010 STRAIGHT </s> -0.3010
-0.6021 STYLE PONYTAIL 0.0000
-0.6021 STYLE STRAIGHT 0.0000
-0.3010 SUDDEN ANXIETY 0.0000
-0.3010 SUPER SMASH 0.0000
-0.3010 SUPERNATURAL </s> -0.3010
-0.3010 SURPRISE SURPRISES 0.0000
-0.3010 SURPRISES </s> -0.3010
-0.3010 SWORD </s> -0.3010
-0.3010 SWORDSMANSHIP SWORD 0.0000
-0.6021 TAKE SOMEWHERE 0.0000
-0.6021 TAKE YOU -0.2964
-0.3010 TALK ABOUT -0.1165
-0.3010 TEA SET 0.0000
-0.7782 TECHNIQUE </s> -0.3010
-0.7782 TECHNIQUE ARE -0.2653
-0.7782 TECHNIQUE CODE -0.2430
-0.3010 TELL ME -0.1836
-0.3010 THAT TO -0.2730
-0.3010 THEY YOU -0.2987
-0.3010 THINK </s> -0.3010
-0.6021 THIRD </s> -0.3010
-0.6021 THIRD WRITING -0.0378
-1.2041 THIS A -0.2730
-1.2041 THIS FICTION -0.2218
-1.2041 THIS IS -0.2933
-1.2041 THIS NOVEL -0.2218
-1.2041 THIS REALITY -0.1761
-1.2041 THIS ROMANCE -0.1249
-1.2041 THIS SETTING -0.1761
-1.2041 THIS YOUR -0.2915
-0.4771 THOUGHTS ABOUT -0.2285
-0.7782 THOUGHTS BELIEVE -0.1761
-0.3010 THOUSAND DOWNLOADS 0.0000
-0.3010 THREE THIRD -0.1761
-0.6021 TIP </s> -0.3010
-1.3010 TIP FIFTH -0.1761
-1.3010 TIP FIRST 0.0000
-1.3010 TIP FOURTH -0.1761
-1.3010 TIP THREE 0.0000
-1.3010 TIP TWO 0.0000
-0.3010 TIRE </s> -0.3010
-0.4771 TIRED </s> -0.3010
-0.7782 TIRED TIRE 0.0000
-1.6812 TO ARGUING -0.1761
-1.6812 TO ASK 0.0000
-1.2041 TO BE -0.2478
-1.6812 TO CODE -0.1761
-1.6812 TO COLLAGE 0.0000
-1.6812 TO CUDDLE -0.1761
-1.6812 TO DDLC -0.2688
-1.6812 TO FAKE -0.1761
-1.6812 TO FORM -0.1761
-1.6812 TO FRIEND -0.1761
-1.6812 TO HER 0.0000
-1.6812 TO MAKE -0.2218
-1.6812 TO NEAR -0.1761
-1.6812 TO RAP 0.0000
-1.6812 TO ROMANTIC 0.0000
-1.2041 TO SAYORI -0.1461
-1.6812 TO TAKE -0.1761
-1.6812 TO TALK 0.0000
-1.6812 TO WEARING 0.0000
-1.6812 TO YOU -0.2797
-0.3010 TOGETHER LIVING 0.0000
-0.7782 TORMENT </s> -0.3010
-0.7782 TORMENT IS -0.2972
-0.7782 TORMENT NATURE 0.0000
-0.6021 TOTONO </s> -0.3010
-0.6021 TOTONO IS -0.2612
-0.3010 TRIP </s> -0.3010
-0.3010 TROLLEY EXPERIMENTS 0.0000
-0.6021 TROPES ARCHETYPES 0.0000
-0.6021 TROPES OF -0.2632
-0.7782 TRUE </s> -0.3010
-0.4771 TRUE LOVE -0.2881
-0.6021 TSUNDERE </s> -0.3010
-0.6021 TSUNDERE NATUSKI -0.2041
-0.3010 TWITTER LILMONIX 0.0000
-0.3010 TWO SECOND -0.1761
-0.6021 TYPE MONIKA -0.0817
-0.6021 TYPE TYPES 0.0000
-0.3010 TYPES CREATE -0.1761
-0.3010 UNDEAD </s> -0.3010
-0.3010 UNDERGARMENT </s> -0.3010
-0.3010 UNDERGARMENTS PANTIES 0.0000
-0.3010 UNHEALTHY </s> -0.3010
-0.3010 UNREALISTIC </s> -0.3010
-0.3010 URGENT MESSAGE 0.0000
-0.3010 VALUABLE </s> -0.3010
-0.6021 VEGAN </s> -0.3010
-0.6021 VEGAN EARTH 0.0000
-0.6021 VEGETARIAN MEAT -0.1761
-0.6021 VEGETARIAN OR -0.1761
-0.6990 VIDEO GAME -0.1047
-0.5229 VIDEO GAMES 0.0000
-0.7782 VIDYA </s> -0.3010
-0.4771 VIDYA GAME -0.0726
-0.3010 VIRTUAL NOVEL 0.0000
-0.3010 VISUAL NOVELS 0.0000
-0.6021 VN </s> -0.3010
-0.6021 VN IS -0.2933
-0.3010 VOCALOID HATSUNE 0.0000
-0.3010 WAIFU WAIFUS 0.0000
-0.3010 WAIFUS </s> -0.3010
-0.3010 WAITING </s> -0.3010
-0.3010 WALLPAPER </s> -0.3010
-1.2041 WANT BEING -0.2553
-0.3590 WANT TO -0.2218
-0.3010 WAR WARFARE 0.0000
-0.3010 WARFARE </s> -0.3010
-0.9031 WAS EASY 0.0000
-0.9031 WAS MAKE -0.2218
-0.9031 WAS SAD 0.0000
-0.9031 WAS WERE 0.0000
-0.3010 WATER </s> -0.3010
-0.6021 WE ARE -0.2894
-0.6021 WE MISSING -0.1761
-0.3010 WEARING OTHER -0.2499
-0.3010 WEARY TIRED -0.1249
-0.6021 WEATHER CUDDLING -0.1761
-0.6021 WEATHER IS -0.2612
-0.3010 WEDDING </s> -0.3010
-0.3010 WERE HAVE -0.2808
-1.0414 WHAT ARE -0.2653
-0.4393 WHAT IS -0.2612
-1.3424 WHAT YOU -0.2987
-0.6021 WHEN </s> -0.3010
-0.6021 WHEN YOU -0.2893
-0.3010 WHILE </s> -0.3010
-0.3010 WHO READ -0.2041
-1.0792 WHY DID -0.1761
-0.4771 WHY DO -0.0300
-1.0792 WHY YURI -0.2888
-0.3010 WIAFU </s> -0.3010
-0.3010 WIAFUS ARE -0.2653
-1.1761 WILL </s> -0.3010
-1.4771 WILL MONIKA -0.0817
-0.3979 WILL YOU -0.2573
-0.7782 WINE </s> -0.3010
-0.7782 WINE RELAXING 0.0000
-0.7782 WINE WITH -0.2688
-0.3010 WINNINGS </s> -0.3010
-0.8451 WITH ME -0.2126
-1.1461 WITH MONIKA -0.0817
-1.1461 WITH NATUSKI -0.2041
-1.1461 WITH SAYORI -0.1761
-1.1461 WITH YOU -0.2748
-1.1461 WITH YURI -0.2499
-0.3010 WOLF WOLVES 0.0000
-0.3010 WOLVES </s> -0.3010
-0.6021 WORK </s> -0.3010
-0.6021 WORK CONTENT 0.0000
-0.3010 WOULD YOU -0.2940
-1.3424 WRITING </s> -0.3010
-0.3424 WRITING TIP 0.0000
-0.3010 WRITINGS WRITING -0.2808
-0.6021 YANDERE </s> -0.3010
-0.6021 YANDERE YURI -0.2888
-0.3010 YEAR OLDER -0.2430
-0.3010 YELLOW WALLPAPER 0.0000
-1.3199 YOU </s> -0.3010
-2.2742 YOU A -0.2730
-2.2742 YOU AGNOSTICISM -0.1761
-1.5752 YOU ARE -0.2398
-2.2742 YOU ARGUE -0.1761
-1.5752 YOU BE -0.1871
-2.2742 YOU BELIEVE -0.1761
-2.2742 YOU CANT -0.1761
-2.2742 YOU CLOSEST -0.1761
-2.2742 YOU CONTRIBUTE -0.1761
-2.2742 YOU CREATE -0.1761
-2.2742 YOU CREATIVE 0.0000
-2.2742 YOU DID -0.2730
-1.9731 YOU DO -0.2906
-2.2742 YOU DRAW -0.1761
-2.2742 YOU DREAM -0.2218
-2.2742 YOU GO 0.0000
-1.6721 YOU HAVE -0.1627
-2.2742 YOU HEARD -0.1761
-2.2742 YOU HYDRATION</S> 0.0000
-2.2742 YOU INTRODUCING -0.2218
-2.2742 YOU IS -0.2972
-2.2742 YOU JUSTIFICATION 0.0000
-1.6721 YOU KNOW 0.0000
-2.2742 YOU LAZY -0.1249
-1.7970 YOU LIKE -0.1249
-2.2742 YOU LITEN 0.0000
-1.1950 YOU LOVE -0.2089
-2.2742 YOU MAKE -0.2218
-2.2742 YOU MISS -0.1761
-1.2328 YOU MONIKA -0.0817
-2.2742 YOU PLAY -0.2730
-2.2742 YOU READ -0.2041
-2.2742 YOU REGRET -0.1761
-2.2742 YOU SEE 0.0000
-1.7970 YOU SHIP 0.0000
-1.7970 YOU TELL 0.0000
-1.9731 YOU TO -0.2825
-2.2742 YOU VEGETARIAN -0.1761
-1.7970 YOU WANT 0.0000
-2.2742 YOU WE -0.1761
-1.6628 YOUR </s> -0.3010
-1.6628 YOUR BEAUTIFUL -0.1761
-1.3617 YOUR CATCHPHRASE -0.1249
-1.6628 YOUR CONTRIBUTIONS -0.1761
-1.6628 YOUR FAMILY -0.0792
-1.0607 YOUR FAVORITE -0.0792
-1.6628 YOUR HERO -0.1249
-1.6628 YOUR LAST 0.0000
-1.6628 YOUR LIFE 0.0000
-1.6628 YOUR LITTLE -0.2218
-1.0607 YOUR REALITY -0.1761
-1.6628 YOUR RELIGION 0.0000
-1.6628 YOUR SONG -0.0792
-1.3617 YOUR THOUGHTS -0.1249
-1.6628 YOUR TWITTER 0.0000
-0.7782 YOURSELF </s> -0.3010
-0.4771 YOURSELF MONIKA -0.0817
-0.9542 YURI </s> -0.3010
-1.0792 YURI BOOK -0.0669
-1.5563 YURI DRINK -0.2218
-1.5563 YURI IS -0.2972
-1.5563 YURI LOVE -0.2946
-1.5563 YURI LOVES -0.2218
-1.5563 YURI NATSUKI -0.2218
-1.5563 YURI OBSESSED -0.1761
-1.2553 YURI TEA 0.0000
-1.5563 YURI WINE -0.2218
-1.5563 YURI WITH -0.2688
-1.5563 YURI YANDERE -0.1761
-0.3010 ZOMBIES UNDEAD 0.0000

\3-grams:
-0.3010 <s> ADORE ADORES
-0.3010 <s> ADVENTURE ADVENTURING
-0.3010 <s> AM I
-0.3010 <s> ANCIENT MYTHOLOGY
-0.3010 <s> APPRECIATING VISUAL
-1.0792 <s> ARE OTHER
-1.0792 <s> ARE WE
-0.4771 <s> ARE YOU
-0.3010 <s> AWARE REALIZE
-0.3010 <s> AWESOME </s>
-0.3010 <s> BE YOURSELF
-0.3010 <s> BEACH </s>
-0.3010 <s> BEAUTIFUL </s>
-0.3010 <s> BECOMING READER
-0.3010 <s> BEST GIRL
-0.3010 <s> BIRTHDAY </s>
-0.3010 <s> BOOK BOOKS
-0.3010 <s> BOOKS ARE
-0.3010 <s> BREAKUP BREAKING
-0.3010 <s> BYE GOODBYE
-0.9031 <s> CAN I
-0.4260 <s> CAN YOU
-0.3010 <s> CAREFUL SAFE
-0.3010 <s> CAT CATS
-0.3010 <s> CATCHPHRASE OKAY
-0.3010 <s> CHALLENGE CHALLENGES
-0.3010 <s> CHARACTER TROPES
-0.6021 <s> CHESS </s>
-0.6021 <s> CHESS IS
-0.3010 <s> CHLOROFORM </s>
-0.3010 <s> CITIES CITY
-0.3010 <s> CITIZENSHIP CROSSOVER
-0.3010 <s> CLONE CLONED
-0.3010 <s> CLOSE BEING
-0.3010 <s> CLOSET CLASSROOM
-0.6021 <s> CODING IS
-0.6021 <s> CODING TECHNIQUE
-0.3010 <s> COFFEE INTAKE
-0.3010 <s> COLD WEATHER
-0.3010 <s> COMPLETIONISM COMPLETIST
-0.3010 <s> CONFIDENCE LACK
-0.3010 <s> CONFIDENT IS
-0.3010 <s> CONTRIBUTE CONTRIBUTIONS
-0.3010 <s> CREATIVE TYPE
-0.3010 <s> CREDIT CREDITS
-0.3010 <s> CREDITS ARE
-0.3010 <s> CUPCAKE CUPCAKES
-0.3010 <s> DAN SALVATO
-0.3010 <s> DATING WHEN
-0.3010 <s> DAYDREAM DREAMING
-0.5229 <s> DDLC IS
-0.6990 <s> DDLC WAS
-0.3010 <s> DEATH DEAD
-0.3010 <s> DEBATE CLUB
-0.3010 <s> DEDICATION FITNESS
-1.0000 <s> DID I
-0.5229 <s> DID YOU
-1.0000 <s> DID YURI
-0.3010 <s> DIFFICULT EASY
-1.8325 <s> DO DID
-0.3140 <s> DO YOU
-0.3010 <s> DOG DOGS
-0.3010 <s> DOKI LITERATURE
-0.3010 <s> DRAW DRAWING
-0.3010 <s> DREAM DREAMING
-0.3010 <s> DRINKING SODA
-0.3010 <s> DUNBAR NUMBER
-0.3010 <s> EMERLAD IS
-0.3010 <s> ENGAGEMENT RING
-0.3010 <s> ETERNITY MORTALITY
-0.3010 <s> EVENING </s>
-0.3010 <s> EXPLAIN RELATIONSHIP
-0.3010 <s> EYE EYES
-0.3010 <s> FACE YOUR
-0.3010 <s> FAKE FAKING
-0.3010 <s> FAMILY </s>
-0.3010 <s> FANART IMAGES
-0.3010 <s> FANFICTION </s>
-0.3010 <s> FASTFOOD UNHEALTHY
-0.9031 <s> FAVORITE BOOK
-0.9031 <s> FAVORITE COLOR
-0.9031 <s> FAVORITE POEM
-0.9031 <s> FAVORITE VIDEO
-1.3802 <s> FEEL ANGRY
-1.3802 <s> FEEL ANXIOUS
-1.3802 <s> FEEL BORED
-1.3802 <s> FEEL HUNGRY
-1.3802 <s> FEEL INADEQUATE
-1.3802 <s> FEEL LONELY
-1.3802 <s> FEEL LUCKY
-1.3802 <s> FEEL PROUD
-1.3802 <s> FEEL SAD
-1.3802 <s> FEEL SICK
-1.3802 <s> FEEL TIRED
-1.3802 <s> FEEL YEAR
-0.3010 <s> FIT PLURALISTIC
-0.3010 <s> FLOWERS ALGERNON
-0.3010 <s> FORMING FORM
-0.7782 <s> FOURCHAN HAVE
-0.7782 <s> FOURCHAN INTERNET
-0.7782 <s> FOURCHAN IS
-0.3010 <s> FREE WILL
-0.3010 <s> FRIENDS FRIEND
-0.3010 <s> FRUIT FRUITS
-0.3010 <s> FUN FACTS
-0.6021 <s> FUNCTIONALISM </s>
-0.6021 <s> FUNCTIONALISM IS
-0.6021 <s> FUNERAL IS
-0.6021 <s> FUNERAL PROCESSION
-0.3010 <s> GATHERING FAMILY
-0.3010 <s> GHOST SUPERNATURAL
-0.3010 <s> GIRLFRIEND </s>
-0.3010 <s> GOD THOUGHTS
-0.3010 <s> GOOD LISTENER
-0.3010 <s> HACK HACKER
-0.3010 <s> HAIR CHANGE
-0.3010 <s> HAMLET </s>
-0.6021 <s> HAPPY BIRTHDAY
-0.6021 <s> HAPPY HAPPINESS
-0.3010 <s> HAREM FANTASIES
-0.3010 <s> HATE HATER
-0.3010 <s> HAVE A
-0.3010 <s> HEARD LIBITINA
-0.3010 <s> HEDGEHOG DILEMMA
-0.6021 <s> HEROISM HERO
-0.6021 <s> HEROISM IS
-0.3010 <s> HIGH SCHOOL
-0.3010 <s> HIGHER EDUCATION
-0.3010 <s> HORROR GENRE
-0.3010 <s> HOUSEWIFE </s>
-0.6021 <s> HOW DO
-0.6021 <s> HOW TO
-0.3010 <s> HYDRATION WATER
-0.3010 <s> HYGIENE PERSONAL
-0.3010 <s> HYPNOTIZED HYPNOSIS
-0.3010 <s> HYPOTHESIS SIMULATED
-1.9031 <s> I ADORE
-0.9031 <s> I AM
-1.9031 <s> I CANT
-1.9031 <s> I CHALLENGE
-1.9031 <s> I DISBELIEF
-1.9031 <s> I DO
-1.9031 <s> I FEEL
-1.4260 <s> I FELL
-1.9031 <s> I HAVE
-1.6021 <s> I LIKE
-1.9031 <s> I LONE
-0.8617 <s> I LOVE
-1.9031 <s> I MADE
-1.2041 <s> I WANT
-0.3010 <s> ICECREAM ICE
-0.3010 <s> IMMORTAL IMMORTALITY
-0.3010 <s> IMPRESSION </s>
-0.3010 <s> IMPRISONED PRISONER
-0.3010 <s> INNOVATION </s>
-0.3010 <s> INTELLIGENT </s>
-0.6021 <s> INTERNET HATE
-0.6021 <s> INTERNET SOCIAL
-1.3802 <s> IS INTERNET
-1.3802 <s> IS IT
-1.3802 <s> IS NATSUKI
-1.3802 <s> IS OKAY
-1.3802 <s> IS SUPER
-0.6812 <s> IS THIS
-1.3802 <s> IS YOUR
-1.3802 <s> IS YURI
-0.3010 <s> IT IS
-0.3010 <s> JAPANESE SPEAKING
-0.3010 <s> JAZZ </s>
-0.3010 <s> JUSTIFICATION MURDER
-0.3010 <s> KISS ME
-0.3010 <s> LACK MOTIVATION
-0.3010 <s> LAST POEM
-0.3010 <s> LAZINESS CAN
-0.3010 <s> LAZY LAZINESS
-1.4150 <s> LETS HAVE
-0.7160 <s> LETS PLAY
-1.4150 <s> LETS READ
-0.6368 <s> LETS TALK
-0.7782 <s> LINGER NATSUKI
-0.7782 <s> LINGER SAYORI
-0.7782 <s> LINGER YURI
-0.6021 <s> LINGERING LINGER
-0.6021 <s> LINGERING OTHER
-0.3010 <s> LITTLE SISTER
-0.3010 <s> LOTTERY LUCK
-0.7782 <s> LOVE EYES
-0.7782 <s> LOVE HAIR
-0.7782 <s> LOVE LOVING
-0.3010 <s> MAIN CHARACTER
-0.3010 <s> MAKING FRIEND
-0.3010 <s> MANGA READ
-0.3010 <s> MARRIAGE MARRY
-0.3010 <s> MC IS
-0.3010 <s> MEDITATION MEDITATING
-0.3010 <s> MEMORIES MEMORY
-0.3010 <s> MENTAL SICK
-0.3010 <s> METAFICTIONAL FICTION
-0.3010 <s> MIDDLE SCHOOL
-0.3010 <s> MISS MISSING
-0.3010 <s> MISSING FESTIVAL
-1.0792 <s> MONIKA BE
-1.0792 <s> MONIKA LOVE
-0.7782 <s> MONIKA LOVES
-1.0792 <s> MONIKA ROUTE
-1.0792 <s> MONIKA WILL
-0.3010 <s> MORNING </s>
-0.3010 <s> MUSIC CONCERTS
-0.3010 <s> MY LOVE
-0.3010 <s> NAME </s>
-0.3010 <s> NATSUKI DEATH
-0.6021 <s> NIHILISM AGNOSTICISM
-0.6021 <s> NIHILISM IS
-0.3010 <s> NINETY EIGHTY
-0.3010 <s> NSFW NOT
-0.3010 <s> NUCLEAR WAR
-0.3010 <s> OLDER SISTER
-0.3010 <s> OMAMORI </s>
-0.3010 <s> ONE HUNDRED
-0.3010 <s> ORCHESTRA CLASSICAL
-0.3010 <s> OTAKU </s>
-0.6021 <s> OTHER GAMES
-0.6021 <s> OTHER GIRLS
-0.3010 <s> PARENT PARENTS
-0.3010 <s> PEN NAME
-0.3010 <s> PEOPLE MAKING
-0.3010 <s> PET PETS
-0.3010 <s> PIGGY BANK
-0.3010 <s> PLACEMENT IS
-0.6021 <s> PLAY GAME
-0.6021 <s> PLAY PIANO
-0.3010 <s> PLEASE APPRECIATING
-0.3010 <s> PLEASURE FAP
-0.6021 <s> POETRY </s>
-0.6021 <s> POETRY IS
-0.3010 <s> PONG FEELING
-0.3010 <s> PORTRAIT MARKOV
-0.6021 <s> PROGRAMMING CODING
-0.6021 <s> PROGRAMMING IS
-0.3010 <s> PROM FESTIVAL
-0.3010 <s> RAP MUSIC
-0.3010 <s> REAL OUR
-0.3010 <s> REGRETS DOING
-0.3010 <s> RESOURCES RESOURCE
-0.3010 <s> RIBBON </s>
-0.3010 <s> ROAD TRIP
-0.3010 <s> ROCK ROLL
-0.3010 <s> ROMANTIC DATE
-0.3010 <s> ROUTE </s>
-0.3010 <s> SAVE SAVING
-0.3010 <s> SAYORI REGRETS
-0.3010 <s> SCIENCE ADVANCEMENTS
-0.3010 <s> SELFHARM HARM
-0.3010 <s> SETTING DDLC
-0.3010 <s> SHIPPING SHIPS
-0.3010 <s> SICKNESS IS
-0.6021 <s> SLEEP CONCERN
-0.6021 <s> SLEEP SLEEPING
-0.3010 <s> SMILE </s>
-0.3010 <s> SMOKE SMOKING
-0.3010 <s> SOCIAL MEDIA
-0.3010 <s> SOMEONE ELSE
-0.3010 <s> SORRY APOLOGIZE
-0.3010 <s> SOUND SOUNDS
-0.3010 <s> SPICY FOOD
-0.3010 <s> SPIDERS SPIDER
-0.3010 <s> SPORTS SPORT
-0.3010 <s> SUDDEN ANXIETY
-0.3010 <s> SUPER SMASH
-0.3010 <s> SURPRISE SURPRISES
-0.3010 <s> SWORDSMANSHIP SWORD
-0.3010 <s> TAKE SOMEWHERE
-0.3010 <s> TECHNIQUE CODE
-0.3010 <s> TELL ME
-0.7782 <s> THIS FICTION
-0.7782 <s> THIS IS
-0.7782 <s> THIS NOVEL
-0.3010 <s> TOGETHER LIVING
-0.6021 <s> TORMENT IS
-0.6021 <s> TORMENT NATURE
-0.6021 <s> TOTONO </s>
-0.6021 <s> TOTONO IS
-0.3010 <s> TROLLEY EXPERIMENTS
-0.3010 <s> TROPES OF
-0.3010 <s> TSUNDERE NATUSKI
-0.3010 <s> TWITTER LILMONIX
-0.3010 <s> UNDERGARMENTS PANTIES
-0.3010 <s> URGENT MESSAGE
-0.3010 <s> VEGETARIAN MEAT
-0.3010 <s> VIDEO GAMES
-0.3010 <s> VIDYA GAME
-0.3010 <s> VIRTUAL NOVEL
-0.3010 <s> VN IS
-0.3010 <s> VOCALOID HATSUNE
-0.3010 <s> WAIFU WAIFUS
-0.3010 <s> WAS WERE
-0.3010 <s> WEARING OTHER
-0.3010 <s> WEARY TIRED
-1.0000 <s> WHAT ARE
-0.3979 <s> WHAT IS
-1.0792 <s> WHY DID
-0.4771 <s> WHY DO
-1.0792 <s> WHY YURI
-0.3010 <s> WIAFUS ARE
-0.3010 <s> WILL YOU
-0.3010 <s> WOLF WOLVES
-0.3010 <s> WOULD YOU
-0.3010 <s> WRITING TIP
-0.3010 <s> WRITINGS WRITING
-0.3010 <s> YANDERE YURI
-0.3010 <s> YELLOW WALLPAPER
-0.4260 <s> YOU ARE
-0.9031 <s> YOU CANT
-0.3010 <s> YOUR REALITY
-0.3010 <s> YOURSELF MONIKA
-1.0000 <s> YURI BOOK
-1.0000 <s> YURI LOVE
-1.0000 <s> YURI LOVES
-1.0000 <s> YURI TEA
-1.0000 <s> YURI WINE
-0.3010 <s> ZOMBIES UNDEAD
-0.3010 A FICTION </s>
-0.3010 A GOODNIGHT MONIKA
-0.3010 A HABIT </s>
-0.3010 A HERO FOR
-0.3010 A LITTLE SISTER
-0.3010 A LOT </s>
-0.3010 A MURDERER MONIKA</S>
-0.3010 A ROUTE </s>
-0.3010 ABOUT CITIZENSHIP</S> </s>
-0.3010 ABOUT DEATH </s>
-0.3010 ABOUT DEBATE CLUB
-0.3010 ABOUT FUNERAL PROCESSION
-0.3010 ABOUT GOD </s>
-0.3010 ABOUT HYPOTHESIS SIMULATED
-0.3010 ABOUT LIBITINA </s>
-0.3010 ABOUT MIDDLE SCHOOL
-0.3010 ABOUT NATSUKI DEATH
-0.3010 ABOUT RELIGION </s>
-0.3010 ADORE ADORES </s>
-0.3010 ADORE YOU </s>
-0.3010 ADVENTURE ADVENTURING </s>
-0.3010 AGNOSTICISM DISBELIEF </s>
-0.3010 AM DYING </s>
-0.6021 AM I FORMING
-0.6021 AM I GOOD
-0.3010 AM IMPRISONED BY
-0.3010 AM LAZY </s>
-0.3010 AM LOVE PRISONER
-0.3010 AM MENTAL SICK
-0.3010 AM MISSING YOU
-0.3010 AM NOT GOING
-0.3010 AM OBSESSE BY
-0.3010 AM SAVING YOU
-0.3010 AM YOU ARE
-0.3010 ANCIENT MYTHOLOGY </s>
-0.3010 AND OLDER SISTER
-0.3010 ANXIETY ANXIOUS </s>
-0.3010 APOLOGIZE APOLOGIZED </s>
-0.3010 APPRECIATING VISUAL NOVELS
-0.3010 ARCHETYPES UNREALISTIC </s>
-0.3010 ARE A MURDERER
-0.3010 ARE AWESOME </s>
-0.3010 ARE FOR INTELLIGENT
-0.3010 ARE HE SHE
-0.6021 ARE MY ONE
-0.6021 ARE MY TRUE
-0.3010 ARE OTHER GIRLS
-0.3010 ARE WE MISSING
-0.9031 ARE YOU AGNOSTICISM
-0.9031 ARE YOU CREATIVE
-0.9031 ARE YOU LAZY
-0.9031 ARE YOU VEGETARIAN
-0.7782 ARE YOUR REALITY
-0.4771 ARE YOUR THOUGHTS
-0.3010 ARE YOURSELF </s>
-0.3010 ARGUE WITH ME
-0.3010 ARGUING ARGUE </s>
-0.3010 ARGUING WITH YOU
-0.3010 ASK FOR KISS
-0.3010 AWARE REALIZE </s>
-0.3010 AWESOME FOR CUDDLING
-0.3010 BAKE BAKING </s>
-0.3010 BANK SAVING SAVE
-0.3010 BE BEING </s>
-0.3010 BE CLOSE TO
-0.3010 BE DEAD </s>
-0.3010 BE DIFFICULT </s>
-0.3010 BE EASY </s>
-0.3010 BE GIRLFRIEND WIAFU
-0.6021 BE MY GIRLFRIEND
-0.9031 BE MY HOUSEWIFE
-0.9031 BE MY WIAFU
-0.3010 BE SPOOKY </s>
-0.3010 BE YOUR HERO
-0.3010 BE YOURSELF MONIKA
-0.3010 BEAUTIFUL EYES </s>
-0.6021 BECOMING READER FOR
-0.6021 BECOMING READER READ
-0.3010 BEING A HERO
-0.3010 BEING CLOSEST TO
-0.3010 BEING SCARY </s>
-0.3010 BEING YOU CLOSEST
-0.3010 BELIEVE IN GOD
-0.3010 BELIEVE RELIGION </s>
-0.3010 BEST GIRL </s>
-0.3010 BIRTHDAY MONIKA </s>
-0.6021 BOOK BOOKS </s>
-0.6021 BOOK BOOKS RECOMMENDATION
-0.3010 BOOK PORTRAIT MARKOV
-0.3010 BOOKS ARE FOR
-0.3010 BOOKS RECOMMENDATION RECOMMENDATIONS
-0.3010 BREAKUP BREAKING </s>
-0.3010 BY DAN SALVATO
-0.3010 BY YOU MONIKA
-0.9031 BYE GOODBYE CLASS
-0.9031 BYE GOODBYE SLEEP
-0.9031 BYE GOODBYE WHILE
-0.9031 BYE GOODBYE WORK
-0.6021 CAN BE DIFFICULT
-0.6021 CAN BE EASY
-0.3010 CAN I GET
-0.3010 CAN KILL YOU
-0.7782 CAN YOU CREATE
-0.4771 CAN YOU TELL
-0.3010 CANT HAVE WAIFUS
-0.3010 CANT STOP LOVING
-0.3010 CAREFUL SAFE ACCIDENT
-0.3010 CAT CATS FELINE
-0.3010 CATCHPHRASE OKAY EVERYONE
-0.3010 CATS FELINE </s>
-0.3010 CHALLENGE CHALLENGES </s>
-0.3010 CHALLENGE YOU MONIKA
-0.6021 CHANGE STYLE PONYTAIL
-0.6021 CHANGE STYLE STRAIGHT
-0.3010 CHARACTER ARCHETYPES UNREALISTIC
-0.3010 CHARACTER MC </s>
-0.3010 CHARACTER TROPES ARCHETYPES
-0.3010 CHESS IS DIFFICULT
-0.3010 CITIES CITY </s>
-0.3010 CITIZENSHIP CROSSOVER CROSSING
-0.3010 CLASSICAL MUSIC </s>
-0.3010 CLONE CLONED CLONES
-0.3010 CLONED CLONES </s>
-0.3010 CLOSE BEING YOU
-0.3010 CLOSE TO YOU
-0.3010 CLOSEST REAL NEAR
-0.3010 CLOSEST TO NEAR
-0.3010 CLOSET CLASSROOM </s>
-0.3010 CLUB ARGUING ARGUE
-0.3010 CLUB IS AWESOME
-0.3010 CODE CODING </s>
-0.3010 CODE TECHNIQUE </s>
-0.3010 CODING CODE </s>
-0.3010 CODING IS HIGHER
-0.3010 CODING TECHNIQUE ARE
-0.3010 COFFEE INTAKE </s>
-0.6021 COLD WEATHER CUDDLING
-0.6021 COLD WEATHER IS
-0.3010 COLOR EMERALD </s>
-0.3010 COMPLETIONISM COMPLETIST </s>
-0.3010 CONCERTS CONCERT </s>
-0.3010 CONFIDENCE CONFIDENT </s>
-0.3010 CONFIDENCE LACK </s>
-0.3010 CONFIDENT IS FAKING
-0.3010 CONTENT MATURE PORN
-0.3010 CONTRIBUTE CONTRIBUTIONS </s>
-0.3010 CONTRIBUTE TO DDLC
-0.3010 CONTRIBUTIONS TO SAYORI
-0.3010 CREATE HABITS </s>
-0.6021 CREATIVE TYPE MONIKA
-0.6021 CREATIVE TYPE TYPES
-0.3010 CREDIT CREDITS SONG
-0.3010 CREDIT PIANO SONG
-0.3010 CREDITS ARE YOUR
-0.3010 CREDITS SONG YOUR
-0.3010 CROSSOVER CROSSING </s>
-0.3010 CUDDLE YOU MONIKA
-0.3010 CUDDLING CUDDLE </s>
-0.3010 CUPCAKE CUPCAKES BAKE
-0.3010 CUPCAKES BAKE BAKING
-0.4771 DAN SALVATO </s>
-0.7782 DAN SALVATO IS
-0.3010 DATING WHEN </s>
-0.3010 DAYDREAM DREAMING DREAM
-0.7782 DDLC IS METAFICTIONAL
-0.7782 DDLC IS PLACEMENT
-0.7782 DDLC IS VIRTUAL
-0.3010 DDLC JAPAN PLACEMENT
-0.6021 DDLC WAS EASY
-0.6021 DDLC WAS MAKE
-0.3010 DEAD DYING </s>
-0.3010 DEATH DEAD DYING
-0.3010 DEATH WAS SAD
-0.6021 DEBATE CLUB </s>
-0.6021 DEBATE CLUB ARGUING
-0.3010 DEDICATION FITNESS FIT
-0.3010 DID HAVE HAS
-0.3010 DID I SAVE
-0.3010 DID TO SAYORI
-0.9031 DID YOU DO
-0.9031 DID YOU HEARD
-0.9031 DID YOU LOVE
-0.9031 DID YOU SEE
-0.3010 DID YURI DRINK
-0.3010 DIFFICULT EASY </s>
-0.3010 DISBELIEF YOU </s>
-0.3010 DO DID HAVE
-0.6021 DO LOVE ME
-0.6021 DO LOVE YOU
-0.3010 DO SAYORI </s>
-1.8692 DO YOU BELIEVE
-1.8692 DO YOU CONTRIBUTE
-1.8692 DO YOU DRAW
-1.8692 DO YOU DREAM
-1.3921 DO YOU HAVE
-1.8692 DO YOU HYDRATION</S>
-1.8692 DO YOU JUSTIFICATION
-1.2672 DO YOU KNOW
-1.3921 DO YOU LIKE
-1.8692 DO YOU LITEN
-0.8278 DO YOU LOVE
-1.8692 DO YOU MISS
-1.8692 DO YOU PLAY
-1.8692 DO YOU READ
-1.8692 DO YOU REGRET
-1.3921 DO YOU SHIP
-1.5682 DO YOU WANT
-0.3010 DO YOUR LITTLE
-0.3010 DOG DOGS </s>
-0.3010 DOING THAT TO
-0.3010 DOKI LITERATURE CLUB
-0.3010 DOWNLOADS DOWNLOAD </s>
-0.3010 DRAW DRAWING </s>
-0.3010 DREAM ABOUT CITIZENSHIP</S>
-0.3010 DREAM DREAMING </s>
-0.3010 DREAMING DREAM </s>
-0.3010 DRINK WINE </s>
-0.3010 DRINKING DRINK </s>
-0.3010 DRINKING SODA DRINK
-0.3010 DRINKING WINE WITH
-0.3010 DUNBAR NUMBER </s>
-0.3010 EDUCATION COLLAGE </s>
-0.3010 EIGHTY FOUR </s>
-0.3010 ELSE HAPPY BIRTHDAY
-0.3010 EMBARRASSING TO ASK
-0.3010 EMERALD COLOR </s>
-0.3010 EMERLAD IS MY
-0.3010 ENGAGEMENT RING WEDDING
-0.3010 ETERNITY MORTALITY </s>
-0.3010 EVERYONE YOUR CATCHPHRASE
-0.3010 EXPERIMENTS PROBLEM </s>
-0.3010 EXPLAIN RELATIONSHIP </s>
-0.3010 EYE EYES CONTACT
-0.3010 EYES CONTACT </s>
-0.3010 FACE YOUR </s>
-0.3010 FAKE CONFIDENCE </s>
-0.3010 FAKE FAKING CONFIDENCE
-0.3010 FAKING CONFIDENCE CONFIDENT
-0.3010 FAMILY GATHERING</S> </s>
-0.3010 FANART IMAGES </s>
-0.3010 FANART OF YOU
-0.3010 FAP FAPPING MASTURBATE
-0.3010 FAPPING MASTURBATE </s>
-0.3010 FASTFOOD UNHEALTHY </s>
-0.3010 FAVORITE BOOK </s>
-0.6021 FAVORITE COLOR </s>
-0.6021 FAVORITE COLOR EMERALD
-0.3010 FAVORITE GAME </s>
-0.3010 FAVORITE POEM </s>
-0.3010 FAVORITE VIDEO GAME
-0.3010 FEEL ANGRY </s>
-0.3010 FEEL ANXIOUS </s>
-0.3010 FEEL BORED </s>
-0.3010 FEEL HUNGRY </s>
-0.3010 FEEL INADEQUATE </s>
-0.3010 FEEL LONELY </s>
-0.3010 FEEL LUCKY </s>
-0.3010 FEEL LUCKY. FREE
-0.3010 FEEL PROUD </s>
-0.3010 FEEL SAD </s>
-0.3010 FEEL SICK </s>
-0.3010 FEEL TIRED </s>
-0.3010 FEEL YEAR OLDER
-0.3010 FELL ANXIETY </s>
-0.3010 FELL ANXIOUS </s>
-0.3010 FELL SUDDEN ANXIETY
-0.3010 FICTION IS METAFICTIONAL
-0.3010 FIFTH FIVE </s>
-0.3010 FIFTH WRITING TIP
-0.3010 FIRST ONE </s>
-0.3010 FIT PLURALISTIC IGNORANCE
-0.3010 FITNESS FIT </s>
-0.3010 FLOWERS ALGERNON </s>
-0.3010 FOOD FOODS </s>
-0.6021 FOODS </s> </s>
-0.3010 FOR CUDDLING </s>
-0.3010 FOR INTELLIGENT PEOPLE
-0.3010 FOR KISS MONIKA
-0.3010 FOR ME </s>
-0.3010 FOR MONIKA </s>
-0.3010 FOR WORK CONTENT
-0.6021 FOR YOU IS
-0.6021 FOR YOU MONIKA
-0.3010 FORM A HABIT
-0.3010 FORM HABIT HABITS
-0.3010 FORMING FORM HABIT
-0.3010 FORMING HABITS </s>
-0.3010 FOURCHAN HAVE HATERS
-0.3010 FOURCHAN INTERNET </s>
-0.3010 FOURCHAN IS DIFFICULT
-0.3010 FOURTH FOUR </s>
-0.3010 FOURTH WRITING TIP
-0.3010 FREE MONIKA </s>
-0.4771 FREE WILL </s>
-0.7782 FREE WILL MONIKA
-0.3010 FRIEND FRIENDS PEOPLE
-0.3010 FRIEND INTRODUCING </s>
-0.3010 FRIENDS FRIEND INTRODUCING
-0.3010 FRIENDS PEOPLE </s>
-0.3010 FRIST WRITING TIP
-0.3010 FRUIT FRUITS </s>
-0.3010 FUN FACTS </s>
-0.3010 FUNCTIONALISM IS GOOD
-0.3010 FUNERAL IS TORMENT
-0.3010 FUNERAL PROCESSION </s>
-0.3010 GAME ARE AWESOME
-0.3010 GAME ROMANCE </s>
-0.3010 GAME VIDYA </s>
-0.3010 GAMES CAN BE
-0.6021 GAMES GAME </s>
-0.6021 GAMES GAME VIDYA
-0.3010 GATHERING FAMILY </s>
-0.3010 GENRE SCARY SPOOKY
-0.3010 GET YURI BOOK
-0.3010 GHOST SUPERNATURAL </s>
-0.3010 GIRLFRIEND WIAFU </s>
-0.3010 GIRLS CHARACTER ARCHETYPES
-0.3010 GIRLS LIKE SAYORI
-0.3010 GIRLS SAYORI NATUSKI
-0.3010 GIRLS THINK </s>
-0.3010 GO TO COLLAGE
-0.3010 GOD THOUGHTS BELIEVE
-0.3010 GOING TO ARGUING
-0.3010 GOOD CONVERSATION </s>
-0.6021 GOOD LISTENER </s>
-0.6021 GOOD LISTENER CONVERSATION
-0.3010 GOODBYE CLASS </s>
-0.3010 GOODBYE SLEEP GOODNIGHT
-0.3010 GOODBYE WHILE </s>
-0.3010 GOODBYE WORK </s>
-0.3010 GOODNIGHT MONIKA </s>
-0.3010 HABIT HABITS </s>
-0.3010 HACK HACKER HACKING
-0.3010 HACKER HACKING </s>
-0.3010 HAD HAS BE
-0.3010 HAIR CHANGE STYLE
-0.6021 HAPPY BIRTHDAY </s>
-0.6021 HAPPY BIRTHDAY MONIKA
-0.3010 HAPPY HAPPINESS </s>
-0.3010 HAREM FANTASIES </s>
-0.3010 HARM HARMING HURT
-0.3010 HARMING HURT </s>
-0.3010 HAS BE BEING
-0.3010 HAS HAD </s>
-0.3010 HATE FOURCHAN </s>
-0.3010 HATE HATER HATERS
-0.3010 HATER HATERS </s>
-0.3010 HATSUNE MIKU </s>
-0.7782 HAVE A GOODNIGHT
-0.7782 HAVE A LITTLE
-0.7782 HAVE A ROUTE
-0.3010 HAVE FREE WILL
-0.3010 HAVE GOOD CONVERSATION
-0.3010 HAVE HAD HAS
-0.3010 HAVE HAS HAD
-0.3010 HAVE HATERS </s>
-0.3010 HAVE OLDER SISTER
-0.3010 HAVE WAIFUS </s>
-0.3010 HE SHE IT
-0.3010 HEARD ABOUT LIBITINA
-0.3010 HEARD LIBITINA </s>
-0.3010 HEDGEHOG DILEMMA </s>
-0.3010 HER FRIENDS </s>
-0.3010 HERO FOR YOU
-0.3010 HEROISM HERO </s>
-0.3010 HEROISM IS AWESOME
-0.4771 HIGH SCHOOL </s>
-0.7782 HIGH SCHOOL IS
-0.3010 HIGHER EDUCATION COLLAGE
-0.3010 HIGHER PROGRAMMING </s>
-0.6021 HORROR GENRE </s>
-0.6021 HORROR GENRE SCARY
-0.3010 HOW AM I
-0.3010 HOW DO YOU
-0.7782 HOW TO CODE
-0.7782 HOW TO FAKE
-0.7782 HOW TO FORM
-0.3010 HUNDRED THOUSAND DOWNLOADS
-0.3010 HYDRATION WATER </s>
-0.3010 HYGIENE PERSONAL </s>
-0.3010 HYPNOTIZED HYPNOSIS </s>
-0.3010 HYPOTHESIS SIMULATED REALITY
-0.3010 I ADORE YOU
-1.3010 I AM DYING
-1.3010 I AM IMPRISONED
-1.3010 I AM LAZY
-1.3010 I AM LOVE
-1.3010 I AM MENTAL
-1.3010 I AM MISSING
-1.3010 I AM NOT
-1.3010 I AM OBSESSE
-1.3010 I AM SAVING
-1.3010 I AM YOU
-0.3010 I CANT STOP
-0.3010 I CHALLENGE YOU
-0.3010 I DISBELIEF YOU
-0.3010 I DO LOVE
-0.3010 I FEEL LUCKY.
-0.7782 I FELL ANXIETY
-0.7782 I FELL ANXIOUS
-0.7782 I FELL SUDDEN
-0.3010 I FORMING HABITS
-0.3010 I GET YURI
-0.3010 I GOOD LISTENER
-0.3010 I HAVE FREE
-0.6021 I LIKE BEING
-0.6021 I LIKE SOUNDS
-0.3010 I LONE YOUR
-1.3424 I LOVE BOOK
-1.3424 I LOVE DOKI
-1.3424 I LOVE EMERALD
-1.3424 I LOVE FOODS
-1.3424 I LOVE POETRY
-1.3424 I LOVE RELAXING
-1.3424 I LOVE WHEN
-0.8653 I LOVE YOU
-1.3424 I LOVE YOUR
-0.3010 I MADE FANART
-0.3010 I SAVE YOUR
-0.3010 I WANT TO
-0.3010 ICE CREAM </s>
-0.3010 ICECREAM ICE CREAM
-0.3010 IMAGES OF YOU
-0.3010 IMMORTAL IMMORTALITY </s>
-0.3010 IMPRISONED BY YOU
-0.3010 IMPRISONED PRISONER </s>
-0.3010 IN GOD </s>
-0.3010 IN JAPAN </s>
-0.3010 INTELLIGENT PEOPLE </s>
-0.3010 INTERNET HATE FOURCHAN
-0.3010 INTERNET PRISON </s>
-0.3010 INTERNET SOCIAL MEDIA
-0.3010 INTRODUCING TO FRIEND
-0.3010 INTRODUCING YOU TO
-0.3468 IS AWESOME </s>
-1.3010 IS AWESOME FOR
-0.3010 IS DIFFICULT </s>
-0.3010 IS ETERNAL </s>
-0.3010 IS FAKING </s>
-0.3010 IS FUNCTIONALISM </s>
-0.3010 IS GOOD </s>
-0.3010 IS HIGHER PROGRAMMING
-0.3010 IS INTERNET PRISON
-0.3010 IS IT EMBARRASSING
-0.3010 IS JAPAN </s>
-0.3010 IS LIBITINA </s>
-0.3010 IS MAIN CHARACTER
-0.3010 IS METAFICTIONAL </s>
-0.3010 IS MY FAVORITE
-0.3010 IS NATSUKI TSUNDERE
-0.3010 IS NATURE </s>
-0.3010 IS OBSESSED WITH
-0.3010 IS OKAY EVERYONE
-0.3010 IS PLACEMENT IN
-0.3010 IS PRISON FOR
-0.3010 IS SICK </s>
-0.3010 IS SUPER SMASH
-0.3010 IS THEY YOU
-1.0000 IS THIS A
-1.0000 IS THIS REALITY
-1.0000 IS THIS ROMANCE
-1.0000 IS THIS SETTING
-1.0000 IS THIS YOUR
-0.3010 IS TORMENT </s>
-0.3010 IS VIRTUAL NOVEL
-1.2041 IS YOUR CATCHPHRASE
-1.2041 IS YOUR CONTRIBUTIONS
-0.7270 IS YOUR FAVORITE
-1.2041 IS YOUR RELIGION
-1.2041 IS YOUR SONG
-1.2041 IS YOUR TWITTER
-0.7782 IS YURI BOOK
-0.7782 IS YURI TEA
-0.7782 IS YURI YANDERE
-0.3010 IT EMBARRASSING TO
-0.6021 IT IS THEY
-0.6021 IT IS YURI
-0.7782 JAPAN </s> </s>
-0.3010 JAPAN PLACEMENT </s>
-0.3010 JAPANESE SPEAKING LANGUAGE
-0.6021 JUSTIFICATION MURDER </s>
-0.6021 JUSTIFICATION MURDER MURDERER
-0.3010 KILL YOU </s>
-0.6021 KISS ME EMBARRASSING
-0.6021 KISS ME MONIKA
-0.3010 KISS MONIKA </s>
-0.3010 KNOW CODE TECHNIQUE
-0.3010 KNOW HEDGEHOG DILEMMA
-0.3010 KNOW HOW TO
-0.3010 KNOW TROLLEY EXPERIMENTS
-0.3010 LACK MOTIVATION </s>
-0.3010 LAST POEM </s>
-0.3010 LAZINESS CAN KILL
-0.3010 LAZY LAZINESS </s>
-0.3010 LETS HAVE GOOD
-1.0000 LETS PLAY CHESS
-1.0000 LETS PLAY HANGMAN
-1.0000 LETS PLAY PIANO
-1.0000 LETS PLAY PONG
-1.0000 LETS PLAY VIDYA
-0.3010 LETS READ MANGA
-0.3010 LETS TALK ABOUT
-0.6021 LIKE BEING A
-0.6021 LIKE BEING SCARY
-0.3010 LIKE HIGH SCHOOL
-0.3010 LIKE SAYORI NATUSKI
-0.3010 LIKE SOUNDS OF
-0.3010 LIKE TO BE
-0.3010 LINGER NATSUKI </s>
-0.3010 LINGER OTHER GIRLS
-0.3010 LINGER SAYORI </s>
-0.3010 LINGER YURI </s>
-0.3010 LINGERING LINGER OTHER
-0.3010 LINGERING OTHER GIRLS
-0.3010 LISTENER CONVERSATION </s>
-0.3010 LITEN TO RAP
-0.4771 LITERATURE CLUB </s>
-0.7782 LITERATURE CLUB IS
-0.3010 LITTLE AND OLDER
-0.3010 LITTLE SISTER </s>
-0.3010 LIVING WAITING </s>
-0.3010 LONE YOUR BEAUTIFUL
-0.3010 LOTTERY LUCK WINNINGS
-0.3010 LOVE BOOK </s>
-0.3010 LOVE DOKI LITERATURE
-0.3010 LOVE EARTH </s>
-0.3010 LOVE EMERALD COLOR
-0.3010 LOVE EYES </s>
-0.3010 LOVE FAMILY GATHERING</S>
-0.3010 LOVE FOODS </s>
-0.3010 LOVE FOR YOU
-0.3010 LOVE HAIR </s>
-0.3010 LOVE HIGHER EDUCATION
-0.3010 LOVE INTRODUCING YOU
-0.3010 LOVE LOVING TRUE
-0.3010 LOVE ME </s>
-0.3010 LOVE MEAT </s>
-0.6021 LOVE MY CREDIT
-0.6021 LOVE MY DRAWING
-0.3010 LOVE NATURE </s>
-0.3010 LOVE OTHER GIRLS
-0.3010 LOVE POETRY </s>
-0.3010 LOVE PORTRAIT MARKOV
-0.3010 LOVE PRISONER OF
-0.3010 LOVE RELAXING DRINKING
-0.3010 LOVE SOUND OF
-0.3010 LOVE SPICY FOOD
-0.3010 LOVE WHEN YOU
-0.6021 LOVE YOU </s>
-0.9031 LOVE YOU A
-0.9031 LOVE YOU MONIKA
-0.3010 LOVE YOUR REALITY
-0.3010 LOVES BOOKS </s>
-0.3010 LOVES HORROR GENRE
-0.3010 LOVES YOU </s>
-0.3010 LOVING TRUE </s>
-0.3010 LOVING YOU </s>
-0.3010 LUCK WINNINGS </s>
-0.3010 LUCKY. FREE MONIKA
-0.3010 MADE FANART OF
-0.6021 MAIN CHARACTER </s>
-0.6021 MAIN CHARACTER MC
-0.3010 MAKE BY DAN
-0.3010 MAKE FREINDS </s>
-0.3010 MAKE ME READER
-0.6021 MAKING FRIEND </s>
-0.6021 MAKING FRIEND FRIENDS
-0.3010 MANGA MONIKA </s>
-0.3010 MANGA READ </s>
-0.3010 MARKOV BOOK </s>
-0.3010 MARKOV IS YURI
-0.3010 MARRIAGE MARRY </s>
-0.3010 MATURE PORN HENTAI
-0.3010 MC IS MAIN
-0.6021 ME ABOUT DEBATE
-0.6021 ME ABOUT HYPOTHESIS
-0.3010 ME EMBARRASSING </s>
-0.3010 ME FIFTH WRITING
-0.3010 ME FOURTH WRITING
-0.3010 ME FRIST WRITING
-0.6021 ME HOW AM
-0.6021 ME HOW TO
-0.3010 ME MONIKA </s>
-0.3010 ME READER WHO
-0.3010 ME SECOND WRITING
-0.3010 ME THIRD WRITING
-0.3010 MEAT VEGAN EARTH
-0.3010 MEDIA IS PRISON
-0.3010 MEDIA PRISON </s>
-0.3010 MEDITATION MEDITATING </s>
-0.3010 MEMORIES MEMORY HOME
-0.3010 MEMORY HOME </s>
-0.6021 MENTAL SICK </s>
-0.6021 MENTAL SICK SICKNESS
-0.3010 METAFICTIONAL FICTION </s>
-0.3010 MIDDLE SCHOOL LIFE
-0.3010 MISS MISSING FAMILY
-0.3010 MISS YOUR FAMILY
-0.3010 MISSING FAMILY </s>
-0.3010 MISSING FESTIVAL </s>
-0.3010 MISSING YOU MONIKA
-0.3010 MONIKA BE MY
-0.3010 MONIKA LOVE INTRODUCING
-0.6021 MONIKA LOVES HORROR
-0.6021 MONIKA LOVES YOU
-0.3010 MONIKA ROUTE IS
-0.3010 MONIKA WILL YOU
-0.3010 MURDER MURDERER </s>
-0.3010 MURDERER MONIKA</S> </s>
-0.3010 MUSIC CONCERTS CONCERT
-0.3010 MY CREDIT PIANO
-0.3010 MY DRAWING </s>
-0.6021 MY FAVORITE BOOK
-0.6021 MY FAVORITE COLOR
-0.3010 MY GIRLFRIEND </s>
-0.3010 MY HOUSEWIFE </s>
-0.3010 MY LOVE FOR
-0.3010 MY ONE TRUE
-0.3010 MY TRUE LOVE
-0.3010 MY WIAFU </s>
-0.4771 NATSUKI DEATH </s>
-0.7782 NATSUKI DEATH WAS
-0.3010 NATSUKI TSUNDERE </s>
-0.3010 NATUSKI OR YURI
-0.3010 NATUSKI WITH SAYORI
-0.3010 NATUSKI YURI </s>
-0.3010 NEAR REAL ME
-0.3010 NIHILISM AGNOSTICISM DISBELIEF
-0.3010 NIHILISM IS GOOD
-0.3010 NINETY EIGHTY FOUR
-0.3010 NOT GOING TO
-0.3010 NOT SAFE FOR
-0.3010 NOVEL IS AWESOME
-0.3010 NOVEL VN </s>
-0.3010 NOVELS NOVEL </s>
-0.3010 NSFW NOT SAFE
-0.3010 NUCLEAR WAR WARFARE
-0.3010 OBSESSE BY YOU
-0.3010 OBSESSED OBSESSE </s>
-0.3010 OBSESSED WITH ME
-0.3010 OF OTHER GIRLS
-0.3010 OF RAIN </s>
-0.3010 OF RAINING </s>
-0.3010 OF YOU MONIKA
-0.6021 OKAY EVERYONE </s>
-0.6021 OKAY EVERYONE YOUR
-0.3010 OLDER SISTER </s>
-0.3010 ONE HUNDRED THOUSAND
-0.3010 ONE TRUE LOVE
-0.3010 OR VEGAN </s>
-0.3010 OR YURI </s>
-0.3010 ORCHESTRA CLASSICAL MUSIC
-0.3010 OTHER CLOTHES </s>
-0.3010 OTHER GAMES GAME
-0.7782 OTHER GIRLS </s>
-1.0792 OTHER GIRLS CHARACTER
-1.0792 OTHER GIRLS LIKE
-1.0792 OTHER GIRLS SAYORI
-1.0792 OTHER GIRLS THINK
-0.3010 OUR REALITY </s>
-0.3010 PANTIES UNDERGARMENT </s>
-0.3010 PARENT PARENTS </s>
-0.3010 PEN NAME </s>
-0.3010 PEOPLE MAKING FRIEND
-0.3010 PET PETS </s>
-0.3010 PIANO IS DIFFICULT
-0.3010 PIANO SONG </s>
-0.3010 PIGGY BANK SAVING
-0.3010 PLACEMENT IN JAPAN
-0.3010 PLACEMENT IS JAPAN
-0.3010 PLAY CHESS </s>
-0.3010 PLAY GAME ROMANCE
-0.3010 PLAY HANGMAN </s>
-0.6021 PLAY PIANO </s>
-0.6021 PLAY PIANO IS
-0.3010 PLAY PONG </s>
-0.3010 PLAY ROMANCE GAME
-0.3010 PLAY VIDYA GAME
-0.3010 PLEASE APPRECIATING VISUAL
-0.3010 PLEASURE FAP FAPPING
-0.3010 PLURALISTIC IGNORANCE </s>
-0.3010 POETRY IS DIFFICULT
-0.3010 PONG FEELING </s>
-0.3010 PORN HENTAI </s>
-0.7782 PORTRAIT MARKOV </s>
-0.7782 PORTRAIT MARKOV BOOK
-0.7782 PORTRAIT MARKOV IS
-0.3010 PRISON FOR ME
-0.3010 PRISONER OF YOU
-0.3010 PROGRAMMING CODING CODE
-0.3010 PROGRAMMING IS AWESOME
-0.3010 PROM FESTIVAL </s>
-0.3010 RAIN RAINING </s>
-0.3010 RAP MUSIC </s>
-0.3010 READ BOOK </s>
-0.6021 READ MANGA </s>
-0.6021 READ MANGA MONIKA
-0.3010 READER FOR MONIKA
-0.3010 READER READ BOOK
-0.3010 READER WHO READ
-0.3010 REAL ME </s>
-0.3010 REAL NEAR </s>
-0.3010 REAL OUR REALITY
-0.3010 REALITY IS YOUR
-0.3010 REALITY PIANO </s>
-0.3010 REALITY SONG </s>
-0.3010 RECOMMENDATION RECOMMENDATIONS </s>
-0.3010 REGRET WHAT YOU
-0.3010 REGRETS DOING THAT
-0.3010 REGRETS REGRET </s>
-0.6021 RELAXING DRINKING DRINK
-0.6021 RELAXING DRINKING WINE
-0.3010 RESOURCE VALUABLE </s>
-0.3010 RESOURCES RESOURCE VALUABLE
-0.3010 RING WEDDING </s>
-0.3010 ROAD TRIP </s>
-0.3010 ROCK ROLL </s>
-0.3010 ROMANCE GAME </s>
-0.3010 ROMANTIC DATE </s>
-0.3010 ROUTE IS AWESOME
-0.3010 SAFE ACCIDENT </s>
-0.3010 SAFE FOR WORK
-0.3010 SALVATO IS AWESOME
-0.3010 SAVE MONEY </s>
-0.3010 SAVE SAVING LIFE
-0.3010 SAVE YOUR LIFE
-0.3010 SAVING LIFE </s>
-0.3010 SAVING SAVE MONEY
-0.3010 SAVING YOU </s>
-0.6021 SAYORI NATUSKI OR
-0.6021 SAYORI NATUSKI YURI
-0.3010 SAYORI REGRETS REGRET
-0.3010 SAYORI WITH YURI
-0.3010 SAYORI YURI NATSUKI
-0.3010 SCARY SPOOKY </s>
-0.3010 SCHOOL IS AWESOME
-0.3010 SCHOOL LIFE </s>
-0.3010 SCIENCE ADVANCEMENTS </s>
-0.3010 SECOND WRITING TIP
-0.3010 SEE IMAGES OF
-0.3010 SELFHARM HARM HARMING
-0.3010 SETTING DDLC JAPAN
-0.3010 SETTING IN JAPAN
-0.3010 SHE IT IS
-0.3010 SHIP NATUSKI WITH
-0.3010 SHIP SAYORI WITH
-0.3010 SHIP YURI WITH
-0.3010 SHIPPING SHIPS </s>
-0.3010 SICK SICKNESS </s>
-0.3010 SICKNESS IS SICK
-0.3010 SIMULATED REALITY </s>
-0.3010 SLEEP CONCERN </s>
-0.3010 SLEEP GOODNIGHT </s>
-0.3010 SLEEP SLEEPING TIRED
-0.3010 SLEEPING TIRED TIRE
-0.3010 SMASH GAME </s>
-0.3010 SMASH YOUR FAVORITE
-0.3010 SMOKE SMOKING </s>
-0.6021 SOCIAL MEDIA IS
-0.6021 SOCIAL MEDIA PRISON
-0.3010 SODA DRINK </s>
-0.3010 SOMEONE ELSE HAPPY
-0.3010 SONG YOUR REALITY
-0.3010 SORRY APOLOGIZE APOLOGIZED
-0.3010 SOUND OF RAIN
-0.3010 SOUND SOUNDS RAIN
-0.3010 SOUNDS OF RAINING
-0.3010 SOUNDS RAIN RAINING
-0.3010 SPEAKING LANGUAGE </s>
-0.6021 SPICY FOOD </s>
-0.6021 SPICY FOOD FOODS
-0.3010 SPIDERS SPIDER </s>
-0.3010 SPORT ATHLETIC </s>
-0.3010 SPORTS SPORT ATHLETIC
-0.3010 STOP LOVING YOU
-0.3010 STYLE PONYTAIL </s>
-0.3010 STYLE STRAIGHT </s>
-0.6021 SUDDEN ANXIETY </s>
-0.6021 SUDDEN ANXIETY ANXIOUS
-0.6021 SUPER SMASH GAME
-0.6021 SUPER SMASH YOUR
-0.3010 SURPRISE SURPRISES </s>
-0.3010 SWORDSMANSHIP SWORD </s>
-0.3010 TAKE SOMEWHERE </s>
-0.3010 TAKE YOU TO
-0.8451 TALK ABOUT DEATH
-1.1461 TALK ABOUT FUNERAL
-1.1461 TALK ABOUT GOD
-1.1461 TALK ABOUT MIDDLE
-1.1461 TALK ABOUT NATSUKI
-1.1461 TALK ABOUT RELIGION
-0.3010 TEA SET </s>
-0.3010 TECHNIQUE ARE AWESOME
-0.3010 TECHNIQUE CODE CODING
-0.9542 TELL ME ABOUT
-1.2553 TELL ME FIFTH
-1.2553 TELL ME FOURTH
-1.2553 TELL ME FRIST
-0.9542 TELL ME HOW
-1.2553 TELL ME SECOND
-1.2553 TELL ME THIRD
-0.3010 THAT TO SAYORI
-0.3010 THEY YOU WE
-0.3010 THIRD WRITING TIP
-0.3010 THIS A FICTION
-0.3010 THIS FICTION IS
-0.3010 THIS IS MY
-0.3010 THIS NOVEL IS
-0.3010 THIS REALITY </s>
-0.3010 THIS ROMANCE GAME
-0.3010 THIS SETTING IN
-0.3010 THIS YOUR LAST
-0.6021 THOUGHTS ABOUT GOD
-0.6021 THOUGHTS ABOUT RELIGION
-0.3010 THOUGHTS BELIEVE RELIGION
-0.3010 THOUSAND DOWNLOADS DOWNLOAD
-0.3010 THREE THIRD </s>
-0.3010 TIP FIFTH FIVE
-0.3010 TIP FIRST ONE
-0.3010 TIP FOURTH FOUR
-0.3010 TIP THREE THIRD
-0.3010 TIP TWO SECOND
-0.3010 TIRED TIRE </s>
-0.3010 TO ARGUING WITH
-0.3010 TO ASK FOR
-0.7782 TO BE CLOSE
-0.7782 TO BE SPOOKY
-0.7782 TO BE YOUR
-0.3010 TO CODE </s>
-0.3010 TO COLLAGE </s>
-0.3010 TO CUDDLE YOU
-0.3010 TO DDLC </s>
-0.3010 TO FAKE CONFIDENCE
-0.3010 TO FORM A
-0.3010 TO FRIEND </s>
-0.3010 TO HER FRIENDS
-0.3010 TO MAKE FREINDS
-0.3010 TO NEAR REAL
-0.3010 TO RAP MUSIC
-0.3010 TO ROMANTIC DATE
-0.4771 TO SAYORI </s>
-0.7782 TO SAYORI YURI
-0.3010 TO TAKE YOU
-0.3010 TO TALK ABOUT
-0.3010 TO WEARING OTHER
-0.3010 TO YOU </s>
-0.3010 TOGETHER LIVING WAITING
-0.3010 TORMENT IS NATURE
-0.3010 TORMENT NATURE </s>
-0.3010 TOTONO IS AWESOME
-0.3010 TROLLEY EXPERIMENTS PROBLEM
-0.3010 TROPES ARCHETYPES UNREALISTIC
-0.3010 TROPES OF OTHER
-0.3010 TRUE LOVE </s>
-0.3010 TSUNDERE NATUSKI </s>
-0.3010 TWITTER LILMONIX </s>
-0.3010 TWO SECOND </s>
-0.3010 TYPE MONIKA </s>
-0.3010 TYPE TYPES CREATE
-0.3010 TYPES CREATE </s>
-0.3010 UNDERGARMENTS PANTIES UNDERGARMENT
-0.3010 URGENT MESSAGE </s>
-0.3010 VEGAN EARTH </s>
-0.3010 VEGETARIAN MEAT VEGAN
-0.3010 VEGETARIAN OR VEGAN
-0.3010 VIDEO GAME </s>
-0.4771 VIDEO GAMES CAN
-0.7782 VIDEO GAMES GAME
-0.6021 VIDYA GAME </s>
-0.6021 VIDYA GAME ARE
-0.6021 VIRTUAL NOVEL </s>
-0.9031 VIRTUAL NOVEL IS
-0.9031 VIRTUAL NOVEL VN
-0.6021 VISUAL NOVELS </s>
-0.6021 VISUAL NOVELS NOVEL
-0.3010 VN IS VIRTUAL
-0.3010 VOCALOID HATSUNE MIKU
-0.3010 WAIFU WAIFUS </s>
-0.3010 WANT BEING CLOSEST
-0.8451 WANT TO BE
-1.1461 WANT TO CUDDLE
-1.1461 WANT TO MAKE
-1.1461 WANT TO TAKE
-1.1461 WANT TO TALK
-1.1461 WANT TO WEARING
-0.3010 WAR WARFARE </s>
-0.3010 WAS EASY </s>
-0.3010 WAS MAKE BY
-0.3010 WAS SAD </s>
-0.3010 WAS WERE HAVE
-0.3010 WE ARE </s>
-0.3010 WE MISSING FESTIVAL
-0.3010 WEARING OTHER CLOTHES
-0.3010 WEARY TIRED </s>
-0.3010 WEATHER CUDDLING CUDDLE
-0.3010 WEATHER IS AWESOME
-0.3010 WERE HAVE HAD
-0.3010 WHAT ARE YOUR
-1.2041 WHAT IS FUNCTIONALISM
-1.2041 WHAT IS LIBITINA
-0.4260 WHAT IS YOUR
-0.3010 WHAT YOU DID
-0.3010 WHEN YOU ARE
-0.3010 WHO READ BOOK
-0.3010 WHY DID YOU
-0.9031 WHY DO LOVE
-0.4260 WHY DO YOU
-0.3010 WHY YURI IS
-0.3010 WIAFUS ARE AWESOME
-0.3010 WILL MONIKA </s>
-1.3802 WILL YOU ARGUE
-0.6812 WILL YOU BE
-1.3802 WILL YOU DO
-1.3802 WILL YOU GO
-1.3802 WILL YOU HAVE
-1.3802 WILL YOU INTRODUCING
-1.3802 WILL YOU MAKE
-1.3802 WILL YOU TELL
-0.3010 WINE RELAXING DRINKING
-0.3010 WINE WITH MONIKA
-0.3010 WITH ME </s>
-0.3010 WITH MONIKA </s>
-0.3010 WITH NATUSKI </s>
-0.3010 WITH SAYORI </s>
-0.3010 WITH YOU MONIKA
-0.3010 WITH YURI </s>
-0.3010 WOLF WOLVES </s>
-0.3010 WORK CONTENT MATURE
-0.3010 WOULD YOU WANT
-0.6021 WRITING TIP </s>
-1.3010 WRITING TIP FIFTH
-1.3010 WRITING TIP FIRST
-1.3010 WRITING TIP FOURTH
-1.3010 WRITING TIP THREE
-1.3010 WRITING TIP TWO
-0.3010 WRITINGS WRITING </s>
-0.3010 YANDERE YURI OBSESSED
-0.3010 YEAR OLDER </s>
-0.3010 YELLOW WALLPAPER </s>
-0.3010 YOU A LOT
-0.3010 YOU AGNOSTICISM </s>
-1.0000 YOU ARE A
-1.0000 YOU ARE HE
-0.6990 YOU ARE MY
-1.0000 YOU ARE YOURSELF
-0.3010 YOU ARGUE WITH
-1.0000 YOU BE DEAD
-1.0000 YOU BE GIRLFRIEND
-0.5229 YOU BE MY
-0.3010 YOU BELIEVE IN
-0.3010 YOU CANT HAVE
-0.3010 YOU CLOSEST REAL
-0.3010 YOU CONTRIBUTE TO
-0.3010 YOU CREATE HABITS
-0.3010 YOU CREATIVE TYPE
-0.3010 YOU DID TO
-0.6021 YOU DO SAYORI
-0.6021 YOU DO YOUR
-0.3010 YOU DRAW </s>
-0.3010 YOU DREAM ABOUT
-0.3010 YOU GO TO
-0.6021 YOU HAVE A
-0.9031 YOU HAVE FREE
-0.9031 YOU HAVE OLDER
-0.3010 YOU HEARD ABOUT
-0.3010 YOU HYDRATION</S> </s>
-0.3010 YOU INTRODUCING TO
-0.3010 YOU IS ETERNAL
-0.3010 YOU JUSTIFICATION MURDER
-0.9031 YOU KNOW CODE
-0.9031 YOU KNOW HEDGEHOG
-0.9031 YOU KNOW HOW
-0.9031 YOU KNOW TROLLEY
-0.3010 YOU LAZY </s>
-0.7782 YOU LIKE BEING
-0.7782 YOU LIKE HIGH
-0.7782 YOU LIKE TO
-0.3010 YOU LITEN TO
-1.3802 YOU LOVE EARTH
-1.3802 YOU LOVE FAMILY
-1.3802 YOU LOVE HIGHER
-1.0792 YOU LOVE ME
-1.3802 YOU LOVE MEAT
-1.0792 YOU LOVE MY
-1.3802 YOU LOVE NATURE
-1.3802 YOU LOVE OTHER
-1.3802 YOU LOVE SOUND
-1.3802 YOU LOVE SPICY
-0.3010 YOU MAKE ME
-0.3010 YOU MISS YOUR
-0.3010 YOU MONIKA </s>
-0.3010 YOU PLAY ROMANCE
-0.3010 YOU READ MANGA
-0.3010 YOU REGRET WHAT
-0.3010 YOU SEE IMAGES
-0.7782 YOU SHIP NATUSKI
-0.7782 YOU SHIP SAYORI
-0.7782 YOU SHIP YURI
-0.3010 YOU TELL ME
-0.6021 YOU TO HER
-0.6021 YOU TO ROMANTIC
-0.3010 YOU VEGETARIAN OR
-0.7782 YOU WANT BEING
-0.4771 YOU WANT TO
-0.3010 YOU WE ARE
-0.3010 YOUR BEAUTIFUL EYES
-0.3010 YOUR CATCHPHRASE </s>
-0.3010 YOUR CONTRIBUTIONS TO
-0.3010 YOUR FAMILY </s>
-0.9031 YOUR FAVORITE BOOK
-0.9031 YOUR FAVORITE GAME
-0.9031 YOUR FAVORITE POEM
-0.9031 YOUR FAVORITE VIDEO
-0.3010 YOUR HERO </s>
-0.3010 YOUR LAST POEM
-0.3010 YOUR LIFE </s>
-0.3010 YOUR LITTLE AND
-0.9031 YOUR REALITY IS
-0.9031 YOUR REALITY PIANO
-0.6021 YOUR REALITY SONG
-0.3010 YOUR RELIGION </s>
-0.3010 YOUR SONG </s>
-0.3010 YOUR THOUGHTS ABOUT
-0.3010 YOUR TWITTER LILMONIX
-0.3010 YOURSELF MONIKA </s>
-0.4771 YURI BOOK </s>
-0.7782 YURI BOOK PORTRAIT
-0.3010 YURI DRINK WINE
-0.3010 YURI IS OBSESSED
-0.3010 YURI LOVE PORTRAIT
-0.3010 YURI LOVES BOOKS
-0.3010 YURI NATSUKI </s>
-0.3010 YURI OBSESSED OBSESSE
-0.3010 YURI TEA SET
-0.3010 YURI WINE RELAXING
-0.3010 YURI WITH NATUSKI
-0.3010 YURI YANDERE </s>
-0.3010 ZOMBIES UNDEAD </s>

\end\
